{"learner":{"attributes":{},"feature_names":[],"feature_types":[],"gradient_booster":{"model":{"gbtree_model_param":{"num_parallel_tree":"1","num_trees":"10"},"iteration_indptr":[0,1,2,3,4,5,6,7,8,9,10],"tree_info":[0,0,0,0,0,0,0,0,0,0],"trees":[{"base_weights":[2.2133362E-1,-3.627622E-4,2.7728812E-3],"categories":[],"categories_nodes":[],"categories_segments":[],"categories_sizes":[],"default_left":[0,0,0],"id":0,"left_children":[1,-1,-1],"loss_changes":[5.2186265E3,0E0,0E0],"parents":[2147483647,0,0],"right_children":[2,-1,-1],"split_conditions":[2.040632E0,-3.627622E-4,2.7728812E-3],"split_indices":[7,0,0],"split_type":[0,0,0],"sum_hessian":[3.518E3,2.862E3,6.56E2],"tree_param":{"num_deleted":"0","num_feature":"16","num_nodes":"3","size_leaf_vector":"1"}},{"base_weights":[-2.2754891E-1,4.092231E0,-7.0337143E0,-7.673728E-1,3.6725945E1,-1.8269434E0,8.220336E0,9.9772054E-1,-1.5110502E1,-7.338132E0,1.7301723E1,-4.8916874E0,-9.868809E0,3.0677466E0,-1.2915198E0,-1.0973068E0,6.5525804E0,4.206089E-2,4.8760448E0,3.7629147E0,1.8348719E1,1.9566482E-2,3.74938E1,1.6832478E-2,3.1902106E-3,-1.0129716E1,-2.2136073E-3,1.46244485E-2,3.7783332E-2,1.2881567E-2,2.288176E-2,-1.2019062E1,-9.750441E0,3.5901356E1,3.8481876E1,-7.84218E0,-1.0031184E1,-1.1008553E1,-9.137586E0,4.0085823E1,3.7708534E1,3.731793E1,4.1988712E1,4.1281503E-2,3.278629E-2,-7.8229694E0,-9.684703E0,-1.06939655E-2,-8.922961E-3,3.713281E1,3.518141E1,-9.909787E0,-7.2179747E0,3.6783665E1,3.853933E1,3.9194836E1,3.631892E-2,-1.0851077E1,-1.2603038E1,-1.4987728E1,-1.1410668E1,-1.0353134E1,-1.4017155E-2,-1.4575712E-2,-1.0141761E-2,7.9678273E0,9.363609E0,-1.2527875E1,-1.0843076E1,-1.0371595E-2,-1.4752647E-2,-8.168474E-3,-5.5756494E-3,3.8449677E1,4.0703062E-2,3.9836876E-2,3.7089795E-2,-6.315161E-3,-8.173373E0,-4.2774377E0,-4.9919925E0,-5.2137394E0,-4.5865064E0,-4.4937973E0,-2.4015515E-3,-9.637774E-3,-7.138189E-3,-1.1081805E0,-1.5815637E0,-4.2706995E0,-6.051618E-3,-5.6177654E0,-5.0556383E0,-3.849354E0,-4.723935E0,-4.8410325E0,-5.347272E0,-5.0569024E0,-4.3265934E0,-1.4339463E-2,-1.599366E-2,-1.112993E-2,-1.0599836E-2,-1.0850591E-2,-9.023101E-3,-1.5141222E0,-1.0291443E0,-3.4917085E-3,-4.6621547E-3,3.359031E-2,3.529174E1,3.902338E-2,3.70811E-2,-1.9807928E0,-1.4822377E0,-4.379881E-4,-1.6274321E0,-1.9262078E-3,-1.3856081E-3,4.255465E-2,4.144445E-2,-1.4738884E-3,-2.3384044E0,-9.589942E-3,-1.0666386E-2,-1.5803307E-2,-1.5070913E1,-4.9779806E0,-4.572871E0,-2.9873056E-3,-4.766038E0,7.8209276E0,8.233747E0,8.620787E0,7.789325E0,-4.871238E-3,-5.34664E-3,-4.6843558E-4,-1.060654E0,-5.2609725E0,-5.9502786E-3,-5.512903E-3,-4.8002885E-3,-5.4742615E-3,-4.709556E-3,-1.4662083E-2,-1.510557E1,-1.5153855E1,-1.4806435E1,-5.538541E0,-6.0302876E-3,-4.206093E0,-4.9208086E-3,-2.6918321E-3,-2.079366E-3,3.520586E-2,3.5618134E-2,3.6529488E1,3.706521E-2,3.7095856E-2,3.5955746E-2,-5.660452E0,-5.3469334E0,-5.4108305E-3,-5.85266E-3,7.635013E-3,7.911546E0,-1.5133007E1,-1.5562833E-2,-1.0208145E-3,-1.1785092E-3,9.280269E-3,9.716044E-3,-5.0715847E0,-4.8471643E-3,-4.891432E-3,-5.667468E-3,-4.1136825E-3,-3.7646736E-3,-1.5244162E-2,-1.5122567E-2,-1.1105534E0,-9.3662046E-4,-1.0445338E0,-1.1530337E-3,-1.1634205E-3,-9.945061E-4,7.925664E-3,7.580496E-3,-4.373937E-3,-4.1796494E0,-4.113695E-3,-4.247968E-3,7.998595E-3,7.884915E-3,8.527057E-3,8.700205E-3,-1.5523147E-3,-1.47979E-3,-1.4810049E-2,-1.492072E-2,-5.4096403E-3,-5.3448887E-3],"categories":[],"categories_nodes":[],"categories_segments":[],"categories_sizes":[],"default_left":[0,0,0,0,0,0,0,0,0,0,0,0,0,0,0,0,0,0,0,0,0,0,0,0,0,0,0,0,0,0,0,0,0,0,0,0,0,0,0,0,0,0,0,0,0,0,0,0,0,0,0,0,0,0,0,0,0,0,0,0,0,0,0,0,0,0,0,0,0,0,0,0,0,0,0,0,0,0,0,0,0,0,0,0,0,0,0,0,0,0,0,0,0,0,0,0,0,0,0,0,0,0,0,0,0,0,0,0,0,0,0,0,0,0,0,0,0,0,0,0,0,0,0,0,0,0,0,0,0,0,0,0,0,0,0,0,0,0,0,0,0,0,0,0,0,0,0,0,0,0,0,0,0,0,0,0,0,0,0,0,0,0,0,0,0,0,0,0,0,0,0,0,0,0,0,0,0,0,0,0,0,0,0,0,0,0,0,0,0,0,0,0,0,0,0,0,0,0,0,0,0,0,0],"id":1,"left_children":[1,3,9,5,21,7,65,13,125,11,27,79,25,15,87,181,17,-1,19,23,29,-1,33,-1,-1,31,-1,-1,-1,-1,-1,57,35,49,39,51,37,67,45,41,53,43,119,-1,-1,71,47,-1,-1,111,109,103,77,157,55,73,-1,63,59,99,61,123,-1,-1,-1,131,171,69,101,-1,-1,-1,-1,75,-1,-1,-1,-1,85,83,81,91,93,89,-1,-1,-1,105,113,151,-1,149,95,177,127,97,139,135,107,-1,-1,-1,-1,-1,-1,197,137,-1,-1,-1,155,-1,-1,121,115,-1,117,-1,-1,-1,-1,-1,153,-1,-1,-1,145,173,129,-1,143,165,133,195,187,-1,-1,-1,169,141,-1,-1,-1,-1,-1,-1,147,167,199,161,-1,189,-1,-1,-1,-1,-1,159,-1,-1,-1,163,201,-1,-1,-1,193,179,-1,-1,-1,-1,-1,175,-1,-1,-1,-1,-1,-1,-1,183,-1,185,-1,-1,-1,-1,-1,-1,191,-1,-1,-1,-1,-1,-1,-1,-1,-1,-1,-1,-1],"loss_changes":[1.0419764E5,3.4381647E5,1.0193586E4,1.7970105E4,3.7139062E3,6.3336465E4,5.742871E1,6.5963936E3,7.5703125E0,8.413773E3,9.412705E2,4.25625E1,1.3352305E3,1.061012E4,3.5146484E1,7.177429E-1,2.3616637E4,0E0,5.6987744E3,2.6577886E3,7.1331445E2,0E0,4.2321875E2,0E0,0E0,4.6289062E2,0E0,0E0,0E0,0E0,0E0,7.3637695E1,2.8820312E2,9.1234375E1,2.0578125E2,8.9032715E1,4.0958984E2,5.6289062E1,1.7619531E2,2.8433594E2,8.5984375E1,3.9141406E2,9.363281E0,0E0,0E0,5.2634766E1,1.3326172E2,0E0,0E0,1.028125E1,1.19921875E1,1.3263062E1,4.6571533E1,2.34375E0,8.961719E1,4.7796875E1,0E0,9.773828E1,2.0469727E2,1.5839844E1,1.3033887E2,7.602539E0,0E0,0E0,0E0,6.348633E0,1.253418E0,1.0496045E2,1.4076172E1,0E0,0E0,0E0,0E0,5.5953125E1,0E0,0E0,0E0,0E0,3.941504E1,3.949878E1,5.3398438E1,2.4516602E1,2.1264648E1,2.990393E1,0E0,0E0,0E0,1.299115E1,1.0147461E1,3.1157227E0,0E0,3.3754883E0,1.7262207E1,7.8408813E-1,6.7817383E0,1.7646484E1,5.911865E0,6.119629E0,1.2803101E1,0E0,0E0,0E0,0E0,0E0,0E0,8.251953E-2,6.0012817E0,0E0,0E0,0E0,2.4609375E0,0E0,0E0,9.314041E0,3.1115112E1,0E0,1.2972412E1,0E0,0E0,0E0,0E0,0E0,2.74292E0,0E0,0E0,0E0,4.3164062E0,8.7854004E-1,3.4163086E1,0E0,4.7473145E0,1.949707E0,9.957764E0,1.821289E-1,6.9311523E-1,0E0,0E0,0E0,1.5660706E0,1.1435303E1,0E0,0E0,0E0,0E0,0E0,0E0,3.7070312E0,1.6679688E0,6.347656E-2,2.0895996E0,0E0,2.746582E-1,0E0,0E0,0E0,0E0,0E0,6.7910156E0,0E0,0E0,0E0,2.5496826E0,1.5563965E-2,0E0,0E0,0E0,2.109375E-1,7.2265625E-1,0E0,0E0,0E0,0E0,0E0,4.4804688E0,0E0,0E0,0E0,0E0,0E0,0E0,0E0,7.972717E-1,0E0,6.993637E-1,0E0,0E0,0E0,0E0,0E0,0E0,2.4865723E-1,0E0,0E0,0E0,0E0,0E0,0E0,0E0,0E0,0E0,0E0,0E0,0E0],"parents":[2147483647,0,0,1,1,3,3,5,5,2,2,9,9,7,7,13,13,16,16,18,18,4,4,19,19,12,12,10,10,20,20,25,25,22,22,32,32,36,36,34,34,39,39,41,41,38,38,46,46,33,33,35,35,40,40,54,54,31,31,58,58,60,60,57,57,6,6,37,37,67,67,45,45,55,55,73,73,52,52,11,11,80,80,79,79,78,78,14,14,83,83,81,81,82,82,92,92,95,95,59,59,68,68,51,51,87,87,98,98,50,50,49,49,88,88,114,114,116,116,42,42,113,113,61,61,8,8,94,94,128,128,65,65,132,132,97,97,106,106,96,96,139,139,130,130,126,126,146,146,91,91,89,89,122,122,110,110,53,53,157,157,149,149,161,161,131,131,147,147,138,138,66,66,127,127,173,173,93,93,167,167,15,15,181,181,183,183,134,134,151,151,190,190,166,166,133,133,105,105,148,148,162,162],"right_children":[2,4,10,6,22,8,66,14,126,12,28,80,26,16,88,182,18,-1,20,24,30,-1,34,-1,-1,32,-1,-1,-1,-1,-1,58,36,50,40,52,38,68,46,42,54,44,120,-1,-1,72,48,-1,-1,112,110,104,78,158,56,74,-1,64,60,100,62,124,-1,-1,-1,132,172,70,102,-1,-1,-1,-1,76,-1,-1,-1,-1,86,84,82,92,94,90,-1,-1,-1,106,114,152,-1,150,96,178,128,98,140,136,108,-1,-1,-1,-1,-1,-1,198,138,-1,-1,-1,156,-1,-1,122,116,-1,118,-1,-1,-1,-1,-1,154,-1,-1,-1,146,174,130,-1,144,166,134,196,188,-1,-1,-1,170,142,-1,-1,-1,-1,-1,-1,148,168,200,162,-1,190,-1,-1,-1,-1,-1,160,-1,-1,-1,164,202,-1,-1,-1,194,180,-1,-1,-1,-1,-1,176,-1,-1,-1,-1,-1,-1,-1,184,-1,186,-1,-1,-1,-1,-1,-1,192,-1,-1,-1,-1,-1,-1,-1,-1,-1,-1,-1,-1],"split_conditions":[6.251987E-1,-6.931616E-1,4.2835183E0,-6.985637E-1,-6.7812234E-1,-7.2276586E-1,-6.9346654E-1,-7.291618E-1,-7.227621E-1,1.4945186E0,6.0961537E0,6.263996E-1,1.6102967E0,-7.3903614E-1,-7.2377855E-1,-7.437192E-1,-7.3893076E-1,4.206089E-2,-7.3826444E-1,-7.3886675E-1,-7.381854E-1,1.9566482E-2,-6.7779106E-1,1.6832478E-2,3.1902106E-3,1.5089669E0,-2.2136073E-3,1.46244485E-2,3.7783332E-2,1.2881567E-2,2.288176E-2,1.4945261E0,1.5106684E0,-6.7811483E-1,-6.7323977E-1,1.5093886E0,1.5264117E0,1.5118505E0,1.5404571E0,-6.733113E-1,-6.730967E-1,-6.7718494E-1,-6.732774E-1,4.1281503E-2,3.278629E-2,1.5404496E0,1.5577514E0,-1.06939655E-2,-8.922961E-3,-6.781186E-1,-6.78111E-1,1.5090384E0,1.5100473E0,-6.731607E-1,-6.7279553E-1,-6.728934E-1,3.631892E-2,1.4945223E0,1.5065199E0,1.4951586E0,1.507303E0,1.5067797E0,-1.4017155E-2,-1.4575712E-2,-1.0141761E-2,-6.985524E-1,-6.9329715E-1,1.511316E0,1.5227677E0,-1.0371595E-2,-1.4752647E-2,-8.168474E-3,-5.5756494E-3,-6.729687E-1,4.0703062E-2,3.9836876E-2,3.7089795E-2,-6.315161E-3,1.5100887E0,6.263657E-1,6.303712E-1,6.269379E-1,6.305255E-1,6.262076E-1,-2.4015515E-3,-9.637774E-3,-7.138189E-3,-7.291543E-1,-7.236581E-1,6.2610596E-1,-6.051618E-3,6.2689275E-1,6.2918156E-1,6.3048035E-1,6.310074E-1,6.283986E-1,6.303072E-1,6.2802964E-1,6.286997E-1,-1.4339463E-2,-1.599366E-2,-1.112993E-2,-1.0599836E-2,-1.0850591E-2,-9.023101E-3,-7.2915804E-1,-7.2915053E-1,-3.4917085E-3,-4.6621547E-3,3.359031E-2,-6.7810726E-1,3.902338E-2,3.70811E-2,-7.237371E-1,-7.2359407E-1,-4.379881E-4,-7.234209E-1,-1.9262078E-3,-1.3856081E-3,4.255465E-2,4.144445E-2,-1.4738884E-3,-7.2367686E-1,-9.589942E-3,-1.0666386E-2,-1.5803307E-2,-7.2275835E-1,6.306611E-1,6.3102245E-1,-2.9873056E-3,6.3102996E-1,-6.9855994E-1,-6.936021E-1,-6.936623E-1,-6.9349664E-1,-4.871238E-3,-5.34664E-3,-4.6843558E-4,-7.240157E-1,6.298893E-1,-5.9502786E-3,-5.512903E-3,-4.8002885E-3,-5.4742615E-3,-4.709556E-3,-1.4662083E-2,-7.171341E-1,-7.1718687E-1,-7.170438E-1,6.2665933E-1,-6.0302876E-3,6.255375E-1,-4.9208086E-3,-2.6918321E-3,-2.079366E-3,3.520586E-2,3.5618134E-2,-6.7316824E-1,3.706521E-2,3.7095856E-2,3.5955746E-2,6.2654644E-1,6.267798E-1,-5.4108305E-3,-5.85266E-3,7.635013E-3,-6.985562E-1,-7.22747E-1,-1.5562833E-2,-1.0208145E-3,-1.1785092E-3,9.280269E-3,9.716044E-3,6.3064224E-1,-4.8471643E-3,-4.891432E-3,-5.667468E-3,-4.1136825E-3,-3.7646736E-3,-1.5244162E-2,-1.5122567E-2,-7.43723E-1,-9.3662046E-4,-7.437268E-1,-1.1530337E-3,-1.1634205E-3,-9.945061E-4,7.925664E-3,7.580496E-3,-4.373937E-3,6.257747E-1,-4.113695E-3,-4.247968E-3,7.998595E-3,7.884915E-3,8.527057E-3,8.700205E-3,-1.5523147E-3,-1.47979E-3,-1.4810049E-2,-1.492072E-2,-5.4096403E-3,-5.3448887E-3],"split_indices":[2,2,2,2,2,2,2,2,2,2,2,2,2,2,2,2,2,0,2,2,2,0,2,0,0,2,0,0,0,0,0,2,2,2,2,2,2,2,2,2,2,2,2,0,0,2,2,0,0,2,2,2,2,2,2,2,0,2,2,2,2,2,0,0,0,2,2,2,2,0,0,0,0,2,0,0,0,0,2,2,2,2,2,2,0,0,0,2,2,2,0,2,2,2,2,2,2,2,2,0,0,0,0,0,0,2,2,0,0,0,2,0,0,2,2,0,2,0,0,0,0,0,2,0,0,0,2,2,2,0,2,2,2,2,2,0,0,0,2,2,0,0,0,0,0,0,2,2,2,2,0,2,0,0,0,0,0,2,0,0,0,2,2,0,0,0,2,2,0,0,0,0,0,2,0,0,0,0,0,0,0,2,0,2,0,0,0,0,0,0,2,0,0,0,0,0,0,0,0,0,0,0,0],"split_type":[0,0,0,0,0,0,0,0,0,0,0,0,0,0,0,0,0,0,0,0,0,0,0,0,0,0,0,0,0,0,0,0,0,0,0,0,0,0,0,0,0,0,0,0,0,0,0,0,0,0,0,0,0,0,0,0,0,0,0,0,0,0,0,0,0,0,0,0,0,0,0,0,0,0,0,0,0,0,0,0,0,0,0,0,0,0,0,0,0,0,0,0,0,0,0,0,0,0,0,0,0,0,0,0,0,0,0,0,0,0,0,0,0,0,0,0,0,0,0,0,0,0,0,0,0,0,0,0,0,0,0,0,0,0,0,0,0,0,0,0,0,0,0,0,0,0,0,0,0,0,0,0,0,0,0,0,0,0,0,0,0,0,0,0,0,0,0,0,0,0,0,0,0,0,0,0,0,0,0,0,0,0,0,0,0,0,0,0,0,0,0,0,0,0,0,0,0,0,0,0,0,0,0],"sum_hessian":[3.544E3,2.168E3,1.376E3,1.887E3,2.81E2,1.688E3,1.99E2,1.392E3,2.96E2,1.359E3,1.7E1,6.91E2,6.68E2,7.31E2,6.61E2,3.33E2,3.98E2,1.8E1,3.8E2,3.51E2,2.9E1,1.2E1,2.69E2,1.5E1,3.36E2,6.46E2,2.2E1,1.5E1,2E0,1.3E1,1.6E1,1.08E2,5.38E2,1.03E2,1.66E2,6.9E1,4.69E2,2.24E2,2.45E2,5.4E1,1.12E2,2.2E1,3.2E1,1.2E1,1E1,7.2E1,1.73E2,7.7E1,9.6E1,3.8E1,6.5E1,1.6E1,5.3E1,5.3E1,5.9E1,4.6E1,1.3E1,3.6E1,7.2E1,2.4E1,4.8E1,3.4E1,1.4E1,6E0,3E1,1.63E2,3.6E1,2.2E1,2.02E2,1.1E1,1.1E1,6.3E1,9E0,3E1,1.6E1,1.6E1,1.4E1,2.7E1,2.6E1,9.7E1,5.94E2,3.84E2,2.1E2,8.7E1,1E1,1.1E1,1.5E1,4.05E2,2.56E2,7.6E1,1.1E1,1.08E2,2.76E2,3.3E1,1.77E2,1.59E2,1.17E2,1.12E2,4.7E1,1.4E1,1E1,1.04E2,9.8E1,8E0,8E0,6.6E1,3.39E2,1.3E1,3.4E1,4E0,6.1E1,3E0,3.5E1,5.1E1,2.05E2,2.5E1,1.8E2,8.2E1,9.8E1,1.9E1,1.3E1,2.1E1,3E1,9E0,2.5E1,1.7E1,2.79E2,6.6E1,1.11E2,1.2E1,9.9E1,1.05E2,5.8E1,3.1E1,2.7E1,6.5E1,4.7E1,1.8E1,3.21E2,1.02E2,1.5E1,6.8E1,3.4E1,9E0,9E1,2E1,2.59E2,2.23E2,3.6E1,9E1,1.8E1,6.9E1,7E0,1.3E1,1.7E1,3.4E1,2.7E1,2.2E1,3.1E1,1.3E1,9E0,5.5E1,3.5E1,2.2E1,3.3E1,3.2E1,7.3E1,2.11E2,1.2E1,2.34E2,8.7E1,2.7E1,9E0,4E1,2.6E1,3E1,1E1,9E0,2.4E1,9E1,1.21E2,3.08E2,2.5E1,1.15E2,1.93E2,3.6E1,7.9E1,1.8E1,9E0,1E1,5.9E1,2.5E1,3.4E1,3.1E1,4.2E1,1E1,2.1E1,3.5E1,3.1E1,2.4E1,1.2E1,9E0,2.6E1],"tree_param":{"num_deleted":"0","num_feature":"16","num_nodes":"203","size_leaf_vector":"1"}},{"base_weights":[4.076963E-1,6.3865667E-4,-1.7304505E-3],"categories":[],"categories_nodes":[],"categories_segments":[],"categories_sizes":[],"default_left":[0,0,0],"id":2,"left_children":[1,-1,-1],"loss_changes":[1.6885708E3,0E0,0E0],"parents":[2147483647,0,0],"right_children":[2,-1,-1],"split_conditions":[3.029269E0,6.3865667E-4,-1.7304505E-3],"split_indices":[13,0,0],"split_type":[0,0,0],"sum_hessian":[3.453E3,3.118E3,3.35E2],"tree_param":{"num_deleted":"0","num_feature":"16","num_nodes":"3","size_leaf_vector":"1"}},{"base_weights":[3.1097054E-1,-8.1414584E-4,5.02907E-3],"categories":[],"categories_nodes":[],"categories_segments":[],"categories_sizes":[],"default_left":[0,0,0],"id":3,"left_children":[1,-1,-1],"loss_changes":[1.8805725E4,0E0,0E0],"parents":[2147483647,0,0],"right_children":[2,-1,-1],"split_conditions":[2.040632E0,-8.1414584E-4,5.02907E-3],"split_indices":[7,0,0],"split_type":[0,0,0],"sum_hessian":[3.56E3,2.874E3,6.86E2],"tree_param":{"num_deleted":"0","num_feature":"16","num_nodes":"3","size_leaf_vector":"1"}},{"base_weights":[-1.1593381E-1,-4.804415E-3,6.1516136E-1,1.7526562E0,-2.651829E-1,-2.3135087E0,6.787371E-1,3.7954866E-3,-6.788955E-1,-3.4043707E-3,7.0650345E-1,3.341844E-5,-4.5151147E-3,1.3527738E0,3.0811897E-3,3.050449E-3,5.982607E-1,1.7261439E-3,-1.0505397E-4,4.135611E-4,7.9589867E-4],"categories":[],"categories_nodes":[],"categories_segments":[],"categories_sizes":[],"default_left":[0,0,0,0,0,0,0,0,0,0,0,0,0,0,0,0,0,0,0,0,0],"id":4,"left_children":[1,-1,3,13,5,11,7,-1,9,-1,17,-1,-1,15,-1,-1,19,-1,-1,-1,-1],"loss_changes":[1.2158313E4,0E0,3.0802686E3,7.0842725E2,3.3526143E3,2.8104246E3,5.0059766E3,0E0,3.1082354E3,0E0,4.5039117E2,0E0,0E0,1.3128691E3,0E0,0E0,2.586058E1,0E0,0E0,0E0,0E0],"parents":[2147483647,0,0,2,2,4,4,6,6,8,8,5,5,3,3,13,13,10,10,16,16],"right_children":[2,-1,4,14,6,12,8,-1,10,-1,18,-1,-1,16,-1,-1,20,-1,-1,-1,-1],"split_conditions":[-6.398248E-1,-4.804415E-3,-4.2677793E-1,-4.741217E-1,-3.557623E-1,-3.7943417E-1,8.0415964E-1,3.7954866E-3,1.1829096E0,-3.4043707E-3,2.6032221E0,3.341844E-5,-4.5151147E-3,-6.1615294E-1,3.0811897E-3,3.050449E-3,-5.688092E-1,1.7261439E-3,-1.0505397E-4,4.135611E-4,7.9589867E-4],"split_indices":[4,0,4,4,4,4,4,0,4,0,4,0,0,4,0,0,4,0,0,0,0],"split_type":[0,0,0,0,0,0,0,0,0,0,0,0,0,0,0,0,0,0,0,0,0],"sum_hessian":[3.557E3,4.81E2,3.076E3,1.342E3,1.734E3,5.47E2,1.187E3,3.61E2,8.26E2,2.79E2,5.47E2,2.64E2,2.83E2,1.03E3,3.12E2,3.18E2,7.12E2,2.43E2,3.04E2,3.65E2,3.47E2],"tree_param":{"num_deleted":"0","num_feature":"16","num_nodes":"21","size_leaf_vector":"1"}},{"base_weights":[-7.119882E-2,-3.6819923E0,1.0516291E0,5.452674E-2,3.7836757E-1,-1.0845799E-3,-5.394819E-3,-1.490829E-1,1.9367104E0,4.5264214E-3,-6.499936E-4,1.0785928E0,-1.6689986E0,-1.4520742E-3,2.8597303E-3,-3.326528E-3,-5.9826213E-1,1.0623972E-5,-9.946229E-4],"categories":[],"categories_nodes":[],"categories_segments":[],"categories_sizes":[],"default_left":[0,0,0,0,0,0,0,0,0,0,0,0,0,0,0,0,0,0,0],"id":5,"left_children":[1,5,3,-1,7,-1,-1,11,9,-1,-1,13,15,-1,-1,-1,17,-1,-1],"loss_changes":[1.4494123E4,3.744495E3,9.790607E4,0E0,2.2135095E3,0E0,0E0,3.754319E3,4.5370127E3,0E0,0E0,4.9869937E3,1.5867778E3,0E0,0E0,0E0,1.3062329E2,0E0,0E0],"parents":[2147483647,0,0,2,2,1,1,4,4,8,8,7,7,11,11,12,12,16,16],"right_children":[2,6,4,-1,8,-1,-1,12,10,-1,-1,14,16,-1,-1,-1,18,-1,-1],"split_conditions":[-7.5603956E-1,-9.9991417E-1,-5.1216495E-1,5.452674E-2,1.1949575E0,-1.0845799E-3,-5.394819E-3,-3.4170642E-2,2.170456E0,4.5264214E-3,-6.499936E-4,-2.6829028E-1,-2.4415657E-2,-1.4520742E-3,2.8597303E-3,-3.326528E-3,9.510829E-1,1.0623972E-5,-9.946229E-4],"split_indices":[15,15,15,0,15,0,0,15,15,0,0,15,15,0,0,0,15,0,0],"split_type":[0,0,0,0,0,0,0,0,0,0,0,0,0,0,0,0,0,0,0],"sum_hessian":[3.575E3,8.48E2,2.727E3,3.4E1,2.693E3,3.35E2,5.13E2,2.012E3,6.81E2,3.41E2,3.4E2,1.113E3,8.99E2,4.59E2,6.54E2,3.54E2,5.45E2,2.14E2,3.31E2],"tree_param":{"num_deleted":"0","num_feature":"16","num_nodes":"19","size_leaf_vector":"1"}},{"base_weights":[-1.3161348E-2,3.960646E-2,-4.511798E-1,-3.1748264E0,4.3549293E-1,1.0177159E0,-6.169348E0,2.1344538E-1,2.1769651E1,5.3330414E1,-8.611492E-4,9.48979E-2,3.868299E-2,9.686799E-2,7.5152945E-3,-4.740946E0,-1.7978626E-3,-3.8672836E0,-9.791217E-3,-8.142296E-1,7.796748E-1,1.0023854E0,-5.3977923E0,3.291199E-3,-5.0298877E-2,-5.690046E0,-2.1170108E0,-4.211246E0,-8.003956E0,-1.4754472E-2,-4.381193E-3,-9.556005E-3,-4.6200243E-1,2.3110418E-3,4.5800218E-1,-8.398675E-3,-4.812792E-3,-9.6451396E-1,1.4400828E-2,-3.5293648E-1,7.9949683E-4,1.4463435E-4,-2.037592E-3,-8.2249416E-4,8.4211957E-4,-4.3706903E-3,-6.422855E0,-2.702741E-3,-9.429204E-4,-7.2202226E-3,-5.411765E-3,5.484274E-4,-1.0773996E-3],"categories":[],"categories_nodes":[],"categories_segments":[],"categories_sizes":[],"default_left":[0,0,0,0,0,0,0,0,0,0,0,0,0,0,0,0,0,0,0,0,0,0,0,0,0,0,0,0,0,0,0,0,0,0,0,0,0,0,0,0,0,0,0,0,0,0,0,0,0,0,0,0,0],"id":6,"left_children":[1,-1,3,15,5,7,27,13,9,11,-1,-1,-1,19,-1,17,-1,25,-1,21,23,33,35,-1,39,45,47,31,29,-1,-1,-1,37,-1,43,-1,-1,51,-1,41,-1,-1,-1,-1,-1,-1,49,-1,-1,-1,-1,-1,-1],"loss_changes":[6.1560098E4,0E0,8.495913E3,1.8698418E3,1.0205926E4,4.0707305E4,7.723413E2,1.993064E3,6.4989625E4,2.3157977E4,0E0,0E0,0E0,1.4376816E3,0E0,1.7774795E3,0E0,1.1006553E3,0E0,8.24331E3,2.743775E3,5.0266052E2,5.0051074E2,0E0,2.5446689E2,1.6486084E2,1.1976837E2,2.0738506E3,2.7072505E3,0E0,0E0,0E0,4.543727E2,0E0,2.4402966E2,0E0,0E0,9.80489E0,0E0,6.10244E2,0E0,0E0,0E0,0E0,0E0,0E0,8.694238E1,0E0,0E0,0E0,0E0,0E0,0E0],"parents":[2147483647,0,0,2,2,4,4,5,5,8,8,9,9,7,7,3,3,15,15,13,13,19,19,20,20,17,17,6,6,28,28,27,27,21,21,22,22,32,32,24,24,39,39,34,34,25,25,26,26,46,46,37,37],"right_children":[2,-1,4,16,6,8,28,14,10,12,-1,-1,-1,20,-1,18,-1,26,-1,22,24,34,36,-1,40,46,48,32,30,-1,-1,-1,38,-1,44,-1,-1,52,-1,42,-1,-1,-1,-1,-1,-1,50,-1,-1,-1,-1,-1,-1],"split_conditions":[-1.4234403E0,3.960646E-2,-7.750085E-1,-1.0876232E0,1.886594E0,1.830115E0,1.9321316E0,1.5178127E0,1.8757567E0,1.8312613E0,-8.611492E-4,9.48979E-2,3.868299E-2,1.8284331E-1,7.5152945E-3,-1.2585194E0,-1.7978626E-3,-1.2960331E0,-9.791217E-3,5.9673075E-2,2.628727E-1,-4.3457094E-1,6.279922E-2,3.291199E-3,1.5175002E0,-1.3419667E0,-1.2700862E0,1.8975356E0,2.0102854E0,-1.4754472E-2,-4.381193E-3,-9.556005E-3,1.9186891E0,2.3110418E-3,-2.539838E-1,-8.398675E-3,-4.812792E-3,1.9026417E0,1.4400828E-2,6.8386066E-1,7.9949683E-4,1.4463435E-4,-2.037592E-3,-8.2249416E-4,8.4211957E-4,-4.3706903E-3,-1.296154E0,-2.702741E-3,-9.429204E-4,-7.2202226E-3,-5.411765E-3,5.484274E-4,-1.0773996E-3],"split_indices":[8,0,8,8,8,8,8,8,8,8,0,0,0,8,0,8,0,8,0,8,8,8,8,0,8,8,8,8,8,0,0,0,8,0,8,0,0,8,0,8,0,0,0,0,0,0,8,0,0,0,0,0,0],"split_type":[0,0,0,0,0,0,0,0,0,0,0,0,0,0,0,0,0,0,0,0,0,0,0,0,0,0,0,0,0,0,0,0,0,0,0,0,0,0,0,0,0,0,0,0,0,0,0,0,0,0,0,0,0],"sum_hessian":[3.557E3,3.9E1,3.518E3,8.64E2,2.654E3,2.439E3,2.15E2,2.348E3,9.1E1,3.8E1,5.3E1,1E1,2.8E1,2.311E3,3.7E1,4.05E2,4.59E2,3.45E2,6E1,9.9E2,1.321E3,7.09E2,2.81E2,3.29E2,9.92E2,1.69E2,1.76E2,1.04E2,1.11E2,3.9E1,7.2E1,4.3E1,6.1E1,2.09E2,5E2,4.7E1,2.34E2,5.9E1,2E0,7.31E2,2.61E2,5.64E2,1.67E2,1.15E2,3.85E2,6E1,1.09E2,1.18E2,5.8E1,6.2E1,4.7E1,4E0,5.5E1],"tree_param":{"num_deleted":"0","num_feature":"16","num_nodes":"53","size_leaf_vector":"1"}},{"base_weights":[-3.6155006E-1,-1.2479686E-3,3.3871252E-3],"categories":[],"categories_nodes":[],"categories_segments":[],"categories_sizes":[],"default_left":[0,0,0],"id":7,"left_children":[1,-1,-1],"loss_changes":[1.170213E4,0E0,0E0],"parents":[2147483647,0,0],"right_children":[2,-1,-1],"split_conditions":[2.040632E0,-1.2479686E-3,3.3871252E-3],"split_indices":[7,0,0],"split_type":[0,0,0],"sum_hessian":[3.544E3,2.867E3,6.77E2],"tree_param":{"num_deleted":"0","num_feature":"16","num_nodes":"3","size_leaf_vector":"1"}},{"base_weights":[3.268237E-1,-4.524996E-3,1.0601702E0,2.393486E0,8.033399E-2,-2.2240052E0,1.0865325E0,4.7836592E-3,-4.5960712E-1,-3.7456863E-3,1.1397127E0,1.4596105E0,4.9686115E-3,6.214783E-5,-4.408136E-3,3.0561604E-3,7.1828616E-1,-5.4938585E-4,1.9226783E-3,1.8854089E-3,5.5280695E-4],"categories":[],"categories_nodes":[],"categories_segments":[],"categories_sizes":[],"default_left":[0,0,0,0,0,0,0,0,0,0,0,0,0,0,0,0,0,0,0,0,0],"id":8,"left_children":[1,-1,3,11,5,13,7,-1,9,-1,19,15,-1,-1,-1,-1,17,-1,-1,-1,-1],"loss_changes":[1.2783511E4,0E0,4.0865134E3,3.169629E3,4.1804756E3,2.7210295E3,7.148586E3,0E0,4.631399E3,0E0,2.5883264E2,1.143227E3,0E0,0E0,0E0,0E0,1.00512994E3,0E0,0E0,0E0,0E0],"parents":[2147483647,0,0,2,2,4,4,6,6,8,8,3,3,5,5,11,11,16,16,10,10],"right_children":[2,-1,4,12,6,14,8,-1,10,-1,20,16,-1,-1,-1,-1,18,-1,-1,-1,-1],"split_conditions":[-6.398248E-1,-4.524996E-3,-4.2677793E-1,-4.741217E-1,-3.557623E-1,-3.7943417E-1,8.0415964E-1,4.7836592E-3,1.1829096E0,-3.7456863E-3,2.6032221E0,-6.1615294E-1,4.9686115E-3,6.214783E-5,-4.408136E-3,3.0561604E-3,-5.688092E-1,-5.4938585E-4,1.9226783E-3,1.8854089E-3,5.5280695E-4],"split_indices":[4,0,4,4,4,4,4,0,4,0,4,4,0,0,0,0,4,0,0,0,0],"split_type":[0,0,0,0,0,0,0,0,0,0,0,0,0,0,0,0,0,0,0,0,0],"sum_hessian":[3.602E3,4.74E2,3.128E3,1.325E3,1.803E3,5.48E2,1.255E3,3.71E2,8.84E2,2.9E2,5.94E2,9.71E2,3.54E2,2.67E2,2.81E2,3.09E2,6.62E2,3.22E2,3.4E2,2.63E2,3.31E2],"tree_param":{"num_deleted":"0","num_feature":"16","num_nodes":"21","size_leaf_vector":"1"}},{"base_weights":[4.1850388E-2,-3.525318E-4,3.8210815E-3],"categories":[],"categories_nodes":[],"categories_segments":[],"categories_sizes":[],"default_left":[0,0,0],"id":9,"left_children":[1,-1,-1],"loss_changes":[5.223624E3,0E0,0E0],"parents":[2147483647,0,0],"right_children":[2,-1,-1],"split_conditions":[3.029269E0,-3.525318E-4,3.8210815E-3],"split_indices":[6,0,0],"split_type":[0,0,0],"sum_hessian":[3.523E3,3.19E3,3.33E2],"tree_param":{"num_deleted":"0","num_feature":"16","num_nodes":"3","size_leaf_vector":"1"}}]},"name":"gbtree"},"learner_model_param":{"base_score":"2.2006472E1","boost_from_average":"1","num_class":"0","num_feature":"16","num_target":"1"},"objective":{"name":"reg:squarederror","reg_loss_param":{"scale_pos_weight":"1"}}},"version":[2,0,3]}