{"learner":{"attributes":{},"feature_names":[],"feature_types":[],"gradient_booster":{"model":{"gbtree_model_param":{"num_parallel_tree":"1","num_trees":"10"},"iteration_indptr":[0,1,2,3,4,5,6,7,8,9,10],"tree_info":[0,0,0,0,0,0,0,0,0,0],"trees":[{"base_weights":[-2.3345976E-5,-7.940045E-3,1.9520107E-1,-1.571265E-2,2.9794822E-2,1.8350661E-1,8.994763E-2,-2.1574888E-2,-3.618858E-3,2.0515187E-2,5.593018E-2,1.2797983E-1,2.3982713E-1,-2.283712E-2,-1.5173643E-3,-7.837768E-3,-3.6475185E-4,1.3727867E-2,3.275582E-2,6.7092985E-2,4.441678E-2,1.0100362E-2,1.3413173E-1,1.9166623E-1,2.6775172E-1,-2.3238845E-3,-2.1329017E-3,-8.884285E-4,-3.916572E-4,-7.625902E-5,9.293029E-4,2.3757787E-3,1.153606E-3,2.7415801E-3,3.9647073E-3,3.2777013E-3,7.1372665E-3,4.078201E-3,5.3157336E-3,1.0237758E-2,1.3769541E-2,1.7712247E-2,2.5180468E-2,2.5272451E-2,2.9054664E-2],"categories":[],"categories_nodes":[],"categories_segments":[],"categories_sizes":[],"default_left":[0,0,0,0,0,0,0,0,0,0,0,0,0,0,0,0,0,0,0,0,0,0,0,0,0,0,0,0,0,0,0,0,0,0,0,0,0,0,0,0,0,0,0,0,0],"id":0,"left_children":[1,3,5,7,9,11,-1,13,15,17,19,21,23,25,-1,27,29,31,33,35,37,-1,39,41,43,-1,-1,-1,-1,-1,-1,-1,-1,-1,-1,-1,-1,-1,-1,-1,-1,-1,-1,-1,-1],"loss_changes":[1.0729747E2,1.9570301E1,2.2321884E1,3.9210129E0,2.757516E0,8.282944E0,0E0,2.9286385E-1,2.4747269E-1,6.9528484E-1,3.7368298E-1,1.9198227E-1,1.7143402E0,2.04525E-2,0E0,3.304875E-2,3.9446242E-2,1.1371493E-1,1.050632E-1,2.383318E-1,3.6763668E-2,0E0,1.2823296E-1,3.4390068E-1,1.929512E-1,0E0,0E0,0E0,0E0,0E0,0E0,0E0,0E0,0E0,0E0,0E0,0E0,0E0,0E0,0E0,0E0,0E0,0E0,0E0,0E0],"parents":[2147483647,0,0,1,1,2,2,3,3,4,4,5,5,7,7,8,8,9,9,10,10,11,11,12,12,13,13,15,15,16,16,17,17,18,18,19,19,20,20,22,22,23,23,24,24],"right_children":[2,4,6,8,10,12,-1,14,16,18,20,22,24,26,-1,28,30,32,34,36,38,-1,40,42,44,-1,-1,-1,-1,-1,-1,-1,-1,-1,-1,-1,-1,-1,-1,-1,-1,-1,-1,-1,-1],"split_conditions":[1.1526688E-1,2.8641399E-2,6.0282502E-2,1.0530417E-2,6.717872E-2,1.8987031E-1,8.994763E-2,5.3987866E-3,1.86119E-2,4.770969E-2,1.1642528E-2,1.4492754E-2,1.5834745E-2,1.1910725E-3,-1.5173643E-3,2.4932835E-1,9.778539E-1,1.7405931E-3,2.0042472E-2,5.683472E-3,6.4705884E-1,1.0100362E-2,8.500155E-3,7.1428573E-1,5.735294E-1,-2.3238845E-3,-2.1329017E-3,-8.884285E-4,-3.916572E-4,-7.625902E-5,9.293029E-4,2.3757787E-3,1.153606E-3,2.7415801E-3,3.9647073E-3,3.2777013E-3,7.1372665E-3,4.078201E-3,5.3157336E-3,1.0237758E-2,1.3769541E-2,1.7712247E-2,2.5180468E-2,2.5272451E-2,2.9054664E-2],"split_indices":[0,0,2,0,0,0,0,0,0,0,2,9,2,0,0,2,7,2,2,2,10,0,2,13,10,0,0,0,0,0,0,0,0,0,0,0,0,0,0,0,0,0,0,0,0],"split_type":[0,0,0,0,0,0,0,0,0,0,0,0,0,0,0,0,0,0,0,0,0,0,0,0,0,0,0,0,0,0,0,0,0,0,0,0,0,0,0,0,0,0,0,0,0],"sum_hessian":[6.9432E4,6.6727E4,2.705E3,5.5332E4,1.1395E4,2.662E3,4.3E1,3.7263E4,1.8069E4,8.412E3,2.983E3,1.342E3,1.32E3,3.1024E4,6.239E3,7.858E3,1.0211E4,5.416E3,2.996E3,1.51E3,1.473E3,2.59E2,1.083E3,4.87E2,8.33E2,2.1747E4,9.277E3,6.097E3,1.761E3,9.812E3,3.99E2,9.2E2,4.496E3,1.754E3,1.242E3,1.89E2,1.321E3,1.087E3,3.86E2,1.43E2,9.4E2,4.04E2,8.3E1,5.51E2,2.82E2],"tree_param":{"num_deleted":"0","num_feature":"14","num_nodes":"45","size_leaf_vector":"1"}},{"base_weights":[-3.188114E-5,-7.1595167E-3,1.7606549E-1,-1.3632562E-2,2.9483935E-2,1.6446741E-1,8.147625E-2,-1.9370535E-2,-2.4116929E-3,2.0582765E-2,5.0502885E-2,1.2404137E-1,2.2617218E-1,-2.0572385E-2,-1.3549789E-3,-6.025834E-3,1.3001778E-3,1.4077325E-2,2.9501108E-2,6.0567025E-2,4.006184E-2,1.15220696E-1,1.6932878E-1,1.7566448E-1,2.398886E-1,-2.089018E-3,-1.9088109E-3,-8.127432E-4,-3.5697414E-4,-1.1549477E-6,6.5246486E-4,1.8602222E-3,1.0446316E-3,2.454633E-3,3.5809355E-3,2.9796916E-3,6.4255516E-3,2.9959118E-3,4.172864E-3,8.71758E-3,1.1915165E-2,1.0945313E-2,1.8394196E-2,1.647207E-2,2.2365278E-2,2.0508291E-2,2.4601538E-2],"categories":[],"categories_nodes":[],"categories_segments":[],"categories_sizes":[],"default_left":[0,0,0,0,0,0,0,0,0,0,0,0,0,0,0,0,0,0,0,0,0,0,0,0,0,0,0,0,0,0,0,0,0,0,0,0,0,0,0,0,0,0,0,0,0,0,0],"id":1,"left_children":[1,3,5,7,9,11,-1,13,15,17,19,21,23,25,-1,27,29,31,33,35,37,39,41,43,45,-1,-1,-1,-1,-1,-1,-1,-1,-1,-1,-1,-1,-1,-1,-1,-1,-1,-1,-1,-1,-1,-1],"loss_changes":[8.726395E1,1.5850681E1,2.0076439E1,3.6553612E0,1.8710775E0,6.5882874E0,0E0,2.5572395E-1,2.5822395E-1,4.0564942E-1,3.046298E-1,6.1071205E-1,6.744156E-1,1.6503334E-2,0E0,5.032602E-2,6.600207E-2,6.539816E-2,8.82113E-2,1.8442059E-1,2.2677183E-2,1.5670204E-1,2.1202469E-1,6.0908318E-2,1.5641403E-1,0E0,0E0,0E0,0E0,0E0,0E0,0E0,0E0,0E0,0E0,0E0,0E0,0E0,0E0,0E0,0E0,0E0,0E0,0E0,0E0,0E0,0E0],"parents":[2147483647,0,0,1,1,2,2,3,3,4,4,5,5,7,7,8,8,9,9,10,10,11,11,12,12,13,13,15,15,16,16,17,17,18,18,19,19,20,20,21,21,22,22,23,23,24,24],"right_children":[2,4,6,8,10,12,-1,14,16,18,20,22,24,26,-1,28,30,32,34,36,38,40,42,44,46,-1,-1,-1,-1,-1,-1,-1,-1,-1,-1,-1,-1,-1,-1,-1,-1,-1,-1,-1,-1,-1,-1],"split_conditions":[1.1526688E-1,3.3027217E-2,6.0282502E-2,1.0808704E-2,6.717872E-2,2.2251907E-1,8.147625E-2,5.3987866E-3,2.0904992E-2,4.770969E-2,1.1642528E-2,1.8987031E-1,1.5834745E-2,1.4248344E-3,-1.3549789E-3,1.6875383E-2,2.7728613E-2,8.354609E-3,2.0042472E-2,5.683472E-3,1.4492754E-2,8.500155E-3,1.1720073E-2,7.1428573E-1,1.4492754E-2,-2.089018E-3,-1.9088109E-3,-8.127432E-4,-3.5697414E-4,-1.1549477E-6,6.5246486E-4,1.8602222E-3,1.0446316E-3,2.454633E-3,3.5809355E-3,2.9796916E-3,6.4255516E-3,2.9959118E-3,4.172864E-3,8.71758E-3,1.1915165E-2,1.0945313E-2,1.8394196E-2,1.647207E-2,2.2365278E-2,2.0508291E-2,2.4601538E-2],"split_indices":[0,0,2,0,0,0,0,0,0,0,2,0,2,0,0,0,0,2,2,2,9,2,2,13,9,0,0,0,0,0,0,0,0,0,0,0,0,0,0,0,0,0,0,0,0,0,0],"split_type":[0,0,0,0,0,0,0,0,0,0,0,0,0,0,0,0,0,0,0,0,0,0,0,0,0,0,0,0,0,0,0,0,0,0,0,0,0,0,0,0,0,0,0,0,0,0,0],"sum_hessian":[6.9533E4,6.6829E4,2.704E3,5.6798E4,1.0031E4,2.657E3,4.7E1,3.7576E4,1.9222E4,7.05E3,2.981E3,1.607E3,1.05E3,3.1041E4,6.535E3,9.749E3,9.473E3,4.082E3,2.968E3,1.513E3,1.468E3,1.348E3,2.59E2,2.27E2,8.23E2,2.2935E4,8.106E3,5.143E3,4.606E3,7.575E3,1.898E3,1.756E3,2.326E3,1.727E3,1.241E3,1.84E2,1.329E3,2.52E2,1.216E3,2.05E2,1.143E3,5.7E1,2.02E2,1.93E2,3.4E1,1.63E2,6.6E2],"tree_param":{"num_deleted":"0","num_feature":"14","num_nodes":"47","size_leaf_vector":"1"}},{"base_weights":[1.5256062E-5,-6.442189E-3,1.5931085E-1,-1.2087349E-2,2.7703073E-2,1.1210103E-1,2.2745678E-1,-1.7231597E-2,-1.4772495E-3,1.9484447E-2,4.551871E-2,1.04017876E-1,1.5364827E-1,2.1613787E-1,3.9128637E-1,-1.8529976E-2,-1.1821385E-3,-4.9310024E-3,1.4966577E-3,1.2899208E-2,2.6127422E-2,3.726424E-2,5.513523E-2,8.0065895E-3,1.0942626E-1,1.3877814E-1,2.0758308E-2,2.0211124E-1,2.6240832E-1,7.732515E-2,1.9185755E-2,-1.8902329E-3,-1.737326E-3,-6.7546323E-4,-3.2353046E-4,-2.5152942E-6,6.2206254E-4,9.931137E-4,1.8944509E-3,1.4735028E-3,2.8078107E-3,6.0028853E-3,3.4735252E-3,4.1208975E-3,5.7826783E-3,1.1582717E-2,9.556855E-3,1.5043994E-2,9.767477E-3,1.7123839E-2,2.0871487E-2,6.792152E-2,2.0939358E-2],"categories":[],"categories_nodes":[],"categories_segments":[],"categories_sizes":[],"default_left":[0,0,0,0,0,0,0,0,0,0,0,0,0,0,0,0,0,0,0,0,0,0,0,0,0,0,0,0,0,0,0,0,0,0,0,0,0,0,0,0,0,0,0,0,0,0,0,0,0,0,0,0,0],"id":2,"left_children":[1,3,5,7,9,11,13,15,17,19,21,23,25,27,29,31,-1,33,35,37,39,41,43,-1,45,47,-1,49,51,-1,-1,-1,-1,-1,-1,-1,-1,-1,-1,-1,-1,-1,-1,-1,-1,-1,-1,-1,-1,-1,-1,-1,-1],"loss_changes":[7.159449E1,1.2890248E1,8.684731E0,3.1311626E0,1.3837914E0,5.1097107E-1,1.9650383E0,2.6477718E-1,1.9279283E-1,2.8111887E-1,2.29599E-1,1.513195E-1,1.7195415E-1,6.111069E-1,5.261986E0,1.3491631E-2,0E0,2.6453167E-2,7.3496856E-2,5.6295156E-2,7.518339E-2,7.71153E-2,4.9842358E-2,0E0,8.216381E-2,8.009958E-2,0E0,1.4514542E-1,5.0351067E0,0E0,0E0,0E0,0E0,0E0,0E0,0E0,0E0,0E0,0E0,0E0,0E0,0E0,0E0,0E0,0E0,0E0,0E0,0E0,0E0,0E0,0E0,0E0,0E0],"parents":[2147483647,0,0,1,1,2,2,3,3,4,4,5,5,6,6,7,7,8,8,9,9,10,10,11,11,12,12,13,13,14,14,15,15,17,17,18,18,19,19,20,20,21,21,22,22,24,24,25,25,27,27,28,28],"right_children":[2,4,6,8,10,12,14,16,18,20,22,24,26,28,30,32,-1,34,36,38,40,42,44,-1,46,48,-1,50,52,-1,-1,-1,-1,-1,-1,-1,-1,-1,-1,-1,-1,-1,-1,-1,-1,-1,-1,-1,-1,-1,-1,-1,-1],"split_conditions":[1.1526688E-1,3.466355E-2,2.2251907E-1,1.2834641E-2,6.717872E-2,1.8987031E-1,9.577803E-1,5.3987866E-3,2.0904992E-2,4.6262592E-2,8.4978014E-2,1.4492754E-2,7.1428573E-1,3.0635053E-1,9.750412E-1,1.0240998E-3,-1.1821385E-3,1.6875383E-2,2.7728613E-2,6.4705884E-1,1.4492754E-2,1.4492754E-2,2.173913E-2,8.0065895E-3,8.695652E-2,7.1428573E-1,2.0758308E-2,1.4492754E-2,5.735294E-1,7.732515E-2,1.9185755E-2,-1.8902329E-3,-1.737326E-3,-6.7546323E-4,-3.2353046E-4,-2.5152942E-6,6.2206254E-4,9.931137E-4,1.8944509E-3,1.4735028E-3,2.8078107E-3,6.0028853E-3,3.4735252E-3,4.1208975E-3,5.7826783E-3,1.1582717E-2,9.556855E-3,1.5043994E-2,9.767477E-3,1.7123839E-2,2.0871487E-2,6.792152E-2,2.0939358E-2],"split_indices":[0,0,0,0,0,0,7,0,0,0,0,9,13,0,7,0,0,0,0,10,9,3,9,0,9,8,0,9,4,0,0,0,0,0,0,0,0,0,0,0,0,0,0,0,0,0,0,0,0,0,0,0,0],"split_type":[0,0,0,0,0,0,0,0,0,0,0,0,0,0,0,0,0,0,0,0,0,0,0,0,0,0,0,0,0,0,0,0,0,0,0,0,0,0,0,0,0,0,0,0,0,0,0,0,0,0,0,0,0],"sum_hessian":[6.9589E4,6.6878E4,2.711E3,5.7392E4,9.486E3,1.603E3,1.108E3,3.8647E4,1.8745E4,6.495E3,2.991E3,1.345E3,2.58E2,1.038E3,7E1,3.1057E4,7.59E3,8.684E3,1.0061E4,3.268E3,3.227E3,1.615E3,1.376E3,2.57E2,1.088E3,2.06E2,5.2E1,8E2,2.38E2,2.3E1,4.7E1,2.0694E4,1.0363E4,4.074E3,4.61E3,7.616E3,2.445E3,2.235E3,1.033E3,5.24E2,2.703E3,1.4E2,1.475E3,2.62E2,1.114E3,6.95E2,3.93E2,1.54E2,5.2E1,1.77E2,6.23E2,2.5E1,2.13E2],"tree_param":{"num_deleted":"0","num_feature":"14","num_nodes":"53","size_leaf_vector":"1"}},{"base_weights":[3.0906227E-5,-5.8020623E-3,1.4349446E-1,-1.0560278E-2,2.719882E-2,1.00679375E-1,2.0560008E-1,-1.5520938E-2,-8.457001E-4,2.1566788E-2,4.6346802E-2,9.374459E-2,1.3716064E-1,1.9478802E-1,3.721967E-1,-1.6673118E-3,-1.1020001E-3,-2.3777592E-3,6.178208E-3,1.4286298E-2,2.5881192E-2,3.9398126E-2,5.144711E-2,7.1905293E-3,9.8666415E-2,1.5006106E-1,8.8595655E-3,1.8219838E-1,2.3765866E-1,6.994023E-2,1.7267933E-2,-5.062003E-4,-4.158759E-5,-0E0,7.372256E-4,1.1321882E-3,2.0041703E-3,2.269808E-3,3.2224848E-3,3.0906887E-3,4.871779E-3,3.8382027E-3,5.376994E-3,1.0438366E-2,8.613196E-3,1.3572968E-2,1.8684085E-2,1.5488726E-2,1.8820656E-2,6.1323386E-2,1.8873693E-2],"categories":[],"categories_nodes":[],"categories_segments":[],"categories_sizes":[],"default_left":[0,0,0,0,0,0,0,0,0,0,0,0,0,0,0,0,0,0,0,0,0,0,0,0,0,0,0,0,0,0,0,0,0,0,0,0,0,0,0,0,0,0,0,0,0,0,0,0,0,0,0],"id":3,"left_children":[1,3,5,7,9,11,13,15,17,19,21,23,25,27,29,-1,-1,31,33,35,37,39,41,-1,43,45,-1,47,49,-1,-1,-1,-1,-1,-1,-1,-1,-1,-1,-1,-1,-1,-1,-1,-1,-1,-1,-1,-1,-1,-1],"loss_changes":[5.8248505E1,1.0500097E1,7.197754E0,2.8155723E0,9.031253E-1,3.8381577E-1,1.9157104E0,2.1583843E-1,2.1240707E-1,2.0149446E-1,6.000662E-2,1.2599182E-1,1.3254356E-1,5.083504E-1,4.253419E0,0E0,0E0,8.613479E-2,2.7415514E-2,3.8921297E-2,7.660866E-2,5.8695555E-2,3.0109167E-2,0E0,6.5779686E-2,6.3206196E-2,0E0,1.15198135E-1,4.09626E0,0E0,0E0,0E0,0E0,0E0,0E0,0E0,0E0,0E0,0E0,0E0,0E0,0E0,0E0,0E0,0E0,0E0,0E0,0E0,0E0,0E0,0E0],"parents":[2147483647,0,0,1,1,2,2,3,3,4,4,5,5,6,6,7,7,8,8,9,9,10,10,11,11,12,12,13,13,14,14,17,17,18,18,19,19,20,20,21,21,22,22,24,24,25,25,27,27,28,28],"right_children":[2,4,6,8,10,12,14,16,18,20,22,24,26,28,30,-1,-1,32,34,36,38,40,42,-1,44,46,-1,48,50,-1,-1,-1,-1,-1,-1,-1,-1,-1,-1,-1,-1,-1,-1,-1,-1,-1,-1,-1,-1,-1,-1],"split_conditions":[1.1526688E-1,3.7335113E-2,2.2251907E-1,1.2834641E-2,7.481494E-2,1.8987031E-1,9.577803E-1,3.6956642E-3,2.7728613E-2,4.770969E-2,8.778316E-2,1.4492754E-2,7.1428573E-1,3.0635053E-1,9.750412E-1,-1.6673118E-3,-1.1020001E-3,1.8790005E-2,1.4492754E-2,5.735294E-1,6.4705884E-1,7.993231E-1,1.4492754E-2,7.1905293E-3,8.695652E-2,7.1428573E-1,8.8595655E-3,1.4492754E-2,5.735294E-1,6.994023E-2,1.7267933E-2,-5.062003E-4,-4.158759E-5,-0E0,7.372256E-4,1.1321882E-3,2.0041703E-3,2.269808E-3,3.2224848E-3,3.0906887E-3,4.871779E-3,3.8382027E-3,5.376994E-3,1.0438366E-2,8.613196E-3,1.3572968E-2,1.8684085E-2,1.5488726E-2,1.8820656E-2,6.1323386E-2,1.8873693E-2],"split_indices":[0,0,0,0,0,0,7,0,0,0,0,9,8,0,7,0,0,0,9,10,10,7,9,0,9,13,0,9,4,0,0,0,0,0,0,0,0,0,0,0,0,0,0,0,0,0,0,0,0,0,0],"split_type":[0,0,0,0,0,0,0,0,0,0,0,0,0,0,0,0,0,0,0,0,0,0,0,0,0,0,0,0,0,0,0,0,0,0,0,0,0,0,0,0,0,0,0,0,0,0,0,0,0,0,0],"sum_hessian":[6.9594E4,6.6875E4,2.719E3,5.845E4,8.425E3,1.611E3,1.108E3,3.8687E4,1.9763E4,6.514E3,1.911E3,1.357E3,2.54E2,1.042E3,6.6E1,3.0013E4,8.674E3,1.6233E4,3.53E3,2.431E3,4.083E3,8.17E2,1.094E3,2.59E2,1.098E3,1.98E2,5.6E1,8.09E2,2.33E2,2.4E1,4.2E1,6.778E3,9.455E3,5.9E2,2.94E3,1.643E3,7.88E2,2.809E3,1.274E3,4.46E2,3.71E2,1.98E2,8.96E2,7.04E2,3.94E2,1.5E2,4.8E1,1.83E2,6.26E2,2.5E1,2.08E2],"tree_param":{"num_deleted":"0","num_feature":"14","num_nodes":"51","size_leaf_vector":"1"}},{"base_weights":[-5.2658757E-5,-5.2037123E-3,1.2823427E-1,-9.496103E-3,2.456372E-2,1.20125785E-1,5.997868E-2,-1.4217163E-2,-1.1646313E-3,1.941889E-2,4.1751135E-2,8.432091E-2,1.5715298E-1,-1.5065529E-3,-1.0566586E-3,-4.460285E-3,1.7788266E-3,1.2856237E-2,2.329775E-2,4.624148E-2,2.9913539E-3,6.0684364E-2,8.856816E-2,1.2264365E-1,1.7743383E-1,-6.020269E-4,-2.5557904E-4,-0E0,5.5648986E-4,1.0207781E-3,1.8060898E-3,9.2033943E-4,2.4938628E-3,1.9596813E-3,4.7301687E-3,7.4943667E-3,2.8558893E-3,7.594138E-3,9.4233155E-3,1.1164059E-2,1.6830293E-2,1.6503524E-2,1.9786263E-2],"categories":[],"categories_nodes":[],"categories_segments":[],"categories_sizes":[],"default_left":[0,0,0,0,0,0,0,0,0,0,0,0,0,0,0,0,0,0,0,0,0,0,0,0,0,0,0,0,0,0,0,0,0,0,0,0,0,0,0,0,0,0,0],"id":4,"left_children":[1,3,5,7,9,11,-1,13,15,17,19,21,23,-1,-1,25,27,29,31,33,-1,35,37,39,41,-1,-1,-1,-1,-1,-1,-1,-1,-1,-1,-1,-1,-1,-1,-1,-1,-1,-1],"loss_changes":[4.581846E1,8.518139E0,1.0237083E1,2.2909636E0,7.379217E-1,3.4652367E0,0E0,1.2547159E-1,2.0472348E-1,1.6188383E-1,9.4427586E-2,1.20744705E-1,8.7081337E-1,0E0,0E0,2.948679E-2,7.533535E-2,3.0943096E-2,1.01210356E-1,4.633689E-2,0E0,8.977741E-2,7.0412636E-2,1.9893217E-1,1.5382957E-1,0E0,0E0,0E0,0E0,0E0,0E0,0E0,0E0,0E0,0E0,0E0,0E0,0E0,0E0,0E0,0E0,0E0,0E0],"parents":[2147483647,0,0,1,1,2,2,3,3,4,4,5,5,7,7,8,8,9,9,10,10,11,11,12,12,15,15,16,16,17,17,18,18,19,19,21,21,22,22,23,23,24,24],"right_children":[2,4,6,8,10,12,-1,14,16,18,20,22,24,-1,-1,26,28,30,32,34,-1,36,38,40,42,-1,-1,-1,-1,-1,-1,-1,-1,-1,-1,-1,-1,-1,-1,-1,-1,-1,-1],"split_conditions":[1.1526688E-1,3.7335113E-2,6.0282502E-2,1.0530417E-2,7.481494E-2,1.8987031E-1,5.997868E-2,3.2058775E-3,2.0904992E-2,4.770969E-2,1.1642528E-2,8.500155E-3,1.5834745E-2,-1.5065529E-3,-1.0566586E-3,1.6875383E-2,2.7728613E-2,5.735294E-1,1.714347E-3,5.683472E-3,2.9913539E-3,1.7704183E-3,2.9411766E-1,7.1428573E-1,5.735294E-1,-6.020269E-4,-2.5557904E-4,-0E0,5.5648986E-4,1.0207781E-3,1.8060898E-3,9.2033943E-4,2.4938628E-3,1.9596813E-3,4.7301687E-3,7.4943667E-3,2.8558893E-3,7.594138E-3,9.4233155E-3,1.1164059E-2,1.6830293E-2,1.6503524E-2,1.9786263E-2],"split_indices":[0,0,2,0,0,0,0,0,0,0,2,2,2,0,0,0,0,10,2,2,0,2,10,13,10,0,0,0,0,0,0,0,0,0,0,0,0,0,0,0,0,0,0],"split_type":[0,0,0,0,0,0,0,0,0,0,0,0,0,0,0,0,0,0,0,0,0,0,0,0,0,0,0,0,0,0,0,0,0,0,0,0,0,0,0,0,0,0,0],"sum_hessian":[6.9349E4,6.6673E4,2.676E3,5.8273E4,8.4E3,2.632E3,4.4E1,3.719E4,2.1083E4,6.469E3,1.931E3,1.34E3,1.292E3,2.9302E4,7.888E3,9.958E3,1.1125E4,2.411E3,4.058E3,1.387E3,5.44E2,2.08E2,1.132E3,4.81E2,8.11E2,5.359E3,4.599E3,7.608E3,3.517E3,1.637E3,7.74E2,4.72E2,3.586E3,7.3E1,1.314E3,1.4E2,6.8E1,3.97E2,7.35E2,3.98E2,8.3E1,5.42E2,2.69E2],"tree_param":{"num_deleted":"0","num_feature":"14","num_nodes":"43","size_leaf_vector":"1"}},{"base_weights":[5.9833495E-5,-4.712576E-3,1.1661185E-1,-8.5666245E-3,2.2133922E-2,1.0883827E-1,5.3984568E-2,-1.2766715E-2,-9.805713E-4,1.572664E-2,3.3568643E-2,7.578793E-2,1.4251028E-1,-1.3462092E-3,-8.9123845E-4,-2.7466526E-3,3.401078E-3,6.6544833E-3,1.7500732E-2,4.0197782E-2,2.6766913E-2,5.4511163E-2,7.979022E-2,1.1088918E-1,1.6041502E-1,-5.3284736E-4,-1.351411E-4,1.6275E-4,7.627322E-4,7.8332995E-4,-2.8416907E-4,2.150145E-3,1.1362403E-3,1.8137709E-3,4.2871237E-3,2.389523E-3,3.385838E-3,6.7043304E-3,2.5841654E-3,6.1221397E-3,8.281293E-3,1.0062946E-2,1.5195711E-2,1.4931151E-2,1.7818455E-2],"categories":[],"categories_nodes":[],"categories_segments":[],"categories_sizes":[],"default_left":[0,0,0,0,0,0,0,0,0,0,0,0,0,0,0,0,0,0,0,0,0,0,0,0,0,0,0,0,0,0,0,0,0,0,0,0,0,0,0,0,0,0,0,0,0],"id":5,"left_children":[1,3,5,7,9,11,-1,13,15,17,19,21,23,-1,-1,25,27,29,31,33,35,37,39,41,43,-1,-1,-1,-1,-1,-1,-1,-1,-1,-1,-1,-1,-1,-1,-1,-1,-1,-1,-1,-1],"loss_changes":[3.8653683E1,6.904915E0,8.997787E0,1.8587031E0,6.0982513E-1,2.9668217E0,0E0,1.1133289E-1,1.6096568E-1,8.4659815E-2,1.2995291E-1,1.0342169E-1,7.226448E-1,0E0,0E0,5.3392746E-2,4.4315524E-2,1.0811195E-2,1.1044717E-1,9.4331264E-2,2.4782777E-2,7.364929E-2,6.150818E-2,1.6713142E-1,1.2256622E-1,0E0,0E0,0E0,0E0,0E0,0E0,0E0,0E0,0E0,0E0,0E0,0E0,0E0,0E0,0E0,0E0,0E0,0E0,0E0,0E0],"parents":[2147483647,0,0,1,1,2,2,3,3,4,4,5,5,7,7,8,8,9,9,10,10,11,11,12,12,15,15,16,16,17,17,18,18,19,19,20,20,21,21,22,22,23,23,24,24],"right_children":[2,4,6,8,10,12,-1,14,16,18,20,22,24,-1,-1,26,28,30,32,34,36,38,40,42,44,-1,-1,-1,-1,-1,-1,-1,-1,-1,-1,-1,-1,-1,-1,-1,-1,-1,-1,-1,-1],"split_conditions":[1.1526688E-1,3.7335113E-2,6.0282502E-2,1.0808704E-2,6.717872E-2,1.8987031E-1,5.3984568E-2,5.3987866E-3,2.4667446E-2,1.4492754E-2,1.1642528E-2,8.500155E-3,1.5834745E-2,-1.3462092E-3,-8.9123845E-4,1.6875383E-2,8.032608E-1,2.2627711E-2,8.695652E-2,5.683472E-3,6.4705884E-1,1.7704183E-3,1.4492754E-2,7.1428573E-1,5.735294E-1,-5.3284736E-4,-1.351411E-4,1.6275E-4,7.627322E-4,7.8332995E-4,-2.8416907E-4,2.150145E-3,1.1362403E-3,1.8137709E-3,4.2871237E-3,2.389523E-3,3.385838E-3,6.7043304E-3,2.5841654E-3,6.1221397E-3,8.281293E-3,1.0062946E-2,1.5195711E-2,1.4931151E-2,1.7818455E-2],"split_indices":[0,0,2,0,0,0,0,0,0,9,2,2,2,0,0,0,7,2,9,2,10,2,9,13,10,0,0,0,0,0,0,0,0,0,0,0,0,0,0,0,0,0,0,0,0],"split_type":[0,0,0,0,0,0,0,0,0,0,0,0,0,0,0,0,0,0,0,0,0,0,0,0,0,0,0,0,0,0,0,0,0,0,0,0,0,0,0,0,0,0,0,0,0],"sum_hessian":[6.9476E4,6.6743E4,2.733E3,5.8367E4,8.376E3,2.685E3,4.8E1,3.7561E4,2.0806E4,5.373E3,3.003E3,1.357E3,1.328E3,3.1034E4,6.527E3,1.4841E4,5.965E3,8.86E2,4.487E3,1.514E3,1.489E3,2.19E2,1.138E3,4.83E2,8.45E2,5.113E3,9.728E3,4.239E3,1.726E3,7.91E2,9.5E1,2.652E3,1.835E3,1.85E2,1.329E3,1.098E3,3.91E2,1.48E2,7.1E1,1.95E2,9.43E2,3.97E2,8.6E1,5.6E2,2.85E2],"tree_param":{"num_deleted":"0","num_feature":"14","num_nodes":"45","size_leaf_vector":"1"}},{"base_weights":[2.6064627E-5,-4.2485236E-3,1.0466538E-1,-8.406924E-3,1.5964335E-2,9.777116E-2,4.87593E-2,-1.1543849E-2,-1.9302759E-3,1.093172E-2,3.0140635E-2,6.8304926E-2,1.2785284E-1,-1.2235115E-3,-8.5386465E-4,-4.215271E-3,-1.8563267E-4,5.8165086E-3,1.6317477E-2,3.5970937E-2,2.4135344E-2,4.9175117E-2,7.179441E-2,9.92005E-2,1.4453773E-1,-4.9402186E-4,-1.4745306E-4,-1.0592291E-4,2.6710457E-4,1.5041854E-3,4.181551E-4,1.699367E-3,-4.5017627E-4,1.6442685E-3,3.8310697E-3,2.6952024E-3,1.8610114E-3,6.090935E-3,2.3167636E-3,8.134557E-3,6.4550275E-3,9.042671E-3,1.3688464E-2,1.3435393E-2,1.612141E-2],"categories":[],"categories_nodes":[],"categories_segments":[],"categories_sizes":[],"default_left":[0,0,0,0,0,0,0,0,0,0,0,0,0,0,0,0,0,0,0,0,0,0,0,0,0,0,0,0,0,0,0,0,0,0,0,0,0,0,0,0,0,0,0,0,0],"id":6,"left_children":[1,3,5,7,9,11,-1,13,15,17,19,21,23,-1,-1,25,27,29,31,33,35,37,39,41,43,-1,-1,-1,-1,-1,-1,-1,-1,-1,-1,-1,-1,-1,-1,-1,-1,-1,-1,-1,-1],"loss_changes":[3.1130253E1,5.618438E0,7.209486E0,1.1254983E0,8.1039524E-1,2.3604717E0,0E0,8.426094E-2,7.183626E-2,2.303127E-1,9.9600315E-2,7.992697E-2,6.0853577E-1,0E0,0E0,1.5772626E-2,2.5950685E-2,6.334995E-2,6.936002E-2,7.226896E-2,2.0374656E-2,6.0563564E-2,6.499529E-2,1.3063335E-1,1.0348511E-1,0E0,0E0,0E0,0E0,0E0,0E0,0E0,0E0,0E0,0E0,0E0,0E0,0E0,0E0,0E0,0E0,0E0,0E0,0E0,0E0],"parents":[2147483647,0,0,1,1,2,2,3,3,4,4,5,5,7,7,8,8,9,9,10,10,11,11,12,12,15,15,16,16,17,17,18,18,19,19,20,20,21,21,22,22,23,23,24,24],"right_children":[2,4,6,8,10,12,-1,14,16,18,20,22,24,-1,-1,26,28,30,32,34,36,38,40,42,44,-1,-1,-1,-1,-1,-1,-1,-1,-1,-1,-1,-1,-1,-1,-1,-1,-1,-1,-1,-1],"split_conditions":[1.1526688E-1,2.8641399E-2,6.0282502E-2,1.0530417E-2,6.717872E-2,1.8987031E-1,4.87593E-2,3.2058775E-3,1.86119E-2,4.021818E-2,1.1642528E-2,8.500155E-3,1.5834745E-2,-1.2235115E-3,-8.5386465E-4,2.4932835E-1,8.55014E-1,1.714347E-3,2.9142708E-2,5.683472E-3,8.695652E-2,1.7704183E-3,1.54851945E-2,7.1428573E-1,5.735294E-1,-4.9402186E-4,-1.4745306E-4,-1.0592291E-4,2.6710457E-4,1.5041854E-3,4.181551E-4,1.699367E-3,-4.5017627E-4,1.6442685E-3,3.8310697E-3,2.6952024E-3,1.8610114E-3,6.090935E-3,2.3167636E-3,8.134557E-3,6.4550275E-3,9.042671E-3,1.3688464E-2,1.3435393E-2,1.612141E-2],"split_indices":[0,0,2,0,0,0,0,0,0,0,2,2,2,0,0,2,7,2,2,2,9,2,2,13,10,0,0,0,0,0,0,0,0,0,0,0,0,0,0,0,0,0,0,0,0],"split_type":[0,0,0,0,0,0,0,0,0,0,0,0,0,0,0,0,0,0,0,0,0,0,0,0,0,0,0,0,0,0,0,0,0,0,0,0,0,0,0,0,0,0,0,0,0],"sum_hessian":[6.958E4,6.6849E4,2.731E3,5.5446E4,1.1403E4,2.684E3,4.7E1,3.7346E4,1.81E4,8.42E3,2.983E3,1.358E3,1.326E3,2.949E4,7.856E3,7.818E3,1.0282E4,4.326E3,4.094E3,1.506E3,1.477E3,2.14E2,1.144E3,4.91E2,8.35E2,6.092E3,1.726E3,7.89E3,2.392E3,6.27E2,3.699E3,3.946E3,1.48E2,1.83E2,1.323E3,9.37E2,5.4E2,1.43E2,7.1E1,4.51E2,6.93E2,4.09E2,8.2E1,5.57E2,2.78E2],"tree_param":{"num_deleted":"0","num_feature":"14","num_nodes":"45","size_leaf_vector":"1"}},{"base_weights":[3.5701698E-5,-3.8263549E-3,9.464764E-2,-7.5700223E-3,1.4427996E-2,6.6463746E-2,1.3553774E-1,-1.039553E-2,-1.7353133E-3,8.430225E-3,2.4232147E-2,6.1600044E-2,9.106511E-2,1.2842274E-1,2.3705718E-1,-1.0931343E-3,-7.2677224E-4,-3.7396397E-3,-1.0102559E-4,5.258105E-3,1.3440316E-2,1.9142397E-2,3.070511E-2,4.501184E-3,6.529619E-2,1.01352975E-1,5.07601E-3,1.2110167E-1,1.5301839E-1,4.7375925E-2,1.0799907E-2,-2.9178392E-4,-5.6839595E-4,-5.305916E-5,4.8826207E-4,3.2250307E-4,9.3294407E-4,1.0584029E-3,1.8625098E-3,1.6234275E-3,2.60127E-3,1.9840063E-3,3.2885307E-3,7.060279E-3,5.428734E-3,6.865142E-3,1.075873E-2,9.966411E-3,1.25953E-2,3.9451532E-2,1.2416099E-2],"categories":[],"categories_nodes":[],"categories_segments":[],"categories_sizes":[],"default_left":[0,0,0,0,0,0,0,0,0,0,0,0,0,0,0,0,0,0,0,0,0,0,0,0,0,0,0,0,0,0,0,0,0,0,0,0,0,0,0,0,0,0,0,0,0,0,0,0,0,0,0],"id":7,"left_children":[1,3,5,7,9,11,13,15,17,19,21,23,25,27,29,-1,-1,31,33,35,37,39,41,-1,43,45,-1,47,49,-1,-1,-1,-1,-1,-1,-1,-1,-1,-1,-1,-1,-1,-1,-1,-1,-1,-1,-1,-1,-1,-1],"loss_changes":[2.543973E1,4.5695786E0,3.127121E0,9.140215E-1,6.6653895E-1,1.7945385E-1,7.60273E-1,6.943083E-2,5.9059627E-2,1.1087078E-1,1.3815355E-1,7.17597E-2,9.430432E-2,1.5740013E-1,2.132979E0,0E0,0E0,1.2260325E-2,2.1438511E-2,3.5126068E-2,3.8102955E-2,4.4367075E-2,4.486823E-2,0E0,5.665064E-2,2.9886484E-2,0E0,7.30381E-2,1.5365281E0,0E0,0E0,0E0,0E0,0E0,0E0,0E0,0E0,0E0,0E0,0E0,0E0,0E0,0E0,0E0,0E0,0E0,0E0,0E0,0E0,0E0,0E0],"parents":[2147483647,0,0,1,1,2,2,3,3,4,4,5,5,6,6,7,7,8,8,9,9,10,10,11,11,12,12,13,13,14,14,17,17,18,18,19,19,20,20,21,21,22,22,24,24,25,25,27,27,28,28],"right_children":[2,4,6,8,10,12,14,16,18,20,22,24,26,28,30,-1,-1,32,34,36,38,40,42,-1,44,46,-1,48,50,-1,-1,-1,-1,-1,-1,-1,-1,-1,-1,-1,-1,-1,-1,-1,-1,-1,-1,-1,-1,-1,-1],"split_conditions":[1.1526688E-1,2.8641399E-2,2.2251907E-1,1.0530417E-2,5.6559246E-2,1.8987031E-1,9.577803E-1,5.3987866E-3,1.8790005E-2,4.021818E-2,7.481494E-2,1.4492754E-2,7.1428573E-1,3.0635053E-1,9.750412E-1,-1.0931343E-3,-7.2677224E-4,6.4705884E-1,9.7190285E-1,6.4705884E-1,5.735294E-1,6.4705884E-1,2.173913E-2,4.501184E-3,8.695652E-2,1.4492754E-2,5.07601E-3,1.4492754E-2,5.735294E-1,4.7375925E-2,1.0799907E-2,-2.9178392E-4,-5.6839595E-4,-5.305916E-5,4.8826207E-4,3.2250307E-4,9.3294407E-4,1.0584029E-3,1.8625098E-3,1.6234275E-3,2.60127E-3,1.9840063E-3,3.2885307E-3,7.060279E-3,5.428734E-3,6.865142E-3,1.075873E-2,9.966411E-3,1.25953E-2,3.9451532E-2,1.2416099E-2],"split_indices":[0,0,0,0,0,0,7,0,0,0,0,9,8,0,7,0,0,4,7,10,10,10,9,0,9,9,0,9,4,0,0,0,0,0,0,0,0,0,0,0,0,0,0,0,0,0,0,0,0,0,0],"split_type":[0,0,0,0,0,0,0,0,0,0,0,0,0,0,0,0,0,0,0,0,0,0,0,0,0,0,0,0,0,0,0,0,0,0,0,0,0,0,0,0,0,0,0,0,0,0,0,0,0,0,0],"sum_hessian":[6.9603E4,6.6873E4,2.73E3,5.5496E4,1.1377E4,1.618E3,1.112E3,3.7381E4,1.8115E4,7.064E3,4.313E3,1.355E3,2.63E2,1.041E3,7.1E1,3.1119E4,6.262E3,8.116E3,9.999E3,4.335E3,2.729E3,2.422E3,1.891E3,2.56E2,1.099E3,2.07E2,5.6E1,8.07E2,2.34E2,2.4E1,4.7E1,5.812E3,2.304E3,9.218E3,7.81E2,2.931E3,1.404E3,1.803E3,9.26E2,1.745E3,6.77E2,3.55E2,1.536E3,7.03E2,3.96E2,4E1,1.67E2,1.81E2,6.26E2,2.3E1,2.11E2],"tree_param":{"num_deleted":"0","num_feature":"14","num_nodes":"51","size_leaf_vector":"1"}},{"base_weights":[4.3950135E-5,-3.434275E-3,8.5626796E-2,-6.576703E-3,1.4341965E-2,7.959833E-2,3.9835017E-2,-9.221737E-3,-9.452672E-4,9.898971E-3,2.47214E-2,5.5271264E-2,1.0446512E-1,-9.845033E-4,-6.315152E-4,-2.7197637E-3,6.7773735E-4,5.3488603E-3,1.319514E-2,2.9883891E-2,1.9424673E-2,3.792263E-2,5.845536E-2,7.986514E-2,1.1871945E-1,-1.8481977E-4,-4.615732E-4,-3.5493165E-5,3.312427E-4,1.290432E-3,3.2346105E-4,2.141308E-3,1.13789E-3,1.2896688E-3,3.18429E-3,1.6976257E-3,2.5440487E-3,4.845003E-3,1.5134398E-3,4.8173685E-3,6.3044815E-3,7.193643E-3,1.119414E-2,1.0987956E-2,1.3301241E-2],"categories":[],"categories_nodes":[],"categories_segments":[],"categories_sizes":[],"default_left":[0,0,0,0,0,0,0,0,0,0,0,0,0,0,0,0,0,0,0,0,0,0,0,0,0,0,0,0,0,0,0,0,0,0,0,0,0,0,0,0,0,0,0,0,0],"id":8,"left_children":[1,3,5,7,9,11,-1,13,15,17,19,21,23,-1,-1,25,27,29,31,33,35,37,39,41,43,-1,-1,-1,-1,-1,-1,-1,-1,-1,-1,-1,-1,-1,-1,-1,-1,-1,-1,-1,-1],"loss_changes":[2.070555E1,3.7321181E0,5.116728E0,8.451085E-1,4.6009016E-1,1.5982723E0,0E0,7.563901E-2,5.2444063E-2,1.0408181E-1,7.818639E-2,6.6357136E-2,4.4197464E-1,0E0,0E0,1.3918281E-2,2.6266988E-2,4.6201713E-2,5.6492984E-2,5.2517176E-2,1.8125176E-2,4.786989E-2,4.714918E-2,1.0046005E-1,7.589817E-2,0E0,0E0,0E0,0E0,0E0,0E0,0E0,0E0,0E0,0E0,0E0,0E0,0E0,0E0,0E0,0E0,0E0,0E0,0E0,0E0],"parents":[2147483647,0,0,1,1,2,2,3,3,4,4,5,5,7,7,8,8,9,9,10,10,11,11,12,12,15,15,16,16,17,17,18,18,19,19,20,20,21,21,22,22,23,23,24,24],"right_children":[2,4,6,8,10,12,-1,14,16,18,20,22,24,-1,-1,26,28,30,32,34,36,38,40,42,44,-1,-1,-1,-1,-1,-1,-1,-1,-1,-1,-1,-1,-1,-1,-1,-1,-1,-1,-1,-1],"split_conditions":[1.1526688E-1,3.3027217E-2,6.0282502E-2,1.2834641E-2,6.717872E-2,1.8987031E-1,3.9835017E-2,5.3987866E-3,2.0904992E-2,4.021818E-2,1.1642528E-2,8.500155E-3,1.5834745E-2,-9.845033E-4,-6.315152E-4,6.4285713E-1,6.4705884E-1,1.714347E-3,1.4492754E-2,5.683472E-3,6.4705884E-1,1.7704183E-3,2.8985508E-2,7.1428573E-1,5.735294E-1,-1.8481977E-4,-4.615732E-4,-3.5493165E-5,3.312427E-4,1.290432E-3,3.2346105E-4,2.141308E-3,1.13789E-3,1.2896688E-3,3.18429E-3,1.6976257E-3,2.5440487E-3,4.845003E-3,1.5134398E-3,4.8173685E-3,6.3044815E-3,7.193643E-3,1.119414E-2,1.0987956E-2,1.3301241E-2],"split_indices":[0,0,2,0,0,0,0,0,0,0,2,2,2,0,0,13,10,2,3,2,10,2,9,13,10,0,0,0,0,0,0,0,0,0,0,0,0,0,0,0,0,0,0,0,0],"split_type":[0,0,0,0,0,0,0,0,0,0,0,0,0,0,0,0,0,0,0,0,0,0,0,0,0,0,0,0,0,0,0,0,0,0,0,0,0,0,0,0,0,0,0,0,0],"sum_hessian":[6.9536E4,6.682E4,2.716E3,5.6786E4,1.0034E4,2.666E3,5E1,3.8629E4,1.8157E4,7.032E3,3.002E3,1.35E3,1.316E3,3.105E4,7.579E3,8.695E3,9.462E3,2.964E3,4.068E3,1.512E3,1.49E3,2.14E2,1.136E3,4.86E2,8.3E2,6.046E3,2.649E3,6.791E3,2.671E3,6.28E2,2.336E3,6.89E2,3.379E3,1.78E2,1.334E3,1.094E3,3.96E2,1.42E2,7.2E1,3.9E2,7.46E2,4E2,8.6E1,5.5E2,2.8E2],"tree_param":{"num_deleted":"0","num_feature":"14","num_nodes":"45","size_leaf_vector":"1"}},{"base_weights":[3.1708507E-5,-3.087139E-3,7.681273E-2,-6.142161E-3,1.1730483E-2,7.1793705E-2,3.5911784E-2,-8.467873E-3,-1.4909556E-3,5.483837E-3,1.8020371E-2,5.032947E-2,9.387605E-2,-9.014972E-4,-6.4017624E-4,-3.738285E-4,-4.627645E-4,4.3448396E-3,1.2566985E-3,1.5249314E-2,2.6656827E-2,3.6334551E-3,5.3382766E-2,7.175319E-2,1.0659499E-1,-9.1236514E-5,3.2433544E-4,1.1421987E-3,3.1400414E-4,1.9924597E-4,1.6687958E-3,1.6555861E-3,2.8750065E-3,5.816146E-3,4.3528923E-3,6.4729503E-3,1.0098121E-2,1.1296563E-2,9.142657E-3],"categories":[],"categories_nodes":[],"categories_segments":[],"categories_sizes":[],"default_left":[0,0,0,0,0,0,0,0,0,0,0,0,0,0,0,0,0,0,0,0,0,0,0,0,0,0,0,0,0,0,0,0,0,0,0,0,0,0,0],"id":9,"left_children":[1,3,5,7,9,11,-1,13,15,17,19,21,23,-1,-1,-1,25,27,-1,29,31,-1,33,35,37,-1,-1,-1,-1,-1,-1,-1,-1,-1,-1,-1,-1,-1,-1],"loss_changes":[1.663456E1,3.0204005E0,3.8320503E0,5.9777546E-1,4.4624472E-1,1.250308E0,0E0,4.4500828E-2,4.2854484E-2,4.5539647E-2,1.3254714E-1,4.913926E-2,3.5184002E-1,0E0,0E0,0E0,2.1501169E-2,4.0820003E-2,0E0,8.7605715E-2,2.7947783E-2,0E0,4.5843363E-2,7.888341E-2,6.583309E-2,0E0,0E0,0E0,0E0,0E0,0E0,0E0,0E0,0E0,0E0,0E0,0E0,0E0,0E0],"parents":[2147483647,0,0,1,1,2,2,3,3,4,4,5,5,7,7,8,8,9,9,10,10,11,11,12,12,16,16,17,17,19,19,20,20,22,22,23,23,24,24],"right_children":[2,4,6,8,10,12,-1,14,16,18,20,22,24,-1,-1,-1,26,28,-1,30,32,-1,34,36,38,-1,-1,-1,-1,-1,-1,-1,-1,-1,-1,-1,-1,-1,-1],"split_conditions":[1.1526688E-1,2.8641399E-2,6.0282502E-2,1.0163077E-2,5.0192017E-2,1.8987031E-1,3.5911784E-2,2.5268549E-3,1.6875383E-2,9.474474E-1,8.4978014E-2,1.4492754E-2,1.5834745E-2,-9.014972E-4,-6.4017624E-4,-3.738285E-4,8.5871494E-1,1.7405931E-3,1.2566985E-3,1.714347E-3,2.173913E-2,3.6334551E-3,8.695652E-2,7.1428573E-1,8.695652E-2,-9.1236514E-5,3.2433544E-4,1.1421987E-3,3.1400414E-4,1.9924597E-4,1.6687958E-3,1.6555861E-3,2.8750065E-3,5.816146E-3,4.3528923E-3,6.4729503E-3,1.0098121E-2,1.1296563E-2,9.142657E-3],"split_indices":[0,0,2,0,0,0,0,0,0,7,0,9,2,0,0,0,7,2,0,2,9,0,9,13,9,0,0,0,0,0,0,0,0,0,0,0,0,0,0],"split_type":[0,0,0,0,0,0,0,0,0,0,0,0,0,0,0,0,0,0,0,0,0,0,0,0,0,0,0,0,0,0,0,0,0,0,0,0,0,0,0],"sum_hessian":[6.9441E4,6.673E4,2.711E3,5.5328E4,1.1402E4,2.665E3,4.6E1,3.6874E4,1.8454E4,5.727E3,5.675E3,1.354E3,1.311E3,2.8253E4,8.621E3,5.722E3,1.2732E4,4.952E3,7.75E2,4.304E3,1.371E3,2.52E2,1.102E3,4.82E2,8.29E2,1.1362E4,1.37E3,6.92E2,4.26E3,4.59E2,3.845E3,2.64E2,1.107E3,7.06E2,3.96E2,3.99E2,8.3E1,5.48E2,2.81E2],"tree_param":{"num_deleted":"0","num_feature":"14","num_nodes":"39","size_leaf_vector":"1"}}]},"name":"gbtree"},"learner_model_param":{"base_score":"2.3783043E-2","boost_from_average":"1","num_class":"0","num_feature":"14","num_target":"1"},"objective":{"name":"reg:squarederror","reg_loss_param":{"scale_pos_weight":"1"}}},"version":[2,0,3]}