{"learner":{"attributes":{"best_iteration":"9","best_score":"0.0054350691124291"},"feature_names":[],"feature_types":[],"gradient_booster":{"model":{"gbtree_model_param":{"num_parallel_tree":"1","num_trees":"10"},"iteration_indptr":[0,1,2,3,4,5,6,7,8,9,10],"tree_info":[0,0,0,0,0,0,0,0,0,0],"trees":[{"base_weights":[7.5728207E-10,-9.770631E-3,1.8316586E-1,-1.7721247E-2,2.8220298E-2,1.7314298E-1,2.7003014E-1,-2.2479372E-2,-5.0822883E-3,1.3202805E-2,4.4614002E-2,1.2568878E-1,2.5139558E-1,-2.3857536E-2,-1.6397098E-2,-8.748867E-3,-1.5622223E-3,9.366984E-3,1.9934395E-2,3.5142895E-2,6.205971E-2,9.949309E-2,1.3341996E-1,1.883359E-1,2.676078E-1,-2.4369916E-2,-2.2337792E-2,-5.4029003E-3,-1.6130043E-2,-9.222208E-3,-1.480433E-3,-2.761935E-3,2.8993636E-3,2.4094123E-2,7.850344E-3,3.3581454E-2,1.7460225E-2,5.045381E-2,3.1682543E-2,6.8993375E-2,4.677112E-2,1.12715624E-1,1.9897982E-2,1.270198E-1,1.4831033E-1,5.4635298E-2,7.255384E-2,2.5988966E-1,3.3792827E-1,-7.3569706E-3,-7.1167643E-3,-6.8248985E-3,-6.1971066E-3,-5.0570727E-3,-4.630308E-3,-3.4156104E-3,-2.290215E-3,-1.7612425E-4,-1.054866E-3,-6.3161954E-4,-1.8398823E-3,2.2913713E-3,1.7120325E-4,1.218552E-2,5.811251E-3,3.5688886E-4,2.7495353E-3,6.677789E-3,1.1914144E-2,4.84652E-3,9.296411E-3,1.7946484E-2,1.4140032E-2,4.976618E-3,1.0449393E-2,9.781063E-3,2.1274198E-2,1.8495422E-2,1.334082E-2,2.7726032E-2,3.571258E-2,3.631046E-2,4.4078507E-2,4.2159505E-2,4.7676865E-2,9.332608E-2,7.5639404E-2,1.0555429E-1,7.703413E-2],"categories":[],"categories_nodes":[],"categories_segments":[],"categories_sizes":[],"default_left":[0,0,0,0,0,0,0,0,0,0,0,0,0,0,0,0,0,0,0,0,0,0,0,0,0,0,0,0,0,0,0,0,0,0,0,0,0,0,0,0,0,0,0,0,0,0,0,0,0,0,0,0,0,0,0,0,0,0,0,0,0,0,0,0,0,0,0,0,0,0,0,0,0,0,0,0,0,0,0,0,0,0,0,0,0,0,0,0,0],"id":0,"left_children":[1,3,5,7,9,11,-1,13,15,17,19,21,23,25,27,29,31,33,35,37,39,41,43,45,47,49,51,-1,53,55,57,59,61,63,65,67,69,71,73,75,77,79,-1,81,83,-1,-1,85,87,-1,-1,-1,-1,-1,-1,-1,-1,-1,-1,-1,-1,-1,-1,-1,-1,-1,-1,-1,-1,-1,-1,-1,-1,-1,-1,-1,-1,-1,-1,-1,-1,-1,-1,-1,-1,-1,-1,-1,-1],"loss_changes":[1.0570007E2,1.6936821E1,2.13367E1,2.788352E0,2.388461E0,1.0926697E1,0E0,2.819786E-1,1.6368073E-1,1.3062334E-1,7.643213E-1,3.591671E-1,1.0874557E0,2.0839691E-2,2.3907423E-3,2.13584E-2,3.465017E-2,7.193303E-2,6.1474025E-2,1.5782213E-1,1.6966867E-1,1.7802858E-1,1.1620331E-1,3.2818794E-2,3.9141464E-1,1.455307E-3,4.3315887E-3,0E0,2.4454594E-3,1.9948602E-2,6.9085066E-4,1.1276562E-2,1.5135078E-2,2.2705898E-2,2.563931E-2,1.8626243E-2,2.7007401E-2,1.43812895E-2,1.1619568E-1,7.596588E-2,1.4794469E-2,2.7644873E-2,0E0,1.0112953E-1,1.2338638E-2,0E0,0E0,2.3933029E-1,4.5318604E-3,0E0,0E0,0E0,0E0,0E0,0E0,0E0,0E0,0E0,0E0,0E0,0E0,0E0,0E0,0E0,0E0,0E0,0E0,0E0,0E0,0E0,0E0,0E0,0E0,0E0,0E0,0E0,0E0,0E0,0E0,0E0,0E0,0E0,0E0,0E0,0E0,0E0,0E0,0E0,0E0],"parents":[2147483647,0,0,1,1,2,2,3,3,4,4,5,5,7,7,8,8,9,9,10,10,11,11,12,12,13,13,14,14,15,15,16,16,17,17,18,18,19,19,20,20,21,21,22,22,23,23,24,24,25,25,26,26,28,28,29,29,30,30,31,31,32,32,33,33,34,34,35,35,36,36,37,37,38,38,39,39,40,40,41,41,43,43,44,44,47,47,48,48],"right_children":[2,4,6,8,10,12,-1,14,16,18,20,22,24,26,28,30,32,34,36,38,40,42,44,46,48,50,52,-1,54,56,58,60,62,64,66,68,70,72,74,76,78,80,-1,82,84,-1,-1,86,88,-1,-1,-1,-1,-1,-1,-1,-1,-1,-1,-1,-1,-1,-1,-1,-1,-1,-1,-1,-1,-1,-1,-1,-1,-1,-1,-1,-1,-1,-1,-1,-1,-1,-1,-1,-1,-1,-1,-1,-1],"split_conditions":[1.1013525E-1,2.8095953E-2,6.028012E-2,1.0586075E-2,4.9824677E-2,2.0299438E-1,2.7003014E-1,4.909E-3,1.8634163E-2,3.8147714E-2,7.36016E-2,1.1642528E-2,1.5517406E-2,1.4359659E-3,1.4492754E-2,9.8261225E-1,2.51461E-2,1.6570828E-3,1.8013972E-1,1.8612774E-1,1.1642528E-2,1.7680322E-3,5.735294E-1,7.1428573E-1,7.1428573E-1,6.9015415E-4,3.217009E-3,-5.4029003E-3,3.923492E-3,7.9098284E-2,9.42029E-2,6.383786E-1,2.6504146E-2,1.8013972E-1,1.4492754E-2,5.3948015E-3,9.8261225E-1,2.1428572E-1,6.5928698E-3,5.8337906E-3,1.8013972E-1,1.4492754E-2,1.9897982E-2,7.1428573E-1,1.3239961E-2,5.4635298E-2,7.255384E-2,1.8013972E-1,1.9871872E-2,-7.3569706E-3,-7.1167643E-3,-6.8248985E-3,-6.1971066E-3,-5.0570727E-3,-4.630308E-3,-3.4156104E-3,-2.290215E-3,-1.7612425E-4,-1.054866E-3,-6.3161954E-4,-1.8398823E-3,2.2913713E-3,1.7120325E-4,1.218552E-2,5.811251E-3,3.5688886E-4,2.7495353E-3,6.677789E-3,1.1914144E-2,4.84652E-3,9.296411E-3,1.7946484E-2,1.4140032E-2,4.976618E-3,1.0449393E-2,9.781063E-3,2.1274198E-2,1.8495422E-2,1.334082E-2,2.7726032E-2,3.571258E-2,3.631046E-2,4.4078507E-2,4.2159505E-2,4.7676865E-2,9.332608E-2,7.5639404E-2,1.0555429E-1,7.703413E-2],"split_indices":[0,0,2,0,0,0,0,0,0,0,0,2,2,0,26,34,0,2,31,31,2,2,27,30,30,0,0,0,23,32,26,32,0,31,26,23,34,30,24,2,31,26,0,30,2,0,0,31,2,0,0,0,0,0,0,0,0,0,0,0,0,0,0,0,0,0,0,0,0,0,0,0,0,0,0,0,0,0,0,0,0,0,0,0,0,0,0,0,0],"split_type":[0,0,0,0,0,0,0,0,0,0,0,0,0,0,0,0,0,0,0,0,0,0,0,0,0,0,0,0,0,0,0,0,0,0,0,0,0,0,0,0,0,0,0,0,0,0,0,0,0,0,0,0,0,0,0,0,0,0,0,0,0,0,0,0,0,0,0,0,0,0,0,0,0,0,0,0,0,0,0,0,0,0,0,0,0,0,0,0,0],"sum_hessian":[5.906E4,5.607E4,2.99E3,4.6367E4,9.703E3,2.95E3,4E1,3.3685E4,1.2682E4,5.065E3,4.638E3,1.838E3,1.112E3,2.746E4,6.225E3,6.211E3,6.471E3,3.228E3,1.837E3,3.008E3,1.63E3,4.22E2,1.416E3,2.3E2,8.82E2,2.0525E4,6.935E3,8.75E2,5.35E3,5.831E3,3.8E2,5.1E3,1.371E3,3E2,2.928E3,2.8E2,1.557E3,5.52E2,2.456E3,1.119E3,5.11E2,3E2,1.22E2,9.97E2,4.19E2,2.1E2,2E1,7.99E2,8.3E1,1.6565E4,3.96E3,5.56E3,1.375E3,2.605E3,2.745E3,2.466E3,3.365E3,2.65E2,1.15E2,4.27E3,8.3E2,4.51E2,9.2E2,6.5E1,2.35E2,4.83E2,2.445E3,1E2,1.8E2,1.422E3,1.35E2,1.4E2,4.12E2,4.25E2,2.031E3,5.7E1,1.062E3,6.5E1,4.46E2,7.5E1,2.25E2,7.72E2,2.25E2,2.5E2,1.69E2,1E2,6.99E2,6.8E1,1.5E1],"tree_param":{"num_deleted":"0","num_feature":"37","num_nodes":"89","size_leaf_vector":"1"}},{"base_weights":[1.8914297E-5,-6.837395E-3,1.2855121E-1,-1.240594E-2,1.9771133E-2,1.2144824E-1,1.9099693E-1,-1.5736824E-2,-3.5581493E-3,8.741107E-3,3.076758E-2,8.812002E-2,1.7640705E-1,-1.66814E-2,-1.1371914E-2,-7.064908E-3,-1.7190017E-3,1.6564252E-2,7.07288E-3,2.4336701E-2,4.3480355E-2,6.984217E-2,9.35141E-2,1.3238573E-1,1.877236E-1,-1.7022667E-2,-1.5451631E-2,-9.803813E-3,-1.1594231E-2,-7.5753424E-3,-3.202347E-3,-2.4591114E-3,2.031349E-3,8.71384E-3,1.3290027E-2,5.683243E-3,1.3889318E-2,1.7426409E-2,2.9273331E-2,4.8323087E-2,3.2801963E-2,7.911169E-2,4.659039E-2,8.951801E-2,1.13132186E-1,3.489725E-2,1.4334595E-1,1.8213397E-1,7.161704E-2,-5.1436825E-3,-4.9243076E-3,-4.783403E-3,-4.395644E-3,-2.3056918E-3,-3.095906E-3,-2.6522754E-3,-3.5045708E-3,-3.245472E-3,-2.1009601E-3,-8.746556E-4,-2.5322E-3,-9.810814E-4,-1.0335871E-4,-9.5189264E-4,9.496619E-4,2.627461E-3,7.83443E-3,1.2645075E-3,2.952176E-3,1.8459571E-3,4.973783E-3,8.681394E-3,4.6642018E-3,9.191496E-3,4.4935197E-3,9.91863E-3,1.5334263E-2,1.0158211E-2,3.512812E-3,2.5523933E-2,1.8097064E-2,1.1217894E-2,1.4467069E-2,2.148857E-2,2.794629E-2,2.5383743E-2,4.3346014E-2,4.098404E-2,5.1824175E-2,5.1566727E-2,6.0684938E-2],"categories":[],"categories_nodes":[],"categories_segments":[],"categories_sizes":[],"default_left":[0,0,0,0,0,0,0,0,0,0,0,0,0,0,0,0,0,0,0,0,0,0,0,0,0,0,0,0,0,0,0,0,0,0,0,0,0,0,0,0,0,0,0,0,0,0,0,0,0,0,0,0,0,0,0,0,0,0,0,0,0,0,0,0,0,0,0,0,0,0,0,0,0,0,0,0,0,0,0,0,0,0,0,0,0,0,0,0,0,0,0],"id":1,"left_children":[1,3,5,7,9,11,-1,13,15,17,19,21,23,25,27,29,31,33,35,37,39,41,43,45,47,49,51,53,55,57,59,61,63,-1,65,67,69,71,73,75,77,79,81,83,85,-1,87,89,-1,-1,-1,-1,-1,-1,-1,-1,-1,-1,-1,-1,-1,-1,-1,-1,-1,-1,-1,-1,-1,-1,-1,-1,-1,-1,-1,-1,-1,-1,-1,-1,-1,-1,-1,-1,-1,-1,-1,-1,-1,-1,-1],"loss_changes":[5.2048813E1,8.308331E0,1.0717369E1,1.3664536E0,1.1767395E0,5.389744E0,0E0,1.3869762E-1,8.178617E-2,6.312692E-2,3.9618587E-1,1.7477894E-1,5.296135E-1,1.1358738E-2,1.9766092E-3,8.577779E-3,2.310136E-2,3.4393057E-2,3.7772685E-2,1.09642506E-1,8.275819E-2,8.74846E-2,1.00958824E-1,2.3990154E-2,2.0823479E-1,1.3384819E-3,2.141714E-3,7.413104E-4,1.1630654E-3,7.0730895E-3,7.431684E-4,1.191996E-2,8.108541E-3,0E0,3.9060026E-2,2.0229533E-2,1.3965458E-2,2.8708756E-2,3.6263585E-2,4.601693E-2,1.103729E-2,2.8618574E-2,4.4345856E-5,7.021904E-2,1.988113E-1,0E0,2.7270317E-3,1.3036919E-1,0E0,0E0,0E0,0E0,0E0,0E0,0E0,0E0,0E0,0E0,0E0,0E0,0E0,0E0,0E0,0E0,0E0,0E0,0E0,0E0,0E0,0E0,0E0,0E0,0E0,0E0,0E0,0E0,0E0,0E0,0E0,0E0,0E0,0E0,0E0,0E0,0E0,0E0,0E0,0E0,0E0,0E0,0E0],"parents":[2147483647,0,0,1,1,2,2,3,3,4,4,5,5,7,7,8,8,9,9,10,10,11,11,12,12,13,13,14,14,15,15,16,16,17,17,18,18,19,19,20,20,21,21,22,22,23,23,24,24,25,25,26,26,27,27,28,28,29,29,30,30,31,31,32,32,34,34,35,35,36,36,37,37,38,38,39,39,40,40,41,41,42,42,43,43,44,44,46,46,47,47],"right_children":[2,4,6,8,10,12,-1,14,16,18,20,22,24,26,28,30,32,34,36,38,40,42,44,46,48,50,52,54,56,58,60,62,64,-1,66,68,70,72,74,76,78,80,82,84,86,-1,88,90,-1,-1,-1,-1,-1,-1,-1,-1,-1,-1,-1,-1,-1,-1,-1,-1,-1,-1,-1,-1,-1,-1,-1,-1,-1,-1,-1,-1,-1,-1,-1,-1,-1,-1,-1,-1,-1,-1,-1,-1,-1,-1,-1],"split_conditions":[1.1013525E-1,2.8095953E-2,6.028012E-2,1.0586075E-2,4.7910057E-2,2.0299438E-1,1.9099693E-1,5.6993375E-3,1.7031224E-2,1.7405931E-3,7.36016E-2,1.1642528E-2,1.5517406E-2,1.6585963E-3,1.8013972E-1,2.4945241E-1,2.51461E-2,1.8013972E-1,4.022931E-2,1.9871872E-2,1.1642528E-2,1.7680322E-3,1.8070908E-1,2.2205588E-1,7.1428573E-1,8.905215E-4,2.7828796E-3,1.2156713E-3,5.882353E-2,2.173913E-2,1E0,6.4705884E-1,1.4492754E-2,8.71384E-3,7.1428573E-1,6.4705884E-1,1.8013972E-1,1.8013972E-1,1E0,1.4492754E-2,1E0,7.2463766E-2,1.4492754E-2,1.4492754E-2,1.1822672E-2,3.489725E-2,7.1428573E-1,5.735294E-1,7.161704E-2,-5.1436825E-3,-4.9243076E-3,-4.783403E-3,-4.395644E-3,-2.3056918E-3,-3.095906E-3,-2.6522754E-3,-3.5045708E-3,-3.245472E-3,-2.1009601E-3,-8.746556E-4,-2.5322E-3,-9.810814E-4,-1.0335871E-4,-9.5189264E-4,9.496619E-4,2.627461E-3,7.83443E-3,1.2645075E-3,2.952176E-3,1.8459571E-3,4.973783E-3,8.681394E-3,4.6642018E-3,9.191496E-3,4.4935197E-3,9.91863E-3,1.5334263E-2,1.0158211E-2,3.512812E-3,2.5523933E-2,1.8097064E-2,1.1217894E-2,1.4467069E-2,2.148857E-2,2.794629E-2,2.5383743E-2,4.3346014E-2,4.098404E-2,5.1824175E-2,5.1566727E-2,6.0684938E-2],"split_indices":[0,0,2,0,0,0,0,0,0,2,0,2,2,0,31,2,0,31,0,2,2,2,0,31,30,0,0,2,27,26,31,27,26,0,30,27,10,31,31,26,31,26,26,26,2,0,30,27,0,0,0,0,0,0,0,0,0,0,0,0,0,0,0,0,0,0,0,0,0,0,0,0,0,0,0,0,0,0,0,0,0,0,0,0,0,0,0,0,0,0,0],"split_type":[0,0,0,0,0,0,0,0,0,0,0,0,0,0,0,0,0,0,0,0,0,0,0,0,0,0,0,0,0,0,0,0,0,0,0,0,0,0,0,0,0,0,0,0,0,0,0,0,0,0,0,0,0,0,0,0,0,0,0,0,0,0,0,0,0,0,0,0,0,0,0,0,0,0,0,0,0,0,0,0,0,0,0,0,0,0,0,0,0,0,0],"sum_hessian":[5.906E4,5.607E4,2.99E3,4.6367E4,9.703E3,2.95E3,4E1,3.3685E4,1.2682E4,4.845E3,4.858E3,1.838E3,1.112E3,2.769E4,5.995E3,4.362E3,8.32E3,8.5E2,3.995E3,3.228E3,1.63E3,4.22E2,1.416E3,2.3E2,8.82E2,2.1665E4,6.025E3,7.5E2,5.245E3,3.852E3,5.1E2,6.949E3,1.371E3,1.75E2,6.75E2,3.32E3,6.75E2,1.347E3,1.881E3,1.119E3,5.11E2,3E2,1.22E2,1.181E3,2.35E2,9.8E1,1.32E2,7.99E2,8.3E1,1.8E4,3.665E3,3.715E3,2.31E3,1.5E2,6E2,1.65E2,5.08E3,5.75E2,3.277E3,4.85E2,2.5E1,5.022E3,1.927E3,2.45E2,1.126E3,5E2,1.75E2,2.455E3,8.65E2,1.75E2,5E2,1.87E2,1.16E3,1.716E3,1.65E2,1.75E2,9.44E2,4.86E2,2.5E1,2.25E2,7.5E1,2.2E1,1E2,2.03E2,9.78E2,1.25E2,1.1E2,1.12E2,2E1,5.36E2,2.63E2],"tree_param":{"num_deleted":"0","num_feature":"37","num_nodes":"91","size_leaf_vector":"1"}},{"base_weights":[2.586351E-5,-4.7851866E-3,9.0216555E-2,-8.515637E-3,1.4716105E-2,8.518288E-2,1.3509539E-1,-1.0876845E-2,-1.7797574E-3,9.9322535E-3,2.6820045E-2,6.1785955E-2,1.2376488E-1,-1.1677675E-2,-7.7785817E-3,-3.4740285E-3,4.3978562E-4,6.447314E-3,1.5301186E-2,3.258931E-2,2.1635214E-2,4.905336E-2,6.554326E-2,9.322285E-2,1.3161476E-1,-1.1994386E-2,-1.1015449E-2,-8.285946E-3,-6.9670305E-3,-6.2244157E-3,-3.015586E-3,6.112307E-3,-3.3533E-4,1.43509265E-2,5.4298956E-3,5.595824E-3,1.6979668E-2,1.3288339E-2,3.5155114E-2,1.0024457E-2,1.990396E-2,3.5641428E-2,5.766333E-2,6.303677E-2,8.1398115E-2,8.977853E-2,3.701727E-2,1.276341E-1,1.67959E-1,-3.6475565E-3,-3.5453613E-3,-3.3732492E-3,-3.0376136E-3,-2.3755885E-3,-2.7093336E-3,-2.6544228E-3,-1.993379E-3,-8.4727935E-6,-2.1687504E-3,-1.0349222E-3,-2.4104006E-4,1.9386687E-3,-7.0378254E-4,9.531751E-6,-1.6549752E-3,6.1145406E-3,3.1143723E-3,2.6213157E-3,1.1232463E-3,3.4299765E-3,1.4303024E-3,2.8868539E-3,5.890231E-3,3.3595164E-3,8.753229E-3,1.3956402E-2,9.971028E-3,6.3176597E-3,3.033784E-3,9.540581E-3,1.19612375E-2,2.1106029E-2,1.4511953E-2,1.7721927E-2,2.1989677E-2,2.0572748E-2,3.150041E-2,2.4533821E-2,2.8797634E-2,4.758024E-2,3.6895115E-2,5.3173203E-2,3.5225987E-2],"categories":[],"categories_nodes":[],"categories_segments":[],"categories_sizes":[],"default_left":[0,0,0,0,0,0,0,0,0,0,0,0,0,0,0,0,0,0,0,0,0,0,0,0,0,0,0,0,0,0,0,0,0,0,0,0,0,0,0,0,0,0,0,0,0,0,0,0,0,0,0,0,0,0,0,0,0,0,0,0,0,0,0,0,0,0,0,0,0,0,0,0,0,0,0,0,0,0,0,0,0,0,0,0,0,0,0,0,0,0,0,0,0],"id":2,"left_children":[1,3,5,7,9,11,-1,13,15,17,19,21,23,25,27,29,31,33,35,37,39,41,43,45,47,49,51,53,55,57,59,61,63,65,67,69,71,73,75,-1,77,79,81,83,85,87,-1,89,91,-1,-1,-1,-1,-1,-1,-1,-1,-1,-1,-1,-1,-1,-1,-1,-1,-1,-1,-1,-1,-1,-1,-1,-1,-1,-1,-1,-1,-1,-1,-1,-1,-1,-1,-1,-1,-1,-1,-1,-1,-1,-1,-1,-1],"loss_changes":[2.5627703E1,4.079212E0,5.3832264E0,7.4858856E-1,5.2109647E-1,2.6562233E0,0E0,8.638048E-2,4.5947414E-2,1.20676994E-1,7.557225E-2,8.476353E-2,2.5457382E-1,5.6757927E-3,2.8908253E-3,8.717962E-3,2.3261435E-2,3.1411737E-2,4.1282296E-2,5.920744E-2,2.6784599E-2,4.6791315E-2,5.1181316E-2,1.2925148E-2,1.0630894E-1,3.9863586E-4,1.7124414E-3,1.1331141E-3,1.6157925E-3,6.156929E-3,5.70298E-3,1.8975474E-3,8.854224E-3,1.0465965E-2,1.9322053E-2,1.7631743E-3,4.208958E-2,4.4219214E-3,2.1631956E-2,0E0,1.30853355E-2,1.4601201E-3,2.6777387E-2,4.5619965E-2,5.0302505E-2,2.637148E-3,0E0,9.569931E-2,1.860571E-2,0E0,0E0,0E0,0E0,0E0,0E0,0E0,0E0,0E0,0E0,0E0,0E0,0E0,0E0,0E0,0E0,0E0,0E0,0E0,0E0,0E0,0E0,0E0,0E0,0E0,0E0,0E0,0E0,0E0,0E0,0E0,0E0,0E0,0E0,0E0,0E0,0E0,0E0,0E0,0E0,0E0,0E0,0E0,0E0],"parents":[2147483647,0,0,1,1,2,2,3,3,4,4,5,5,7,7,8,8,9,9,10,10,11,11,12,12,13,13,14,14,15,15,16,16,17,17,18,18,19,19,20,20,21,21,22,22,23,23,24,24,25,25,26,26,27,27,28,28,29,29,30,30,31,31,32,32,33,33,34,34,35,35,36,36,37,37,38,38,40,40,41,41,42,42,43,43,44,44,45,45,47,47,48,48],"right_children":[2,4,6,8,10,12,-1,14,16,18,20,22,24,26,28,30,32,34,36,38,40,42,44,46,48,50,52,54,56,58,60,62,64,66,68,70,72,74,76,-1,78,80,82,84,86,88,-1,90,92,-1,-1,-1,-1,-1,-1,-1,-1,-1,-1,-1,-1,-1,-1,-1,-1,-1,-1,-1,-1,-1,-1,-1,-1,-1,-1,-1,-1,-1,-1,-1,-1,-1,-1,-1,-1,-1,-1,-1,-1,-1,-1,-1,-1],"split_conditions":[1.1013525E-1,3.1045806E-2,6.028012E-2,1.30238775E-2,6.670006E-2,2.0299438E-1,1.3509539E-1,5.6993375E-3,2.1528358E-2,4.6284854E-2,3.923492E-3,1.1642528E-2,1.5517406E-2,1.0352313E-3,8.868793E-3,1.4492754E-2,7.29927E-3,1.8013972E-1,1.4492754E-2,5.8337906E-3,1.8013972E-1,1E0,1E0,7.1428573E-1,7.1428573E-1,2.5602494E-4,3.0166416E-3,9.42029E-2,1.4492754E-2,7.246377E-3,9.500824E-1,1E0,1E0,1.7405931E-3,8.343872E-3,1E0,6.5928698E-3,5.735294E-1,1.8013972E-1,1.0024457E-2,1E0,1.208549E-1,2.8985508E-2,5.735294E-1,1.3948907E-1,2.2205588E-1,3.701727E-2,1.8013972E-1,1.9871872E-2,-3.6475565E-3,-3.5453613E-3,-3.3732492E-3,-3.0376136E-3,-2.3755885E-3,-2.7093336E-3,-2.6544228E-3,-1.993379E-3,-8.4727935E-6,-2.1687504E-3,-1.0349222E-3,-2.4104006E-4,1.9386687E-3,-7.0378254E-4,9.531751E-6,-1.6549752E-3,6.1145406E-3,3.1143723E-3,2.6213157E-3,1.1232463E-3,3.4299765E-3,1.4303024E-3,2.8868539E-3,5.890231E-3,3.3595164E-3,8.753229E-3,1.3956402E-2,9.971028E-3,6.3176597E-3,3.033784E-3,9.540581E-3,1.19612375E-2,2.1106029E-2,1.4511953E-2,1.7721927E-2,2.1989677E-2,2.0572748E-2,3.150041E-2,2.4533821E-2,2.8797634E-2,4.758024E-2,3.6895115E-2,5.3173203E-2,3.5225987E-2],"split_indices":[0,0,2,0,0,0,0,0,0,0,23,2,2,0,2,26,4,31,26,2,31,29,3,30,30,0,0,26,26,26,8,31,31,2,2,11,24,27,31,0,31,0,26,27,0,31,0,31,2,0,0,0,0,0,0,0,0,0,0,0,0,0,0,0,0,0,0,0,0,0,0,0,0,0,0,0,0,0,0,0,0,0,0,0,0,0,0,0,0,0,0,0,0],"split_type":[0,0,0,0,0,0,0,0,0,0,0,0,0,0,0,0,0,0,0,0,0,0,0,0,0,0,0,0,0,0,0,0,0,0,0,0,0,0,0,0,0,0,0,0,0,0,0,0,0,0,0,0,0,0,0,0,0,0,0,0,0,0,0,0,0,0,0,0,0,0,0,0,0,0,0,0,0,0,0,0,0,0,0,0,0,0,0,0,0,0,0,0,0],"sum_hessian":[5.906E4,5.607E4,2.99E3,4.7067E4,9.003E3,2.95E3,4E1,3.485E4,1.2217E4,6.454E3,2.549E3,1.838E3,1.112E3,2.769E4,7.16E3,6.928E3,5.289E3,3.915E3,2.539E3,1.204E3,1.345E3,4.22E2,1.416E3,2.3E2,8.82E2,1.872E4,8.97E3,4.4E3,2.76E3,9.88E2,5.94E3,6.35E2,4.654E3,4.45E2,3.47E3,3.75E2,2.164E3,1.42E2,1.062E3,1.7E2,1.175E3,1.67E2,2.55E2,1.227E3,1.89E2,2.1E2,2E1,7.99E2,8.3E1,9.665E3,9.055E3,7.127E3,1.843E3,2.955E3,1.445E3,4E2,2.36E3,1.38E2,8.5E2,4.965E3,9.75E2,6.1E2,2.5E1,4.347E3,3.07E2,1.75E2,2.7E2,1.17E3,2.3E3,4.5E1,3.3E2,5.75E2,1.589E3,1.27E2,1.5E1,1.5E2,9.12E2,1.05E3,1.25E2,9.2E1,7.5E1,1.05E2,1.5E2,8.9E2,3.37E2,1.25E2,6.4E1,9.8E1,1.12E2,1E2,6.99E2,6.8E1,1.5E1],"tree_param":{"num_deleted":"0","num_feature":"37","num_nodes":"93","size_leaf_vector":"1"}},{"base_weights":[2.8298293E-5,-3.3486525E-3,6.333455E-2,-6.1267386E-3,9.568595E-3,5.976767E-2,9.555528E-2,-7.636687E-3,-1.593744E-3,4.2517325E-3,1.511109E-2,4.333114E-2,8.6871915E-2,-8.231871E-3,-5.681306E-3,-2.5639264E-3,-1.5421334E-4,-6.2395935E-4,5.2527664E-3,1.19263055E-2,2.1406956E-2,4.699246E-2,3.4574583E-2,6.564712E-2,9.232611E-2,-8.383487E-3,-7.787613E-3,-5.7645408E-3,-2.3894894E-3,-2.9187263E-3,1.4785836E-4,-3.2283738E-3,4.1160313E-4,3.778282E-3,-1.2051144E-3,6.9670416E-3,2.4724745E-3,8.984366E-3,1.7368233E-2,1.21649485E-2,2.3396527E-2,3.283895E-2,5.2062713E-2,2.7411647E-2,4.6829406E-2,6.309772E-2,2.6440907E-2,9.8829105E-2,8.09668E-2,-2.56212E-3,-2.4820534E-3,-2.4828326E-3,-2.3069293E-3,-1.999806E-3,-1.6592302E-3,-3.0573405E-4,-8.509522E-4,-1.0113813E-3,-1.7997407E-4,-4.1272555E-4,2.854867E-4,8.9176494E-4,-1.1262709E-3,4.8362583E-4,-4.1032233E-4,8.476561E-4,1.2722171E-3,-4.5374554E-4,7.086008E-4,1.6942294E-3,3.4782612E-3,-3.696666E-5,1.7209306E-3,4.9794135E-3,2.2935073E-3,5.7710754E-3,1.9133857E-3,5.290853E-3,2.9465372E-3,7.958809E-3,5.5103577E-3,1.2242354E-2,7.7550835E-3,3.1047906E-3,1.588431E-2,6.9516855E-3,1.0664216E-2,1.2023774E-2,1.8573541E-2,1.7248018E-2,2.02348E-2,2.4099004E-2,3.1883523E-2,2.0147473E-2,2.8186465E-2],"categories":[],"categories_nodes":[],"categories_segments":[],"categories_sizes":[],"default_left":[0,0,0,0,0,0,0,0,0,0,0,0,0,0,0,0,0,0,0,0,0,0,0,0,0,0,0,0,0,0,0,0,0,0,0,0,0,0,0,0,0,0,0,0,0,0,0,0,0,0,0,0,0,0,0,0,0,0,0,0,0,0,0,0,0,0,0,0,0,0,0,0,0,0,0,0,0,0,0,0,0,0,0,0,0,0,0,0,0,0,0,0,0,0,0],"id":3,"left_children":[1,3,5,7,9,11,-1,13,15,17,19,21,23,25,27,29,31,33,35,37,39,41,43,45,47,49,51,53,55,57,59,61,63,65,67,69,71,73,75,77,79,81,83,85,87,89,-1,91,93,-1,-1,-1,-1,-1,-1,-1,-1,-1,-1,-1,-1,-1,-1,-1,-1,-1,-1,-1,-1,-1,-1,-1,-1,-1,-1,-1,-1,-1,-1,-1,-1,-1,-1,-1,-1,-1,-1,-1,-1,-1,-1,-1,-1,-1,-1],"loss_changes":[1.2626395E1,2.0121794E0,2.7033863E0,3.1584477E-1,2.9241234E-1,1.3109055E0,0E0,4.023981E-2,1.6105283E-2,2.4733946E-2,9.71725E-2,5.7334423E-2,1.2278557E-1,1.7220974E-3,2.200365E-3,6.6286214E-3,8.079152E-3,2.2149978E-3,2.0019837E-2,5.153969E-2,2.9705584E-2,9.115052E-2,4.664451E-2,7.682979E-3,5.722475E-2,2.7048588E-4,2.5975704E-4,1.6239882E-3,1.20238285E-4,6.3907094E-3,9.785582E-4,2.3654792E-3,8.382017E-3,3.2517943E-5,8.412432E-4,1.5810251E-2,1.3598671E-2,2.1267086E-2,2.3125589E-2,3.5573915E-3,2.0638764E-2,1.8103153E-2,3.4558773E-2,1.1144429E-2,1.788041E-2,1.26791E-3,0E0,6.822014E-2,5.2336454E-2,0E0,0E0,0E0,0E0,0E0,0E0,0E0,0E0,0E0,0E0,0E0,0E0,0E0,0E0,0E0,0E0,0E0,0E0,0E0,0E0,0E0,0E0,0E0,0E0,0E0,0E0,0E0,0E0,0E0,0E0,0E0,0E0,0E0,0E0,0E0,0E0,0E0,0E0,0E0,0E0,0E0,0E0,0E0,0E0,0E0,0E0],"parents":[2147483647,0,0,1,1,2,2,3,3,4,4,5,5,7,7,8,8,9,9,10,10,11,11,12,12,13,13,14,14,15,15,16,16,17,17,18,18,19,19,20,20,21,21,22,22,23,23,24,24,25,25,26,26,27,27,28,28,29,29,30,30,31,31,32,32,33,33,34,34,35,35,36,36,37,37,38,38,39,39,40,40,41,41,42,42,43,43,44,44,45,45,47,47,48,48],"right_children":[2,4,6,8,10,12,-1,14,16,18,20,22,24,26,28,30,32,34,36,38,40,42,44,46,48,50,52,54,56,58,60,62,64,66,68,70,72,74,76,78,80,82,84,86,88,90,-1,92,94,-1,-1,-1,-1,-1,-1,-1,-1,-1,-1,-1,-1,-1,-1,-1,-1,-1,-1,-1,-1,-1,-1,-1,-1,-1,-1,-1,-1,-1,-1,-1,-1,-1,-1,-1,-1,-1,-1,-1,-1,-1,-1,-1,-1,-1,-1],"split_conditions":[1.1013525E-1,2.7661825E-2,6.028012E-2,1.2400512E-2,4.7910057E-2,2.0299438E-1,9.555528E-2,3.6622698E-3,2.1227807E-2,1.4492754E-2,7.36016E-2,8.695652E-2,1.5517406E-2,2.3868135E-3,3.4081746E-2,1E0,1.4492754E-2,1.692873E-3,9.42029E-2,1.8517012E-2,2.173913E-2,1.4492754E-2,5.652174E-1,7.1428573E-1,8.695652E-2,2.1149886E-4,1.4492754E-2,6.52307E-3,2.8985508E-2,9.500824E-1,1.4381923E-2,2.857143E-1,9.42029E-2,3.8147714E-2,4.6284854E-2,6.375674E-3,1E0,1.8013972E-1,1E0,2.087742E-2,8.695652E-2,1E0,6.31806E-2,1.1822672E-2,1.70969E-1,2.2205588E-1,2.6440907E-2,1.4492754E-2,2.5693876E-1,-2.56212E-3,-2.4820534E-3,-2.4828326E-3,-2.3069293E-3,-1.999806E-3,-1.6592302E-3,-3.0573405E-4,-8.509522E-4,-1.0113813E-3,-1.7997407E-4,-4.1272555E-4,2.854867E-4,8.9176494E-4,-1.1262709E-3,4.8362583E-4,-4.1032233E-4,8.476561E-4,1.2722171E-3,-4.5374554E-4,7.086008E-4,1.6942294E-3,3.4782612E-3,-3.696666E-5,1.7209306E-3,4.9794135E-3,2.2935073E-3,5.7710754E-3,1.9133857E-3,5.290853E-3,2.9465372E-3,7.958809E-3,5.5103577E-3,1.2242354E-2,7.7550835E-3,3.1047906E-3,1.588431E-2,6.9516855E-3,1.0664216E-2,1.2023774E-2,1.8573541E-2,1.7248018E-2,2.02348E-2,2.4099004E-2,3.1883523E-2,2.0147473E-2,2.8186465E-2],"split_indices":[0,0,2,0,0,0,0,0,0,26,0,26,2,36,2,10,26,2,26,24,26,26,26,30,26,0,26,0,26,8,0,30,26,0,0,23,26,31,31,24,26,11,33,2,0,31,0,26,36,0,0,0,0,0,0,0,0,0,0,0,0,0,0,0,0,0,0,0,0,0,0,0,0,0,0,0,0,0,0,0,0,0,0,0,0,0,0,0,0,0,0,0,0,0,0],"split_type":[0,0,0,0,0,0,0,0,0,0,0,0,0,0,0,0,0,0,0,0,0,0,0,0,0,0,0,0,0,0,0,0,0,0,0,0,0,0,0,0,0,0,0,0,0,0,0,0,0,0,0,0,0,0,0,0,0,0,0,0,0,0,0,0,0,0,0,0,0,0,0,0,0,0,0,0,0,0,0,0,0,0,0,0,0,0,0,0,0,0,0,0,0,0,0],"sum_hessian":[5.906E4,5.607E4,2.99E3,4.6146E4,9.924E3,2.95E3,4E1,3.4615E4,1.1531E4,5.066E3,4.858E3,1.838E3,1.112E3,2.6535E4,8.08E3,6.888E3,4.643E3,8.63E2,4.203E3,3.228E3,1.63E3,1.293E3,5.45E2,2.3E2,8.82E2,1.977E4,6.765E3,7.88E3,2E2,6.091E3,7.97E2,7.21E2,3.922E3,1E2,7.63E2,2.599E3,1.604E3,2.097E3,1.131E3,2.9E2,1.34E3,3.43E2,9.5E2,3.46E2,1.99E2,2.1E2,2E1,5.56E2,3.26E2,8.115E3,1.1655E4,1.115E3,5.65E3,1.617E3,6.263E3,5E1,1.5E2,5.096E3,9.95E2,2.75E2,5.22E2,5.6E1,6.65E2,2.342E3,1.58E3,3.5E1,6.5E1,7.03E2,6E1,2.024E3,5.75E2,8.94E2,7.1E2,3.12E2,1.785E3,9.66E2,1.65E2,8.5E1,2.05E2,8.23E2,5.17E2,1.58E2,1.85E2,2E1,9.3E2,2.3E2,1.16E2,1.4E2,5.9E1,9.8E1,1.12E2,1.63E2,3.93E2,1.61E2,1.65E2],"tree_param":{"num_deleted":"0","num_feature":"37","num_nodes":"95","size_leaf_vector":"1"}},{"base_weights":[2.6255593E-5,-2.2535208E-3,4.6373468E-2,-3.9302115E-3,9.27117E-3,4.3668423E-2,2.2529289E-1,-5.318934E-3,-4.710964E-4,7.6100375E-3,1.791341E-2,3.173839E-2,6.0961496E-2,8.0283515E-2,5.167376E-2,-5.725251E-3,-3.7928175E-3,-1.2455253E-3,1.3833153E-3,1.269792E-3,8.708451E-3,3.0782925E-2,1.6988622E-2,2.971624E-2,4.3445475E-2,4.622971E-2,6.474642E-2,-5.836975E-3,-5.1725414E-3,-4.118918E-3,-3.029169E-3,7.245201E-4,-1.6669753E-3,1.5507805E-3,-1.0663198E-2,2.4013869E-3,-4.2480987E-4,1.0765945E-2,5.3958627E-3,1.3860191E-2,6.6957986E-3,1.5517173E-2,2.4433272E-2,2.7514266E-2,4.1159578E-2,2.6358496E-2,6.2450103E-2,4.4346053E-2,1.8886361E-2,6.2316284E-2,8.711972E-2,-1.7804466E-3,-1.7059065E-3,-1.5668707E-3,-6.7740533E-4,-1.1438972E-3,-1.5219803E-3,-1.1625804E-3,-7.6401205E-4,2.7468533E-4,-1.0497656E-3,-3.540814E-4,-8.3839195E-4,6.9355266E-4,-3.0641822E-4,-2.1901499E-3,-3.4193057E-3,4.9075444E-4,1.8894816E-3,-9.2096283E-4,8.762803E-5,2.6201122E-3,4.3310514E-3,6.8534515E-4,2.5893399E-3,3.81859E-3,6.232611E-3,1.0979089E-2,4.8742103E-3,7.3157647E-3,1.07114995E-2,1.6849445E-2,6.8326476E-3,6.333843E-3,1.0097631E-2,1.1847795E-2,2.0118516E-2,1.0394122E-2,1.37286605E-2,1.6993547E-2,2.208475E-2,2.8026002E-2,1.6351439E-2],"categories":[],"categories_nodes":[],"categories_segments":[],"categories_sizes":[],"default_left":[0,0,0,0,0,0,0,0,0,0,0,0,0,0,0,0,0,0,0,0,0,0,0,0,0,0,0,0,0,0,0,0,0,0,0,0,0,0,0,0,0,0,0,0,0,0,0,0,0,0,0,0,0,0,0,0,0,0,0,0,0,0,0,0,0,0,0,0,0,0,0,0,0,0,0,0,0,0,0,0,0,0,0,0,0,0,0,0,0,0,0,0,0],"id":4,"left_children":[1,3,5,7,9,11,13,15,17,19,21,23,25,-1,-1,27,29,31,33,35,37,39,41,43,45,47,49,51,53,55,57,59,61,63,65,67,69,71,73,-1,-1,75,77,79,81,83,85,87,-1,89,91,-1,-1,-1,-1,-1,-1,-1,-1,-1,-1,-1,-1,-1,-1,-1,-1,-1,-1,-1,-1,-1,-1,-1,-1,-1,-1,-1,-1,-1,-1,-1,-1,-1,-1,-1,-1,-1,-1,-1,-1,-1,-1],"loss_changes":[6.2405653E0,1.0878054E0,1.330317E0,2.3607314E-1,1.02508366E-1,5.610771E-1,4.5945406E-2,2.1722198E-2,2.0220717E-2,4.176727E-2,1.3187647E-2,3.6988974E-2,5.906582E-2,0E0,0E0,1.6797781E-3,1.8243343E-3,8.247506E-3,8.384598E-3,1.7019338E-3,3.4790248E-2,8.886017E-3,1.141879E-2,3.3691168E-2,7.49906E-2,4.485607E-3,4.257989E-2,3.05593E-4,6.729141E-4,1.488924E-3,8.9268386E-4,1.4165177E-3,4.4873003E-3,8.012792E-3,5.757343E-5,1.576768E-3,6.7596405E-4,2.3395687E-2,1.9720007E-2,0E0,0E0,1.2961298E-2,1.6929857E-2,2.890414E-2,5.968532E-2,4.114531E-3,9.103209E-3,1.3126135E-3,0E0,4.7094822E-2,1.2168765E-2,0E0,0E0,0E0,0E0,0E0,0E0,0E0,0E0,0E0,0E0,0E0,0E0,0E0,0E0,0E0,0E0,0E0,0E0,0E0,0E0,0E0,0E0,0E0,0E0,0E0,0E0,0E0,0E0,0E0,0E0,0E0,0E0,0E0,0E0,0E0,0E0,0E0,0E0,0E0,0E0,0E0,0E0],"parents":[2147483647,0,0,1,1,2,2,3,3,4,4,5,5,6,6,7,7,8,8,9,9,10,10,11,11,12,12,15,15,16,16,17,17,18,18,19,19,20,20,21,21,22,22,23,23,24,24,25,25,26,26,27,27,28,28,29,29,30,30,31,31,32,32,33,33,34,34,35,35,36,36,37,37,38,38,41,41,42,42,43,43,44,44,45,45,46,46,47,47,49,49,50,50],"right_children":[2,4,6,8,10,12,14,16,18,20,22,24,26,-1,-1,28,30,32,34,36,38,40,42,44,46,48,50,52,54,56,58,60,62,64,66,68,70,72,74,-1,-1,76,78,80,82,84,86,88,-1,90,92,-1,-1,-1,-1,-1,-1,-1,-1,-1,-1,-1,-1,-1,-1,-1,-1,-1,-1,-1,-1,-1,-1,-1,-1,-1,-1,-1,-1,-1,-1,-1,-1,-1,-1,-1,-1,-1,-1,-1,-1,-1,-1],"split_conditions":[1.208549E-1,3.7134748E-2,6.028012E-2,1.3402348E-2,8.704848E-2,2.0299438E-1,3.3333334E-1,5.6993375E-3,2.51461E-2,1.4492754E-2,1.6678199E-3,1.8070908E-1,1.5517406E-2,8.0283515E-2,5.167376E-2,1.9257527E-3,5.735294E-1,1.8612774E-1,8.147514E-1,5.735294E-1,8.695652E-2,2.8985508E-2,7.1428573E-1,7.1428573E-1,1.1822672E-2,7.1428573E-1,7.1428573E-1,4.675238E-4,1E0,7.2463766E-2,3.923492E-3,6.375674E-3,6.4285713E-1,5.735294E-1,5.882353E-2,7.210998E-2,7.266688E-1,1.8517012E-2,5.652174E-1,1.3860191E-2,6.6957986E-3,5.735294E-1,1E0,5.735294E-1,1.3239961E-2,5.735294E-1,1.8013972E-1,1.4492754E-2,1.8886361E-2,5.735294E-1,1.9871872E-2,-1.7804466E-3,-1.7059065E-3,-1.5668707E-3,-6.7740533E-4,-1.1438972E-3,-1.5219803E-3,-1.1625804E-3,-7.6401205E-4,2.7468533E-4,-1.0497656E-3,-3.540814E-4,-8.3839195E-4,6.9355266E-4,-3.0641822E-4,-2.1901499E-3,-3.4193057E-3,4.9075444E-4,1.8894816E-3,-9.2096283E-4,8.762803E-5,2.6201122E-3,4.3310514E-3,6.8534515E-4,2.5893399E-3,3.81859E-3,6.232611E-3,1.0979089E-2,4.8742103E-3,7.3157647E-3,1.07114995E-2,1.6849445E-2,6.8326476E-3,6.333843E-3,1.0097631E-2,1.1847795E-2,2.0118516E-2,1.0394122E-2,1.37286605E-2,1.6993547E-2,2.208475E-2,2.8026002E-2,1.6351439E-2],"split_indices":[0,0,2,0,0,0,3,0,0,26,2,0,2,0,0,0,27,31,32,5,26,26,30,30,2,30,30,0,10,26,23,23,30,5,27,0,34,24,26,0,0,27,11,27,2,27,31,26,0,27,2,0,0,0,0,0,0,0,0,0,0,0,0,0,0,0,0,0,0,0,0,0,0,0,0,0,0,0,0,0,0,0,0,0,0,0,0,0,0,0,0,0,0],"split_type":[0,0,0,0,0,0,0,0,0,0,0,0,0,0,0,0,0,0,0,0,0,0,0,0,0,0,0,0,0,0,0,0,0,0,0,0,0,0,0,0,0,0,0,0,0,0,0,0,0,0,0,0,0,0,0,0,0,0,0,0,0,0,0,0,0,0,0,0,0,0,0,0,0,0,0,0,0,0,0,0,0,0,0,0,0,0,0,0,0,0,0,0,0],"sum_hessian":[5.906E4,5.6292E4,2.768E3,4.9143E4,7.149E3,2.728E3,4E1,3.5065E4,1.4078E4,5.998E3,1.151E3,1.616E3,1.112E3,2E1,2E1,2.769E4,7.375E3,9.931E3,4.147E3,8.86E2,5.112E3,7.5E1,1.076E3,1.381E3,2.35E2,2.3E2,8.82E2,2.3026E4,4.664E3,5.165E3,2.21E3,1.75E3,8.181E3,4.091E3,5.6E1,5.31E2,3.55E2,3.152E3,1.96E3,2.5E1,5E1,9.01E2,1.75E2,1.161E3,2.2E2,1.25E2,1.1E2,2.1E2,2E1,7.99E2,8.3E1,1.3935E4,9.091E3,4.584E3,8E1,3.915E3,1.25E3,8E2,1.41E3,1.675E3,7.5E1,5.716E3,2.465E3,3.157E3,9.34E2,1.2E1,4.4E1,4.45E2,8.6E1,7.5E1,2.8E2,2.031E3,1.121E3,1E3,9.6E2,5.91E2,3.1E2,6.9E1,1.06E2,8.43E2,3.18E2,1.2E2,1E2,7.5E1,5E1,2E1,9E1,3E1,1.8E2,5.36E2,2.63E2,6.8E1,1.5E1],"tree_param":{"num_deleted":"0","num_feature":"37","num_nodes":"93","size_leaf_vector":"1"}},{"base_weights":[2.496942E-5,-1.5767413E-3,3.2587294E-2,-2.7515045E-3,6.4979633E-3,3.0647254E-2,1.6092348E-1,-3.7342634E-3,-3.5519231E-4,4.8490716E-3,1.120888E-2,2.2272596E-2,4.278667E-2,5.7345364E-2,3.6909822E-2,-4.0360796E-3,-2.770732E-3,-1.2163292E-3,6.254282E-4,9.068735E-3,3.9927377E-3,5.2163578E-3,1.3082358E-2,2.4565918E-2,1.6379805E-2,4.6717335E-2,3.5718463E-2,-4.0920945E-3,-3.693138E-3,-3.8148738E-3,-2.595831E-3,-3.7086136E-6,-1.6395206E-3,9.191712E-4,-3.8952827E-3,4.2398446E-3,1.0411706E-2,5.0914584E-4,5.079782E-3,2.08836E-3,8.183579E-3,6.751478E-3,1.42904315E-2,1.6142735E-2,2.7693085E-2,1.1829395E-2,2.4333382E-2,3.443205E-2,5.0074223E-2,2.5862407E-2,4.6471164E-2,-1.2456162E-3,-1.1905148E-3,-1.1784753E-3,-1.039965E-3,-1.3059714E-3,-1.0547866E-3,-8.8984513E-4,-6.4568035E-4,6.598677E-5,-9.4356836E-4,-1.048074E-3,-3.9556334E-4,-8.658527E-5,5.9953047E-4,-3.597311E-4,-1.34084E-3,2.4770927E-3,5.0449435E-4,2.927498E-3,6.193116E-3,-4.889394E-4,2.8623766E-3,1.8020326E-4,1.8311619E-3,1.3558766E-3,-8.222114E-5,6.238053E-4,2.9044324E-3,3.8786286E-3,1.3099249E-3,4.959753E-3,3.163014E-3,6.4839334E-3,3.4912252E-3,8.968415E-3,6.8734256E-3,3.1005067E-3,6.143522E-3,8.034305E-3,1.8823032E-3,7.376473E-3,1.0974201E-2,1.35244625E-2,1.7985076E-2,6.226774E-3,9.544965E-3,1.0376144E-2,1.7361334E-2],"categories":[],"categories_nodes":[],"categories_segments":[],"categories_sizes":[],"default_left":[0,0,0,0,0,0,0,0,0,0,0,0,0,0,0,0,0,0,0,0,0,0,0,0,0,0,0,0,0,0,0,0,0,0,0,0,0,0,0,0,0,0,0,0,0,0,0,0,0,0,0,0,0,0,0,0,0,0,0,0,0,0,0,0,0,0,0,0,0,0,0,0,0,0,0,0,0,0,0,0,0,0,0,0,0,0,0,0,0,0,0,0,0,0,0,0,0,0,0],"id":5,"left_children":[1,3,5,7,9,11,13,15,17,19,21,23,25,-1,-1,27,29,31,33,35,37,39,41,43,45,47,49,51,53,55,57,59,61,63,65,67,69,71,73,75,77,79,81,83,85,87,89,91,93,95,97,-1,-1,-1,-1,-1,-1,-1,-1,-1,-1,-1,-1,-1,-1,-1,-1,-1,-1,-1,-1,-1,-1,-1,-1,-1,-1,-1,-1,-1,-1,-1,-1,-1,-1,-1,-1,-1,-1,-1,-1,-1,-1,-1,-1,-1,-1,-1,-1],"loss_changes":[3.0804029E0,5.3400576E-1,6.8448687E-1,1.1573267E-1,5.5485338E-2,2.7648664E-1,2.3441672E-2,1.0123819E-2,1.2071308E-2,1.9107804E-2,2.0735115E-2,2.1449924E-2,2.9253721E-2,0E0,0E0,4.9465895E-4,1.5087724E-3,3.9057368E-3,8.8794455E-3,5.747013E-3,1.6682133E-2,4.094598E-3,1.069507E-2,3.0160904E-2,1.6215727E-2,2.7639031E-2,4.1401803E-2,1.526475E-4,1.8541142E-4,1.7635897E-4,1.1641346E-3,1.384905E-3,3.3529988E-3,8.182788E-3,6.2626647E-4,2.0003305E-3,4.464954E-3,2.0281365E-2,1.5399508E-2,1.2476014E-3,2.0553954E-3,3.3027194E-3,9.772703E-3,7.5611845E-3,8.221269E-3,3.5624132E-3,7.1252733E-3,2.4000555E-3,2.4761796E-2,5.7854354E-3,2.387458E-2,0E0,0E0,0E0,0E0,0E0,0E0,0E0,0E0,0E0,0E0,0E0,0E0,0E0,0E0,0E0,0E0,0E0,0E0,0E0,0E0,0E0,0E0,0E0,0E0,0E0,0E0,0E0,0E0,0E0,0E0,0E0,0E0,0E0,0E0,0E0,0E0,0E0,0E0,0E0,0E0,0E0,0E0,0E0,0E0,0E0,0E0,0E0,0E0],"parents":[2147483647,0,0,1,1,2,2,3,3,4,4,5,5,6,6,7,7,8,8,9,9,10,10,11,11,12,12,15,15,16,16,17,17,18,18,19,19,20,20,21,21,22,22,23,23,24,24,25,25,26,26,27,27,28,28,29,29,30,30,31,31,32,32,33,33,34,34,35,35,36,36,37,37,38,38,39,39,40,40,41,41,42,42,43,43,44,44,45,45,46,46,47,47,48,48,49,49,50,50],"right_children":[2,4,6,8,10,12,14,16,18,20,22,24,26,-1,-1,28,30,32,34,36,38,40,42,44,46,48,50,52,54,56,58,60,62,64,66,68,70,72,74,76,78,80,82,84,86,88,90,92,94,96,98,-1,-1,-1,-1,-1,-1,-1,-1,-1,-1,-1,-1,-1,-1,-1,-1,-1,-1,-1,-1,-1,-1,-1,-1,-1,-1,-1,-1,-1,-1,-1,-1,-1,-1,-1,-1,-1,-1,-1,-1,-1,-1,-1,-1,-1,-1,-1,-1],"split_conditions":[1.208549E-1,3.7134748E-2,6.028012E-2,1.30238775E-2,7.36016E-2,2.0299438E-1,3.3333334E-1,3.6622698E-3,2.2418879E-2,1.8612774E-1,1.8013972E-1,8.695652E-2,8.695652E-2,5.7345364E-2,3.6909822E-2,3.6245987E-2,1.4492754E-2,2.942619E-3,1E0,4.022931E-2,3.2425856E-3,8.704848E-2,1.4492754E-2,1.4492754E-2,5.652174E-1,1.5517406E-2,5.652174E-1,5.735294E-1,8.032608E-1,7.8031947E-3,7.993231E-1,1E0,1.4492754E-2,4.9043647E-3,6.6417225E-2,1.692873E-3,9.563887E-1,7.1428573E-1,1.4492754E-2,3.8822356E-1,1.4492754E-2,1E0,4.4927537E-1,1E0,9.673941E-1,1.8070908E-1,1.5872922E-2,1.4492754E-2,2.8985508E-2,1.9871872E-2,1.9871872E-2,-1.2456162E-3,-1.1905148E-3,-1.1784753E-3,-1.039965E-3,-1.3059714E-3,-1.0547866E-3,-8.8984513E-4,-6.4568035E-4,6.598677E-5,-9.4356836E-4,-1.048074E-3,-3.9556334E-4,-8.658527E-5,5.9953047E-4,-3.597311E-4,-1.34084E-3,2.4770927E-3,5.0449435E-4,2.927498E-3,6.193116E-3,-4.889394E-4,2.8623766E-3,1.8020326E-4,1.8311619E-3,1.3558766E-3,-8.222114E-5,6.238053E-4,2.9044324E-3,3.8786286E-3,1.3099249E-3,4.959753E-3,3.163014E-3,6.4839334E-3,3.4912252E-3,8.968415E-3,6.8734256E-3,3.1005067E-3,6.143522E-3,8.034305E-3,1.8823032E-3,7.376473E-3,1.0974201E-2,1.35244625E-2,1.7985076E-2,6.226774E-3,9.544965E-3,1.0376144E-2,1.7361334E-2],"split_indices":[0,0,2,0,0,0,3,0,0,31,10,26,26,0,0,32,26,23,31,0,2,0,26,26,26,2,26,27,8,0,8,31,26,23,33,2,8,30,26,31,26,11,26,11,34,0,2,26,26,2,2,0,0,0,0,0,0,0,0,0,0,0,0,0,0,0,0,0,0,0,0,0,0,0,0,0,0,0,0,0,0,0,0,0,0,0,0,0,0,0,0,0,0,0,0,0,0,0,0],"split_type":[0,0,0,0,0,0,0,0,0,0,0,0,0,0,0,0,0,0,0,0,0,0,0,0,0,0,0,0,0,0,0,0,0,0,0,0,0,0,0,0,0,0,0,0,0,0,0,0,0,0,0,0,0,0,0,0,0,0,0,0,0,0,0,0,0,0,0,0,0,0,0,0,0,0,0,0,0,0,0,0,0,0,0,0,0,0,0,0,0,0,0,0,0,0,0,0,0,0,0],"sum_hessian":[5.906E4,5.6292E4,2.768E3,4.9143E4,7.149E3,2.728E3,4E1,3.485E4,1.4293E4,5.297E3,1.852E3,1.616E3,1.112E3,2E1,2E1,2.6535E4,8.315E3,7.61E3,6.683E3,8.92E2,4.405E3,4.42E2,1.41E3,1.161E3,4.55E2,7.11E2,4.01E2,2.28E4,3.735E3,1.19E3,7.125E3,1.969E3,5.641E3,6.276E3,4.07E2,1.95E2,6.97E2,1.048E3,3.357E3,2.16E2,2.26E2,2.27E2,1.183E3,3.16E2,8.45E2,2.91E2,1.64E2,1.55E2,5.56E2,2.11E2,1.9E2,1.5335E4,7.465E3,1.825E3,1.91E3,4.2E2,7.7E2,3.88E3,3.245E3,1.839E3,1.3E2,8.31E2,4.81E3,2.962E3,3.314E3,7.2E1,3.35E2,7.5E1,1.2E2,6.57E2,4E1,8.48E2,2E2,6.25E2,2.732E3,1.06E2,1.1E2,4.5E1,1.81E2,6.2E1,1.65E2,7.38E2,4.45E2,1.41E2,1.75E2,5.75E2,2.7E2,2.5E2,4.1E1,1.44E2,2E1,3E1,1.25E2,3.73E2,1.83E2,1.16E2,9.5E1,9.5E1,9.5E1],"tree_param":{"num_deleted":"0","num_feature":"37","num_nodes":"99","size_leaf_vector":"1"}},{"base_weights":[2.1798458E-5,-1.1033185E-3,2.2895107E-2,-1.8514723E-3,5.1728226E-3,2.150377E-2,1.1494533E-1,-2.519144E-3,1.7801822E-4,4.618098E-3,1.1950351E-2,1.4378941E-2,2.8792355E-2,4.0960964E-2,2.636416E-2,-2.7700919E-3,-1.5925507E-3,-1.713204E-4,3.2921636E-3,3.637257E-3,7.939826E-3,7.6861624E-3,1.4186134E-2,1.3118915E-2,2.093899E-2,1.0922906E-2,3.060982E-2,-2.8586085E-3,-2.3617377E-3,-1.9945586E-3,-9.6850935E-4,-4.1213277E-4,3.8958357E-3,9.105947E-3,2.781364E-3,1.9616004E-4,4.317721E-3,4.571574E-3,9.411586E-3,3.8754498E-3,5.885402E-3,1.947789E-2,1.2302154E-2,1.8763246E-2,1.19259525E-2,9.168099E-3,2.7615372E-3,7.7584046E-3,1.5424457E-2,2.4930606E-2,3.3309236E-2,-8.8447647E-4,-8.344781E-4,1.3167141E-5,-7.223732E-4,-3.021261E-4,-6.952697E-4,-1.6822702E-4,-5.4517464E-4,-6.521516E-5,-1.0110046E-3,1.469918E-4,1.5648946E-3,3.411677E-3,2.4632448E-3,5.4207054E-4,1.4394149E-3,-3.1256131E-4,1.957011E-3,7.331775E-4,1.6728003E-3,6.500903E-4,1.7793722E-3,2.6990112E-3,6.7982865E-3,5.167821E-4,3.0210214E-3,4.4094212E-3,8.431364E-3,2.94917E-3,4.5424085E-3,4.7129504E-3,6.405477E-3,2.8474617E-3,5.027289E-3,2.9277601E-3,1.0606104E-3,5.4096123E-3,3.6670878E-3,5.3349147E-3,1.0153572E-2,7.761271E-3,1.0745754E-2],"categories":[],"categories_nodes":[],"categories_segments":[],"categories_sizes":[],"default_left":[0,0,0,0,0,0,0,0,0,0,0,0,0,0,0,0,0,0,0,0,0,0,0,0,0,0,0,0,0,0,0,0,0,0,0,0,0,0,0,0,0,0,0,0,0,0,0,0,0,0,0,0,0,0,0,0,0,0,0,0,0,0,0,0,0,0,0,0,0,0,0,0,0,0,0,0,0,0,0,0,0,0,0,0,0,0,0,0,0,0,0,0,0],"id":6,"left_children":[1,3,5,7,9,11,13,15,17,19,21,23,25,-1,-1,27,29,31,33,35,37,39,41,43,45,47,49,51,53,55,57,59,61,63,65,67,69,71,73,75,-1,77,79,81,83,-1,-1,85,87,89,91,-1,-1,-1,-1,-1,-1,-1,-1,-1,-1,-1,-1,-1,-1,-1,-1,-1,-1,-1,-1,-1,-1,-1,-1,-1,-1,-1,-1,-1,-1,-1,-1,-1,-1,-1,-1,-1,-1,-1,-1,-1,-1],"loss_changes":[1.5199689E0,2.6433444E-1,3.5216177E-1,6.815593E-2,2.248776E-2,1.4130282E-1,1.195997E-2,8.796021E-3,1.35469865E-2,1.8033952E-2,4.2097718E-3,1.1148691E-2,4.3444753E-2,0E0,0E0,1.0696799E-3,2.0220838E-3,1.0968189E-2,3.7045889E-3,1.0025647E-2,6.217994E-3,7.1080457E-3,2.7113706E-3,7.600516E-3,2.4668582E-2,1.675223E-3,1.7918944E-2,1.6073883E-4,5.900245E-4,1.5624836E-3,1.0936181E-3,6.0892096E-3,2.812799E-3,1.115175E-4,2.2630831E-3,5.5527603E-3,8.415356E-3,1.2491606E-3,4.622437E-3,1.5963147E-3,0E0,2.7206913E-3,1.4019832E-3,1.253128E-3,1.1156291E-2,0E0,0E0,6.076549E-4,2.0525139E-4,2.4757832E-2,1.4494538E-2,0E0,0E0,0E0,0E0,0E0,0E0,0E0,0E0,0E0,0E0,0E0,0E0,0E0,0E0,0E0,0E0,0E0,0E0,0E0,0E0,0E0,0E0,0E0,0E0,0E0,0E0,0E0,0E0,0E0,0E0,0E0,0E0,0E0,0E0,0E0,0E0,0E0,0E0,0E0,0E0,0E0,0E0],"parents":[2147483647,0,0,1,1,2,2,3,3,4,4,5,5,6,6,7,7,8,8,9,9,10,10,11,11,12,12,15,15,16,16,17,17,18,18,19,19,20,20,21,21,22,22,23,23,24,24,25,25,26,26,27,27,28,28,29,29,30,30,31,31,32,32,33,33,34,34,35,35,36,36,37,37,38,38,39,39,41,41,42,42,43,43,44,44,47,47,48,48,49,49,50,50],"right_children":[2,4,6,8,10,12,14,16,18,20,22,24,26,-1,-1,28,30,32,34,36,38,40,42,44,46,48,50,52,54,56,58,60,62,64,66,68,70,72,74,76,-1,78,80,82,84,-1,-1,86,88,90,92,-1,-1,-1,-1,-1,-1,-1,-1,-1,-1,-1,-1,-1,-1,-1,-1,-1,-1,-1,-1,-1,-1,-1,-1,-1,-1,-1,-1,-1,-1,-1,-1,-1,-1,-1,-1,-1,-1,-1,-1,-1,-1],"split_conditions":[1.208549E-1,4.022931E-2,6.028012E-2,1.663049E-2,9.615404E-1,1.8070908E-1,3.3333334E-1,7.8031947E-3,9.578987E-1,8.409862E-2,6.59912E-2,7.1428573E-1,1.1822672E-2,4.0960964E-2,2.636416E-2,2.2374352E-3,8.032608E-1,6.866111E-3,9.598232E-1,1.8013972E-1,1.8013972E-1,3.5714287E-1,2.8985508E-2,1.8013972E-1,1.3239961E-2,5.735294E-1,2.2205588E-1,3.4507707E-4,5.882353E-2,6.3492066E-1,7.1428573E-1,1E0,2.8985508E-2,2.8985508E-2,1.5973134E-2,7.1428573E-1,1.2550075E-1,1.3553184E-1,1.1642528E-2,5.735294E-1,5.885402E-3,8.409862E-2,5.735294E-1,1.3239961E-2,1E0,9.168099E-3,2.7615372E-3,2.8985508E-2,8.695652E-2,1.9871872E-2,1.4492754E-2,-8.8447647E-4,-8.344781E-4,1.3167141E-5,-7.223732E-4,-3.021261E-4,-6.952697E-4,-1.6822702E-4,-5.4517464E-4,-6.521516E-5,-1.0110046E-3,1.469918E-4,1.5648946E-3,3.411677E-3,2.4632448E-3,5.4207054E-4,1.4394149E-3,-3.1256131E-4,1.957011E-3,7.331775E-4,1.6728003E-3,6.500903E-4,1.7793722E-3,2.6990112E-3,6.7982865E-3,5.167821E-4,3.0210214E-3,4.4094212E-3,8.431364E-3,2.94917E-3,4.5424085E-3,4.7129504E-3,6.405477E-3,2.8474617E-3,5.027289E-3,2.9277601E-3,1.0606104E-3,5.4096123E-3,3.6670878E-3,5.3349147E-3,1.0153572E-2,7.761271E-3,1.0745754E-2],"split_indices":[0,0,2,0,8,0,3,0,8,0,33,30,2,0,0,0,8,23,8,10,10,30,26,31,2,27,31,0,27,35,9,31,26,26,2,30,32,8,2,27,0,0,27,2,28,0,0,26,26,2,26,0,0,0,0,0,0,0,0,0,0,0,0,0,0,0,0,0,0,0,0,0,0,0,0,0,0,0,0,0,0,0,0,0,0,0,0,0,0,0,0,0,0],"split_type":[0,0,0,0,0,0,0,0,0,0,0,0,0,0,0,0,0,0,0,0,0,0,0,0,0,0,0,0,0,0,0,0,0,0,0,0,0,0,0,0,0,0,0,0,0,0,0,0,0,0,0,0,0,0,0,0,0,0,0,0,0,0,0,0,0,0,0,0,0,0,0,0,0,0,0,0,0,0,0,0,0,0,0,0,0,0,0,0,0,0,0,0,0],"sum_hessian":[5.906E4,5.6292E4,2.768E3,5.0297E4,5.995E3,2.728E3,4E1,3.7846E4,1.2451E4,5.543E3,4.52E2,1.381E3,1.347E3,2E1,2E1,2.9779E4,8.067E3,1.1196E4,1.255E3,4.281E3,1.262E3,1.57E2,2.95E2,1.161E3,2.2E2,1.25E2,1.222E3,2.4469E4,5.31E3,4.905E3,3.162E3,1.0571E4,6.25E2,1E2,1.155E3,7.07E2,3.574E3,3.85E2,8.77E2,1.2E2,3.7E1,7.5E1,2.2E2,2E2,9.61E2,1.2E2,1E2,7.5E1,5E1,3.97E2,8.25E2,1.129E4,1.3179E4,1E2,5.21E3,1.21E3,3.695E3,2.137E3,1.025E3,9.919E3,6.52E2,1.75E2,4.5E2,2.5E1,7.5E1,7.8E2,3.75E2,5.92E2,1.15E2,1.437E3,2.137E3,1.4E2,2.45E2,8.52E2,2.5E1,9E1,3E1,5E1,2.5E1,1.2E2,1E2,9.5E1,1.05E2,6.41E2,3.2E2,5E1,2.5E1,2.5E1,2.5E1,2.22E2,1.75E2,2.11E2,6.14E2],"tree_param":{"num_deleted":"0","num_feature":"37","num_nodes":"93","size_leaf_vector":"1"}},{"base_weights":[1.8567105E-5,-7.7143323E-4,1.6079048E-2,-1.2959442E-3,3.6286034E-3,1.5081212E-2,8.210381E-2,-1.7597962E-3,1.4474933E-4,5.5388263E-3,2.5452957E-3,1.0087632E-2,2.0189555E-2,2.925783E-2,1.8831547E-2,-1.9490885E-3,-1.1448747E-3,2.302613E-3,-1.2715363E-4,4.663608E-3,9.880371E-3,-2.4915845E-4,3.6155165E-3,1.1369177E-2,6.538649E-3,7.749723E-3,2.1454666E-2,-1.985321E-3,-1.454921E-3,-7.069564E-5,-1.327215E-3,1.7503804E-3,5.5083944E-3,-3.6398633E-4,1.9663398E-3,1.0214227E-2,3.819206E-3,1.6849581E-2,4.1795676E-3,-1.0456081E-3,4.377973E-3,2.4454424E-3,6.161079E-3,7.0077768E-3,1.2966551E-2,3.9765206E-3,1.1887856E-2,5.4833577E-3,1.0975095E-2,2.3964696E-2,1.6917473E-2,-6.483903E-4,-5.8470387E-4,-3.9929533E-4,-6.760926E-4,-2.7032392E-4,1.4767767E-4,-6.5445184E-4,-3.367653E-4,-9.8008E-5,7.1195205E-4,2.1864318E-3,1.1022436E-3,-1.812953E-4,4.709018E-4,1.9296993E-3,4.5480308E-4,-7.845182E-5,3.4335004E-3,9.520422E-4,2.959909E-3,1.5955876E-3,5.394697E-3,6.8090006E-4,1.5895201E-3,-6.462641E-4,3.4055044E-4,2.243318E-3,-3.872496E-4,3.7944101E-4,1.3378954E-3,2.849223E-3,1.6527354E-3,2.6010135E-3,1.2224048E-3,7.712652E-3,3.7457198E-3,9.738588E-5,1.9178545E-3,4.1742087E-3,5.309422E-4,2.0666525E-3,7.546645E-4,3.8491471E-3,2.6092746E-3,7.497105E-3,3.4145114E-3,3.5542666E-3,6.6870674E-3],"categories":[],"categories_nodes":[],"categories_segments":[],"categories_sizes":[],"default_left":[0,0,0,0,0,0,0,0,0,0,0,0,0,0,0,0,0,0,0,0,0,0,0,0,0,0,0,0,0,0,0,0,0,0,0,0,0,0,0,0,0,0,0,0,0,0,0,0,0,0,0,0,0,0,0,0,0,0,0,0,0,0,0,0,0,0,0,0,0,0,0,0,0,0,0,0,0,0,0,0,0,0,0,0,0,0,0,0,0,0,0,0,0,0,0,0,0,0,0],"id":7,"left_children":[1,3,5,7,9,11,13,15,17,19,21,23,25,-1,-1,27,29,31,33,35,37,39,41,43,45,47,49,51,53,55,57,59,61,63,65,67,69,71,73,75,77,79,81,83,85,87,89,91,93,95,97,-1,-1,-1,-1,-1,-1,-1,-1,-1,-1,-1,-1,-1,-1,-1,-1,-1,-1,-1,-1,-1,-1,-1,-1,-1,-1,-1,-1,-1,-1,-1,-1,-1,-1,-1,-1,-1,-1,-1,-1,-1,-1,-1,-1,-1,-1,-1,-1],"loss_changes":[7.493657E-1,1.2992147E-1,1.811887E-1,3.3612825E-2,1.239378E-2,6.9410205E-2,6.1019957E-3,4.4265613E-3,7.188317E-3,8.195683E-3,1.1449233E-2,6.211251E-3,2.1048248E-2,0E0,0E0,5.179867E-4,1.7544748E-3,2.4174908E-3,5.395599E-3,8.430317E-3,1.4351603E-2,3.9146566E-3,8.229412E-3,6.9734603E-3,5.010005E-3,8.6086337E-4,1.3522685E-2,1.6894192E-4,1.9409135E-4,6.0862E-4,1.3364963E-3,1.5155659E-3,6.293738E-4,4.54404E-3,2.2145994E-3,3.0715894E-3,6.099295E-3,2.0333976E-3,4.1748374E-4,2.1928092E-3,2.7508684E-3,4.507905E-3,1.8422455E-3,1.3005836E-3,4.218921E-3,2.2127964E-3,2.4149846E-3,2.996826E-4,1.0391604E-4,9.846628E-3,1.1694014E-2,0E0,0E0,0E0,0E0,0E0,0E0,0E0,0E0,0E0,0E0,0E0,0E0,0E0,0E0,0E0,0E0,0E0,0E0,0E0,0E0,0E0,0E0,0E0,0E0,0E0,0E0,0E0,0E0,0E0,0E0,0E0,0E0,0E0,0E0,0E0,0E0,0E0,0E0,0E0,0E0,0E0,0E0,0E0,0E0,0E0,0E0,0E0,0E0],"parents":[2147483647,0,0,1,1,2,2,3,3,4,4,5,5,6,6,7,7,8,8,9,9,10,10,11,11,12,12,15,15,16,16,17,17,18,18,19,19,20,20,21,21,22,22,23,23,24,24,25,25,26,26,27,27,28,28,29,29,30,30,31,31,32,32,33,33,34,34,35,35,36,36,37,37,38,38,39,39,40,40,41,41,42,42,43,43,44,44,45,45,46,46,47,47,48,48,49,49,50,50],"right_children":[2,4,6,8,10,12,14,16,18,20,22,24,26,-1,-1,28,30,32,34,36,38,40,42,44,46,48,50,52,54,56,58,60,62,64,66,68,70,72,74,76,78,80,82,84,86,88,90,92,94,96,98,-1,-1,-1,-1,-1,-1,-1,-1,-1,-1,-1,-1,-1,-1,-1,-1,-1,-1,-1,-1,-1,-1,-1,-1,-1,-1,-1,-1,-1,-1,-1,-1,-1,-1,-1,-1,-1,-1,-1,-1,-1,-1,-1,-1,-1,-1,-1,-1],"split_conditions":[1.208549E-1,4.022931E-2,6.028012E-2,1.7031224E-2,3.923492E-3,1.8070908E-1,3.3333334E-1,7.458118E-3,1.8013972E-1,7.1428573E-1,1.2550075E-1,8.695652E-2,1.1822672E-2,2.925783E-2,1.8831547E-2,8.499744E-2,1.8013972E-1,6.866111E-3,9.578987E-1,1.8013972E-1,1E0,7.1428573E-1,6.4705884E-1,1.4492754E-2,5.652174E-1,5.735294E-1,8.695652E-2,1.4492754E-2,6E-1,7.425404E-1,2.2205588E-1,6.597222E-1,3.5676517E-2,9.810107E-1,9.598232E-1,4.9824677E-2,9.7021526E-1,1.8013972E-1,4.9824677E-2,5.735294E-1,1.7405931E-3,1E0,9.730539E-2,1.5517406E-2,5.882353E-2,1E0,1.5517406E-2,2.8985508E-2,8.695652E-2,3.038155E-1,5.652174E-1,-6.483903E-4,-5.8470387E-4,-3.9929533E-4,-6.760926E-4,-2.7032392E-4,1.4767767E-4,-6.5445184E-4,-3.367653E-4,-9.8008E-5,7.1195205E-4,2.1864318E-3,1.1022436E-3,-1.812953E-4,4.709018E-4,1.9296993E-3,4.5480308E-4,-7.845182E-5,3.4335004E-3,9.520422E-4,2.959909E-3,1.5955876E-3,5.394697E-3,6.8090006E-4,1.5895201E-3,-6.462641E-4,3.4055044E-4,2.243318E-3,-3.872496E-4,3.7944101E-4,1.3378954E-3,2.849223E-3,1.6527354E-3,2.6010135E-3,1.2224048E-3,7.712652E-3,3.7457198E-3,9.738588E-5,1.9178545E-3,4.1742087E-3,5.309422E-4,2.0666525E-3,7.546645E-4,3.8491471E-3,2.6092746E-3,7.497105E-3,3.4145114E-3,3.5542666E-3,6.6870674E-3],"split_indices":[0,0,2,0,23,0,3,0,31,30,32,26,2,0,0,33,31,23,8,31,11,30,27,26,26,27,26,26,3,34,31,35,0,34,8,0,8,10,0,27,2,28,31,2,5,11,2,26,26,33,26,0,0,0,0,0,0,0,0,0,0,0,0,0,0,0,0,0,0,0,0,0,0,0,0,0,0,0,0,0,0,0,0,0,0,0,0,0,0,0,0,0,0,0,0,0,0,0,0],"split_type":[0,0,0,0,0,0,0,0,0,0,0,0,0,0,0,0,0,0,0,0,0,0,0,0,0,0,0,0,0,0,0,0,0,0,0,0,0,0,0,0,0,0,0,0,0,0,0,0,0,0,0,0,0,0,0,0,0,0,0,0,0,0,0,0,0,0,0,0,0,0,0,0,0,0,0,0,0,0,0,0,0,0,0,0,0,0,0,0,0,0,0,0,0,0,0,0,0,0,0],"sum_hessian":[5.906E4,5.6292E4,2.768E3,5.0297E4,5.995E3,2.728E3,4E1,3.8047E4,1.225E4,2.168E3,3.827E3,1.381E3,1.347E3,2E1,2E1,2.909E4,8.957E3,1.37E3,1.088E4,1.806E3,3.62E2,1.06E3,2.767E3,1.013E3,3.68E2,1.25E2,1.222E3,2.71E4,1.99E3,1.3E3,7.657E3,1.17E3,2E2,9.775E3,1.105E3,2.37E2,1.569E3,1.62E2,2E2,9.05E2,1.55E2,1.897E3,8.7E2,2.73E2,7.4E2,2.5E2,1.18E2,7.5E1,5E1,7.84E2,4.38E2,4.625E3,2.2475E4,1.725E3,2.65E2,5.25E2,7.75E2,1.478E3,6.179E3,2.7E2,9E2,1E2,1E2,8.695E3,1.08E3,1E2,1.005E3,2.5E1,2.12E2,1.419E3,1.5E2,1.5E1,1.47E2,7.5E1,1.25E2,6E2,3.05E2,1E2,5.5E1,1.197E3,7E2,1.4E2,7.3E2,1.73E2,1E2,2.5E1,7.15E2,1E2,1.5E2,9.8E1,2E1,5E1,2.5E1,2.5E1,2.5E1,7.24E2,6E1,2.27E2,2.11E2],"tree_param":{"num_deleted":"0","num_feature":"37","num_nodes":"99","size_leaf_vector":"1"}},{"base_weights":[1.5163817E-5,-5.395157E-4,1.1291638E-2,-1.0286967E-3,1.8774341E-3,1.0576064E-2,5.8645576E-2,-1.3276844E-3,-3.4898383E-4,1.2414594E-3,3.6089467E-3,7.077264E-3,1.4155266E-2,2.089845E-2,1.3451103E-2,6.118772E-4,-1.3381988E-3,-2.13987E-3,-1.491189E-4,3.9562504E-3,8.84129E-4,5.369489E-4,4.134601E-3,6.32844E-3,1.0982498E-2,8.35419E-3,1.5967734E-2,6.796208E-4,4.986202E-4,-1.408386E-3,-1.1355942E-3,-1.6916047E-3,-3.054699E-3,-1.3831552E-3,5.8452893E-5,3.2291848E-3,9.29987E-3,1.5056368E-3,-4.5196037E-4,3.5570743E-3,-6.129031E-4,2.2615169E-3,4.8758807E-3,5.2804733E-3,9.081277E-3,5.3259693E-3,8.286867E-4,1.1260315E-2,5.893429E-3,1.5017561E-2,2.6444469E-2,6.063662E-5,2.5412312E-4,-4.507778E-4,-4.0997504E-4,-5.226015E-4,-3.0876923E-4,-3.954201E-4,-1.0082375E-3,-1.0562717E-3,-7.6011557E-4,7.351747E-4,-4.9643125E-4,1.8718434E-4,-2.5335402E-4,1.2297472E-3,3.0041958E-4,3.0137075E-3,2.0716544E-3,-1.6193427E-4,6.6806027E-4,-5.0351874E-4,3.2384443E-4,5.765408E-4,1.9641342E-3,-9.432982E-4,-7.7864825E-6,-1.4274304E-3,8.3448744E-4,2.6364513E-3,1.2776895E-3,1.0835866E-3,2.396313E-3,2.4894876E-3,3.9679E-3,6.836935E-3,2.873193E-3,2.6859725E-3,1.4804102E-3,6.6204336E-3,4.2034998E-3,9.029177E-3,2.7117133E-3],"categories":[],"categories_nodes":[],"categories_segments":[],"categories_sizes":[],"default_left":[0,0,0,0,0,0,0,0,0,0,0,0,0,0,0,0,0,0,0,0,0,0,0,0,0,0,0,0,0,0,0,0,0,0,0,0,0,0,0,0,0,0,0,0,0,0,0,0,0,0,0,0,0,0,0,0,0,0,0,0,0,0,0,0,0,0,0,0,0,0,0,0,0,0,0,0,0,0,0,0,0,0,0,0,0,0,0,0,0,0,0,0,0],"id":8,"left_children":[1,3,5,7,9,11,13,15,17,19,21,23,25,-1,-1,27,29,31,33,35,37,39,41,43,45,47,49,-1,51,53,55,57,59,61,63,65,67,69,71,73,75,77,79,81,83,-1,-1,85,87,89,91,-1,-1,-1,-1,-1,-1,-1,-1,-1,-1,-1,-1,-1,-1,-1,-1,-1,-1,-1,-1,-1,-1,-1,-1,-1,-1,-1,-1,-1,-1,-1,-1,-1,-1,-1,-1,-1,-1,-1,-1,-1,-1],"loss_changes":[3.6942255E-1,6.655861E-2,9.3208104E-2,9.51416E-3,1.0430478E-2,3.4074873E-2,3.1132698E-3,6.6390634E-4,5.1195878E-3,6.7210784E-3,4.107468E-3,3.971927E-3,1.4039844E-2,0E0,0E0,3.1830517E-5,4.582852E-4,5.8371667E-4,3.2964898E-3,3.1014085E-3,5.08848E-3,1.2974963E-3,3.006138E-3,3.304284E-3,1.2251118E-2,2.2435002E-3,9.816408E-3,0E0,1.6979375E-5,9.252131E-5,5.3523295E-4,5.9787557E-4,1.0547787E-4,1.9335893E-3,5.626058E-3,1.3738931E-3,1.0206271E-4,6.1705643E-3,3.656817E-3,4.910388E-4,4.025742E-4,2.2695274E-3,3.7180595E-3,3.7835576E-3,9.2556514E-4,0E0,0E0,2.6341472E-3,4.7505228E-4,6.3786656E-3,5.0685294E-3,0E0,0E0,0E0,0E0,0E0,0E0,0E0,0E0,0E0,0E0,0E0,0E0,0E0,0E0,0E0,0E0,0E0,0E0,0E0,0E0,0E0,0E0,0E0,0E0,0E0,0E0,0E0,0E0,0E0,0E0,0E0,0E0,0E0,0E0,0E0,0E0,0E0,0E0,0E0,0E0,0E0,0E0],"parents":[2147483647,0,0,1,1,2,2,3,3,4,4,5,5,6,6,7,7,8,8,9,9,10,10,11,11,12,12,15,15,16,16,17,17,18,18,19,19,20,20,21,21,22,22,23,23,24,24,25,25,26,26,28,28,29,29,30,30,31,31,32,32,33,33,34,34,35,35,36,36,37,37,38,38,39,39,40,40,41,41,42,42,43,43,44,44,47,47,48,48,49,49,50,50],"right_children":[2,4,6,8,10,12,14,16,18,20,22,24,26,-1,-1,28,30,32,34,36,38,40,42,44,46,48,50,-1,52,54,56,58,60,62,64,66,68,70,72,74,76,78,80,82,84,-1,-1,86,88,90,92,-1,-1,-1,-1,-1,-1,-1,-1,-1,-1,-1,-1,-1,-1,-1,-1,-1,-1,-1,-1,-1,-1,-1,-1,-1,-1,-1,-1,-1,-1,-1,-1,-1,-1,-1,-1,-1,-1,-1,-1,-1,-1],"split_conditions":[1.208549E-1,3.0433573E-2,6.028012E-2,9.695553E-3,6.7679636E-2,1.8070908E-1,3.3333334E-1,5.882353E-2,1.8013972E-1,7.29927E-3,1.4492754E-2,7.1428573E-1,1.0355677E-1,2.089845E-2,1.3451103E-2,5.6993375E-3,2.1817777E-3,1.8122112E-2,1.4492754E-2,2.087742E-2,9.42029E-2,1E0,1.8612774E-1,5.735294E-1,1.3239961E-2,2.189781E-2,7.1428573E-1,6.796208E-4,7.8031947E-3,1.781043E-4,1.4492754E-2,6.866111E-3,9.748011E-1,2.857143E-1,9.42029E-2,5.885238E-3,8.695652E-2,1.4492754E-2,5.652174E-1,4E-1,2.087742E-2,5.8337906E-3,2.2205588E-1,1E0,1E0,5.3259693E-3,8.286867E-4,2.0299438E-1,1.8013972E-1,1.8013972E-1,1.9871872E-2,6.063662E-5,2.5412312E-4,-4.507778E-4,-4.0997504E-4,-5.226015E-4,-3.0876923E-4,-3.954201E-4,-1.0082375E-3,-1.0562717E-3,-7.6011557E-4,7.351747E-4,-4.9643125E-4,1.8718434E-4,-2.5335402E-4,1.2297472E-3,3.0041958E-4,3.0137075E-3,2.0716544E-3,-1.6193427E-4,6.6806027E-4,-5.0351874E-4,3.2384443E-4,5.765408E-4,1.9641342E-3,-9.432982E-4,-7.7864825E-6,-1.4274304E-3,8.3448744E-4,2.6364513E-3,1.2776895E-3,1.0835866E-3,2.396313E-3,2.4894876E-3,3.9679E-3,6.836935E-3,2.873193E-3,2.6859725E-3,1.4804102E-3,6.6204336E-3,4.2034998E-3,9.029177E-3,2.7117133E-3],"split_indices":[0,0,2,0,0,0,3,27,10,4,26,30,32,0,0,0,0,0,26,24,26,11,10,27,2,4,30,0,0,0,26,23,34,30,26,23,26,26,26,3,24,2,10,28,3,0,0,0,31,31,2,0,0,0,0,0,0,0,0,0,0,0,0,0,0,0,0,0,0,0,0,0,0,0,0,0,0,0,0,0,0,0,0,0,0,0,0,0,0,0,0,0,0],"split_type":[0,0,0,0,0,0,0,0,0,0,0,0,0,0,0,0,0,0,0,0,0,0,0,0,0,0,0,0,0,0,0,0,0,0,0,0,0,0,0,0,0,0,0,0,0,0,0,0,0,0,0,0,0,0,0,0,0,0,0,0,0,0,0,0,0,0,0,0,0,0,0,0,0,0,0,0,0,0,0,0,0,0,0,0,0,0,0,0,0,0,0,0,0],"sum_hessian":[5.906E4,5.6292E4,2.768E3,4.6817E4,9.475E3,2.728E3,4E1,3.2514E4,1.4303E4,6.931E3,2.544E3,1.381E3,1.347E3,2E1,2E1,1.75E2,3.2339E4,1.435E3,1.2868E4,8.05E2,6.126E3,3.72E2,2.172E3,1.161E3,2.2E2,3.22E2,1.025E3,1E1,1.65E2,2.4014E4,8.325E3,9.65E2,4.7E2,1.852E3,1.1016E4,7.1E2,9.5E1,4.181E3,1.945E3,1.02E2,2.7E2,6.17E2,1.555E3,8.43E2,3.18E2,1.2E2,1E2,1.46E2,1.76E2,9.42E2,8.3E1,9E1,7.5E1,7.37E3,1.6644E4,1.24E3,7.085E3,7.9E2,1.75E2,2.45E2,2.25E2,1.22E2,1.73E3,6.774E3,4.242E3,5.1E2,2E2,7E1,2.5E1,1.09E3,3.091E3,1.08E3,8.65E2,6.7E1,3.5E1,5E1,2.2E2,4.2E1,5.75E2,2.1E2,1.345E3,5.23E2,3.2E2,2.7E2,4.8E1,1.7E1,1.29E2,4E1,1.36E2,1.15E2,8.27E2,6.8E1,1.5E1],"tree_param":{"num_deleted":"0","num_feature":"37","num_nodes":"93","size_leaf_vector":"1"}},{"base_weights":[1.2222806E-5,-4.280378E-4,7.0763375E-3,-8.4493565E-4,7.776835E-4,6.6575273E-3,4.1889694E-2,1.2674198E-3,-8.699549E-4,3.063537E-4,1.761745E-3,4.527759E-3,9.935719E-3,1.4927461E-2,9.6079325E-3,1.0086843E-3,9.4019744E-4,-8.4950443E-4,-3.038854E-3,4.2525134E-3,1.619388E-4,2.633838E-3,2.8268146E-4,5.432768E-3,2.361039E-3,9.256354E-3,1.7972969E-2,1.2446457E-3,-4.542082E-4,-8.9281535E-4,3.8848585E-4,-7.062918E-4,-3.707492E-3,2.8042027E-3,9.7206775E-3,1.0273176E-5,3.720282E-3,2.162588E-3,4.7313957E-3,-2.3382198E-4,2.0883514E-3,2.7944425E-3,6.390673E-3,1.8848327E-3,1.1902274E-2,6.4636753E-3,1.1400263E-2,1.9834153E-2,1.9490441E-3,1.3018915E-4,6.2298554E-4,-3.3428823E-4,2.5741354E-4,-2.7356544E-4,1.1173664E-4,-8.601161E-6,1.132796E-3,-7.958221E-4,-1.155108E-3,1.0340677E-3,4.485211E-4,1.6524037E-3,3.5671294E-3,8.16788E-5,-5.0442416E-4,2.5964382E-3,1.004834E-3,7.066244E-4,-2.0906498E-4,1.196965E-3,2.1669725E-3,-2.5566277E-4,2.711E-4,3.3661915E-4,1.1483835E-3,1.392479E-3,2.7708203E-4,3.5064563E-3,1.7041744E-3,2.609056E-4,1.2189811E-3,2.4530392E-3,9.94269E-3,6.089326E-3,1.1555692E-3,-3.1649726E-4,4.4427956E-3,4.321618E-3,6.3596806E-3],"categories":[],"categories_nodes":[],"categories_segments":[],"categories_sizes":[],"default_left":[0,0,0,0,0,0,0,0,0,0,0,0,0,0,0,0,0,0,0,0,0,0,0,0,0,0,0,0,0,0,0,0,0,0,0,0,0,0,0,0,0,0,0,0,0,0,0,0,0,0,0,0,0,0,0,0,0,0,0,0,0,0,0,0,0,0,0,0,0,0,0,0,0,0,0,0,0,0,0,0,0,0,0,0,0,0,0,0,0],"id":9,"left_children":[1,3,5,7,9,11,13,15,17,19,21,23,25,-1,-1,-1,27,29,31,33,35,37,39,41,43,45,47,49,51,53,55,-1,57,59,61,63,65,67,69,71,73,75,77,79,81,83,85,87,-1,-1,-1,-1,-1,-1,-1,-1,-1,-1,-1,-1,-1,-1,-1,-1,-1,-1,-1,-1,-1,-1,-1,-1,-1,-1,-1,-1,-1,-1,-1,-1,-1,-1,-1,-1,-1,-1,-1,-1,-1],"loss_changes":[1.8368576E-1,2.7947191E-2,5.024141E-2,2.1844748E-3,6.6250935E-3,2.3867652E-2,1.5883893E-3,3.2861368E-4,1.8084347E-3,5.5043926E-3,5.966246E-3,4.0619224E-3,7.1940124E-3,0E0,0E0,0E0,1.788655E-4,2.1692142E-3,1.6566087E-4,2.6733251E-3,5.029764E-3,2.8662272E-3,1.6018221E-3,3.6845878E-3,2.767333E-3,7.3804334E-3,2.092503E-3,2.3178931E-4,6.6787296E-5,9.433329E-4,1.9332534E-3,0E0,1.8568011E-5,2.2285688E-4,5.8347965E-4,3.9627035E-3,6.6820066E-4,1.3128277E-3,9.560231E-4,9.4052375E-4,6.3782686E-4,1.3503558E-3,3.9737E-3,1.292367E-3,2.0237495E-3,1.9541241E-2,2.9865466E-2,3.540255E-4,0E0,0E0,0E0,0E0,0E0,0E0,0E0,0E0,0E0,0E0,0E0,0E0,0E0,0E0,0E0,0E0,0E0,0E0,0E0,0E0,0E0,0E0,0E0,0E0,0E0,0E0,0E0,0E0,0E0,0E0,0E0,0E0,0E0,0E0,0E0,0E0,0E0,0E0,0E0,0E0,0E0],"parents":[2147483647,0,0,1,1,2,2,3,3,4,4,5,5,6,6,7,7,8,8,9,9,10,10,11,11,12,12,16,16,17,17,18,18,19,19,20,20,21,21,22,22,23,23,24,24,25,25,26,26,27,27,28,28,29,29,30,30,32,32,33,33,34,34,35,35,36,36,37,37,38,38,39,39,40,40,41,41,42,42,43,43,44,44,45,45,46,46,47,47],"right_children":[2,4,6,8,10,12,14,16,18,20,22,24,26,-1,-1,-1,28,30,32,34,36,38,40,42,44,46,48,50,52,54,56,-1,58,60,62,64,66,68,70,72,74,76,78,80,82,84,86,88,-1,-1,-1,-1,-1,-1,-1,-1,-1,-1,-1,-1,-1,-1,-1,-1,-1,-1,-1,-1,-1,-1,-1,-1,-1,-1,-1,-1,-1,-1,-1,-1,-1,-1,-1,-1,-1,-1,-1,-1,-1],"split_conditions":[9.5820114E-2,2.0648967E-2,6.028012E-2,5.882353E-2,8.55014E-1,1.8070908E-1,3.3333334E-1,5.0159514E-1,1E0,1.6949128E-1,7.1428573E-1,8.695652E-2,7.1428573E-1,1.4927461E-2,9.6079325E-3,1.0086843E-3,3.5428572E-1,2.4945241E-1,1.0586075E-2,7.1428573E-1,1E0,5.6815274E-2,6.213614E-2,1.4492754E-2,1E0,1.7803375E-1,1.9871872E-2,8.393166E-3,7.620943E-1,1E0,1E0,-7.062918E-4,6.3062203E-3,5.394334E-2,3.1045806E-2,3.801266E-1,9.730539E-2,9.861735E-1,2.2327075E-2,6.4705884E-1,5.735294E-1,1E0,3.9132033E-3,5.652174E-1,1.3948907E-1,1.4492754E-2,1.4492754E-2,2.3978405E-1,1.9490441E-3,1.3018915E-4,6.2298554E-4,-3.3428823E-4,2.5741354E-4,-2.7356544E-4,1.1173664E-4,-8.601161E-6,1.132796E-3,-7.958221E-4,-1.155108E-3,1.0340677E-3,4.485211E-4,1.6524037E-3,3.5671294E-3,8.16788E-5,-5.0442416E-4,2.5964382E-3,1.004834E-3,7.066244E-4,-2.0906498E-4,1.196965E-3,2.1669725E-3,-2.5566277E-4,2.711E-4,3.3661915E-4,1.1483835E-3,1.392479E-3,2.7708203E-4,3.5064563E-3,1.7041744E-3,2.609056E-4,1.2189811E-3,2.4530392E-3,9.94269E-3,6.089326E-3,1.1555692E-3,-3.1649726E-4,4.4427956E-3,4.321618E-3,6.3596806E-3],"split_indices":[0,0,2,27,8,0,3,34,31,34,9,26,30,0,0,0,30,2,0,30,10,0,0,26,3,34,2,0,34,10,28,0,2,0,0,33,31,8,2,27,27,14,36,26,0,26,26,0,0,0,0,0,0,0,0,0,0,0,0,0,0,0,0,0,0,0,0,0,0,0,0,0,0,0,0,0,0,0,0,0,0,0,0,0,0,0,0,0,0],"split_type":[0,0,0,0,0,0,0,0,0,0,0,0,0,0,0,0,0,0,0,0,0,0,0,0,0,0,0,0,0,0,0,0,0,0,0,0,0,0,0,0,0,0,0,0,0,0,0,0,0,0,0,0,0,0,0,0,0,0,0,0,0,0,0,0,0,0,0,0,0,0,0,0,0,0,0,0,0,0,0,0,0,0,0,0,0,0,0,0,0],"sum_hessian":[5.906E4,5.5596E4,3.464E3,4.1312E4,1.4284E4,3.424E3,4E1,4.83E2,4.0829E4,9.659E3,4.625E3,2.077E3,1.347E3,2E1,2E1,6.4E1,4.19E2,4.0449E4,3.8E2,3.4E2,9.319E3,2.909E3,1.716E3,1.464E3,6.13E2,1.244E3,1.03E2,3.44E2,7.5E1,3.9082E4,1.367E3,1.9E2,1.9E2,2.7E2,7E1,8.939E3,3.8E2,2.377E3,5.32E2,1.335E3,3.81E2,3.91E2,1.073E3,5.85E2,2.8E1,5.42E2,7.02E2,8.8E1,1.5E1,1.75E2,1.69E2,5E1,2.5E1,3.8502E4,5.8E2,1.218E3,1.49E2,2.5E1,1.65E2,1.8E2,9E1,2.5E1,4.5E1,7.741E3,1.198E3,2.5E1,3.55E2,2.227E3,1.5E2,4.12E2,1.2E2,8.65E2,4.7E2,2.46E2,1.35E2,1.96E2,1.95E2,1.25E2,9.48E2,4E2,1.85E2,2.5E1,3E0,8.5E1,4.57E2,1.51E2,5.51E2,2E1,6.8E1],"tree_param":{"num_deleted":"0","num_feature":"37","num_nodes":"89","size_leaf_vector":"1"}}]},"name":"gbtree"},"learner_model_param":{"base_score":"2.4778087E-2","boost_from_average":"1","num_class":"0","num_feature":"37","num_target":"1"},"objective":{"name":"reg:squarederror","reg_loss_param":{"scale_pos_weight":"1"}}},"version":[2,0,3]}