{"learner":{"attributes":{"best_iteration":"9","best_score":"0.00370636930957514"},"feature_names":[],"feature_types":[],"gradient_booster":{"model":{"gbtree_model_param":{"num_parallel_tree":"1","num_trees":"10"},"iteration_indptr":[0,1,2,3,4,5,6,7,8,9,10],"tree_info":[0,0,0,0,0,0,0,0,0,0],"trees":[{"base_weights":[-2.0771614E-10,-8.968751E-3,1.99376E-1,-1.728816E-2,2.9131059E-2,1.8783213E-1,2.7011344E-1,-2.2110008E-2,-4.855018E-3,1.2990754E-2,4.381681E-2,1.3406256E-1,2.543003E-1,-2.3540089E-2,-1.5844734E-2,-8.736139E-3,-6.836338E-4,2.3436379E-2,1.0757384E-2,3.6035687E-2,6.1627425E-2,1.2790462E-1,1.6255195E-1,1.936761E-1,2.6882088E-1,-2.4088774E-2,-2.2006813E-2,-1.3827533E-2,-1.6167631E-2,-9.98764E-3,-5.913166E-3,-1.2623677E-3,8.778395E-3,1.2367E-2,1.8770786E-2,3.1819297E-3,1.2342299E-2,2.5864229E-2,4.210981E-2,7.059412E-2,4.5476962E-2,1.23331405E-1,1.5240856E-1,1.2323818E-1,2.031535E-1,5.4548986E-2,7.420566E-2,9.37316E-2,2.6223326E-1,-7.2688153E-3,-7.0359437E-3,-6.731936E-3,-6.147557E-3,-3.542804E-3,-4.3189325E-3,-5.301348E-3,-4.7653113E-3,-3.1618192E-3,-1.5681627E-3,-2.076446E-3,-4.019368E-4,-8.4590365E-4,3.792202E-4,2.8138035E-3,2.0239352E-4,4.2592096E-3,9.50484E-3,5.358552E-4,2.0885558E-3,3.2683983E-3,6.5068477E-3,5.8132745E-3,9.349851E-3,1.6214175E-2,1.1586452E-2,3.481218E-2,2.0875586E-2,1.8528476E-2,1.309495E-2,3.4791254E-2,4.25748E-2,4.8518952E-2,3.791733E-2,3.3391144E-2,4.158189E-2,5.7034343E-2,7.321625E-2,7.6051526E-2,9.19708E-2],"categories":[],"categories_nodes":[],"categories_segments":[],"categories_sizes":[],"default_left":[0,0,0,0,0,0,0,0,0,0,0,0,0,0,0,0,0,0,0,0,0,0,0,0,0,0,0,0,0,0,0,0,0,0,0,0,0,0,0,0,0,0,0,0,0,0,0,0,0,0,0,0,0,0,0,0,0,0,0,0,0,0,0,0,0,0,0,0,0,0,0,0,0,0,0,0,0,0,0,0,0,0,0,0,0,0,0,0,0],"id":0,"left_children":[1,3,5,7,9,11,-1,13,15,17,19,21,23,25,27,29,31,33,35,37,39,41,43,45,47,49,51,53,55,57,59,61,63,-1,65,67,69,71,73,75,77,79,81,83,85,-1,-1,-1,87,-1,-1,-1,-1,-1,-1,-1,-1,-1,-1,-1,-1,-1,-1,-1,-1,-1,-1,-1,-1,-1,-1,-1,-1,-1,-1,-1,-1,-1,-1,-1,-1,-1,-1,-1,-1,-1,-1,-1,-1],"loss_changes":[1.0579968E2,1.7947227E1,2.0441902E1,2.785983E0,2.4048357E0,8.925842E0,0E0,2.996559E-1,2.1026519E-1,1.1256671E-1,7.3408985E-1,2.2271156E-1,9.338684E-1,2.2403717E-2,3.8318634E-3,2.3710608E-2,3.4296297E-2,6.984785E-2,4.7818482E-2,2.2750664E-1,2.3052263E-1,1.0962677E-1,3.6284065E-1,9.4911575E-2,1.769638E-1,1.2245178E-3,4.26054E-3,8.2430243E-4,2.0024776E-3,1.2184858E-2,9.531774E-3,2.3220727E-2,1.7517228E-3,0E0,3.9469376E-2,3.6331508E-3,4.436302E-2,4.706323E-2,9.431219E-2,3.9423466E-2,1.4531851E-2,1.1636734E-1,2.2241592E-2,7.682085E-3,1.6531467E-2,0E0,0E0,0E0,2.2760773E-1,0E0,0E0,0E0,0E0,0E0,0E0,0E0,0E0,0E0,0E0,0E0,0E0,0E0,0E0,0E0,0E0,0E0,0E0,0E0,0E0,0E0,0E0,0E0,0E0,0E0,0E0,0E0,0E0,0E0,0E0,0E0,0E0,0E0,0E0,0E0,0E0,0E0,0E0,0E0,0E0],"parents":[2147483647,0,0,1,1,2,2,3,3,4,4,5,5,7,7,8,8,9,9,10,10,11,11,12,12,13,13,14,14,15,15,16,16,17,17,18,18,19,19,20,20,21,21,22,22,23,23,24,24,25,25,26,26,27,27,28,28,29,29,30,30,31,31,32,32,34,34,35,35,36,36,37,37,38,38,39,39,40,40,41,41,42,42,43,43,44,44,48,48],"right_children":[2,4,6,8,10,12,-1,14,16,18,20,22,24,26,28,30,32,34,36,38,40,42,44,46,48,50,52,54,56,58,60,62,64,-1,66,68,70,72,74,76,78,80,82,84,86,-1,-1,-1,88,-1,-1,-1,-1,-1,-1,-1,-1,-1,-1,-1,-1,-1,-1,-1,-1,-1,-1,-1,-1,-1,-1,-1,-1,-1,-1,-1,-1,-1,-1,-1,-1,-1,-1,-1,-1,-1,-1,-1,-1],"split_conditions":[1.1851728E-1,2.8697055E-2,6.028012E-2,1.077531E-2,4.9290366E-2,2.0800357E-1,2.7011344E-1,5.6548114E-3,1.8801136E-2,1.7739973E-3,7.415818E-2,1.799076E-1,1.5834745E-2,1.4359659E-3,1.8013972E-1,1.6908778E-2,9.778539E-1,1.8013972E-1,1.4492754E-2,1.8069347E-2,1.1662809E-2,7.1428573E-1,1.1811934E-2,7.1428573E-1,1.8013972E-1,6.9015415E-4,3.1836145E-3,1.2478824E-3,1.4492754E-2,2.4946792E-1,9.809283E-1,4.4139284E-3,1E0,1.2367E-2,7.1428573E-1,3.847053E-2,4.038515E-2,6.5928698E-3,1.8612774E-1,1.6272578E-3,1.8013972E-1,5.735294E-1,1.3189855E-2,5.735294E-1,7.1428573E-1,5.4548986E-2,7.420566E-2,9.37316E-2,7.1428573E-1,-7.2688153E-3,-7.0359437E-3,-6.731936E-3,-6.147557E-3,-3.542804E-3,-4.3189325E-3,-5.301348E-3,-4.7653113E-3,-3.1618192E-3,-1.5681627E-3,-2.076446E-3,-4.019368E-4,-8.4590365E-4,3.792202E-4,2.8138035E-3,2.0239352E-4,4.2592096E-3,9.50484E-3,5.358552E-4,2.0885558E-3,3.2683983E-3,6.5068477E-3,5.8132745E-3,9.349851E-3,1.6214175E-2,1.1586452E-2,3.481218E-2,2.0875586E-2,1.8528476E-2,1.309495E-2,3.4791254E-2,4.25748E-2,4.8518952E-2,3.791733E-2,3.3391144E-2,4.158189E-2,5.7034343E-2,7.321625E-2,7.6051526E-2,9.19708E-2],"split_indices":[0,0,2,0,0,0,0,0,0,2,0,0,2,0,31,0,8,31,26,24,2,30,2,30,31,0,0,2,26,2,34,20,31,0,30,0,0,24,31,2,31,27,2,27,30,0,0,0,30,0,0,0,0,0,0,0,0,0,0,0,0,0,0,0,0,0,0,0,0,0,0,0,0,0,0,0,0,0,0,0,0,0,0,0,0,0,0,0,0],"split_type":[0,0,0,0,0,0,0,0,0,0,0,0,0,0,0,0,0,0,0,0,0,0,0,0,0,0,0,0,0,0,0,0,0,0,0,0,0,0,0,0,0,0,0,0,0,0,0,0,0,0,0,0,0,0,0,0,0,0,0,0,0,0,0,0,0,0,0,0,0,0,0,0,0,0,0,0,0,0,0,0,0,0,0,0,0,0,0,0,0],"sum_hessian":[5.9165E4,5.6619E4,2.546E3,4.6472E4,1.0147E4,2.506E3,4E1,3.3485E4,1.2987E4,4.835E3,5.312E3,1.387E3,1.119E3,2.726E4,6.225E3,6.727E3,6.26E3,8.5E2,3.985E3,3.699E3,1.613E3,1.145E3,2.42E2,2.19E2,9E2,2.0065E4,7.195E3,8.65E2,5.36E3,4.659E3,2.068E3,5.9E3,3.6E2,1.75E2,6.75E2,6.9E2,3.295E3,1.385E3,2.314E3,1.035E3,5.78E2,9.7E2,1.75E2,1.25E2,1.17E2,1.83E2,3.6E1,1.12E2,7.88E2,1.64E4,3.665E3,5.585E3,1.61E3,1.95E2,6.7E2,8.4E2,4.52E3,4.174E3,4.85E2,1.694E3,3.74E2,3.65E3,2.25E3,3.35E2,2.5E1,5E2,1.75E2,5.05E2,1.85E2,2.855E3,4.4E2,6.25E2,7.6E2,5.2E2,1.794E3,2E1,1.015E3,5.5E1,5.23E2,7E2,2.7E2,1.25E2,5E1,7.5E1,5E1,9.3E1,2.4E1,6.64E2,1.24E2],"tree_param":{"num_deleted":"0","num_feature":"37","num_nodes":"89","size_leaf_vector":"1"}},{"base_weights":[1.941476E-5,-6.276023E-3,1.3996746E-1,-1.2102783E-2,2.0408375E-2,1.3178547E-1,1.9105585E-1,-1.5514725E-2,-3.4856945E-3,9.101495E-3,3.0696284E-2,9.4109654E-2,1.7835888E-1,-1.647906E-2,-1.1153221E-2,-6.3079665E-3,-5.865153E-4,1.873321E-2,7.5345305E-3,2.5236592E-2,4.3193292E-2,8.967617E-2,1.1463091E-1,1.3615851E-1,1.8846513E-1,-1.6921584E-2,-1.5533969E-2,-1.1930541E-2,-1.0484847E-2,-9.103404E-3,-5.5810385E-3,-1.184832E-3,4.6164147E-3,8.67798E-3,1.5114907E-2,1.3159911E-2,6.4415038E-3,1.9422302E-2,3.0946938E-2,4.9469635E-2,3.188849E-2,7.10648E-2,9.295724E-2,8.686175E-2,1.4331126E-1,1.2757742E-1,5.254563E-2,1.6159399E-1,1.9413702E-1,-5.129898E-3,-5.0238483E-3,-4.766253E-3,-4.3672244E-3,-2.6572007E-3,-3.6495752E-3,-3.2804175E-3,-2.9045285E-3,-3.503558E-3,-2.0632255E-3,-2.5595194E-3,-1.5059869E-3,-2.3516794E-4,-1.9545013E-3,5.0895662E-5,1.9925062E-3,3.3679795E-3,6.188586E-3,2.9839969E-3,6.6695884E-3,1.6091219E-3,3.407072E-3,9.359049E-3,5.302354E-3,1.3066941E-2,8.607572E-3,1.027733E-2,1.563212E-2,9.8262075E-3,3.665843E-3,2.342565E-2,1.8239884E-2,2.9999757E-2,2.3307417E-2,2.350561E-2,2.9351924E-2,4.010606E-2,5.212997E-2,3.431099E-2,4.0803894E-2,6.1499048E-2,4.1824296E-2,6.102234E-2,5.3799294E-2],"categories":[],"categories_nodes":[],"categories_segments":[],"categories_sizes":[],"default_left":[0,0,0,0,0,0,0,0,0,0,0,0,0,0,0,0,0,0,0,0,0,0,0,0,0,0,0,0,0,0,0,0,0,0,0,0,0,0,0,0,0,0,0,0,0,0,0,0,0,0,0,0,0,0,0,0,0,0,0,0,0,0,0,0,0,0,0,0,0,0,0,0,0,0,0,0,0,0,0,0,0,0,0,0,0,0,0,0,0,0,0,0,0],"id":1,"left_children":[1,3,5,7,9,11,-1,13,15,17,19,21,23,25,27,29,31,33,35,37,39,41,43,45,47,49,51,53,55,57,59,61,63,-1,65,67,69,71,73,75,77,79,81,83,85,87,-1,89,91,-1,-1,-1,-1,-1,-1,-1,-1,-1,-1,-1,-1,-1,-1,-1,-1,-1,-1,-1,-1,-1,-1,-1,-1,-1,-1,-1,-1,-1,-1,-1,-1,-1,-1,-1,-1,-1,-1,-1,-1,-1,-1,-1,-1],"loss_changes":[5.2128147E1,8.803727E0,1.0270939E1,1.3662982E0,1.1801786E0,4.382225E0,0E0,1.3983536E-1,1.078632E-1,7.284647E-2,3.614154E-1,1.1600304E-1,4.5200348E-1,1.1137962E-2,3.0082464E-3,1.3523519E-2,2.025242E-2,2.4495527E-2,2.5499955E-2,1.222446E-1,1.1294031E-1,6.337452E-2,1.8108416E-1,5.12681E-2,1.059494E-1,2.9325485E-4,2.774477E-3,1.8981993E-3,1.0686815E-3,7.81291E-3,8.738369E-3,1.2462576E-2,6.041834E-3,0E0,1.0509349E-2,1.9484818E-2,1.8406674E-2,3.72324E-2,5.1781297E-2,3.9779663E-2,9.456754E-3,7.936537E-3,9.661579E-2,4.1050315E-3,1.1357069E-2,4.944086E-3,0E0,1.2833452E-1,6.496048E-2,0E0,0E0,0E0,0E0,0E0,0E0,0E0,0E0,0E0,0E0,0E0,0E0,0E0,0E0,0E0,0E0,0E0,0E0,0E0,0E0,0E0,0E0,0E0,0E0,0E0,0E0,0E0,0E0,0E0,0E0,0E0,0E0,0E0,0E0,0E0,0E0,0E0,0E0,0E0,0E0,0E0,0E0,0E0,0E0],"parents":[2147483647,0,0,1,1,2,2,3,3,4,4,5,5,7,7,8,8,9,9,10,10,11,11,12,12,13,13,14,14,15,15,16,16,17,17,18,18,19,19,20,20,21,21,22,22,23,23,24,24,25,25,26,26,27,27,28,28,29,29,30,30,31,31,32,32,34,34,35,35,36,36,37,37,38,38,39,39,40,40,41,41,42,42,43,43,44,44,45,45,47,47,48,48],"right_children":[2,4,6,8,10,12,-1,14,16,18,20,22,24,26,28,30,32,34,36,38,40,42,44,46,48,50,52,54,56,58,60,62,64,-1,66,68,70,72,74,76,78,80,82,84,86,88,-1,90,92,-1,-1,-1,-1,-1,-1,-1,-1,-1,-1,-1,-1,-1,-1,-1,-1,-1,-1,-1,-1,-1,-1,-1,-1,-1,-1,-1,-1,-1,-1,-1,-1,-1,-1,-1,-1,-1,-1,-1,-1,-1,-1,-1,-1],"split_conditions":[1.1851728E-1,2.8697055E-2,6.028012E-2,1.0530417E-2,4.9290366E-2,2.0800357E-1,1.9105585E-1,5.6548114E-3,1.86119E-2,1.8013972E-1,7.415818E-2,1.799076E-1,1.5834745E-2,1.0352313E-3,3.923492E-3,1.2934825E-2,9.7190285E-1,1.7739973E-3,1.7739973E-3,1.2997481E-1,1.1662809E-2,1.4492754E-2,1.1811934E-2,7.1428573E-1,1.4492754E-2,2.5602494E-4,2.7717482E-3,5.882353E-2,5.735294E-1,9.286345E-3,1.4492754E-2,1E0,1.955808E-2,8.67798E-3,9.552654E-1,7.1428573E-1,3.9984416E-2,1.8013972E-1,1.8013972E-1,1.4492754E-2,1E0,1E0,8.695652E-2,5.735294E-1,7.1428573E-1,2.2205588E-1,5.254563E-2,1.9783588E-2,8.695652E-2,-5.129898E-3,-5.0238483E-3,-4.766253E-3,-4.3672244E-3,-2.6572007E-3,-3.6495752E-3,-3.2804175E-3,-2.9045285E-3,-3.503558E-3,-2.0632255E-3,-2.5595194E-3,-1.5059869E-3,-2.3516794E-4,-1.9545013E-3,5.0895662E-5,1.9925062E-3,3.3679795E-3,6.188586E-3,2.9839969E-3,6.6695884E-3,1.6091219E-3,3.407072E-3,9.359049E-3,5.302354E-3,1.3066941E-2,8.607572E-3,1.027733E-2,1.563212E-2,9.8262075E-3,3.665843E-3,2.342565E-2,1.8239884E-2,2.9999757E-2,2.3307417E-2,2.350561E-2,2.9351924E-2,4.010606E-2,5.212997E-2,3.431099E-2,4.0803894E-2,6.1499048E-2,4.1824296E-2,6.102234E-2,5.3799294E-2],"split_indices":[0,0,2,0,0,0,0,0,0,31,0,0,2,0,20,0,8,2,2,32,2,26,2,30,26,0,0,27,27,2,26,31,0,0,34,30,0,31,31,26,31,12,26,27,30,31,0,2,26,0,0,0,0,0,0,0,0,0,0,0,0,0,0,0,0,0,0,0,0,0,0,0,0,0,0,0,0,0,0,0,0,0,0,0,0,0,0,0,0,0,0,0,0],"split_type":[0,0,0,0,0,0,0,0,0,0,0,0,0,0,0,0,0,0,0,0,0,0,0,0,0,0,0,0,0,0,0,0,0,0,0,0,0,0,0,0,0,0,0,0,0,0,0,0,0,0,0,0,0,0,0,0,0,0,0,0,0,0,0,0,0,0,0,0,0,0,0,0,0,0,0,0,0,0,0,0,0,0,0,0,0,0,0,0,0,0,0,0,0],"sum_hessian":[5.9165E4,5.6619E4,2.546E3,4.6472E4,1.0147E4,2.506E3,4E1,3.329E4,1.3182E4,4.835E3,5.312E3,1.387E3,1.119E3,2.726E4,6.03E3,6.679E3,6.503E3,6.75E2,4.16E3,3.699E3,1.613E3,1.145E3,2.42E2,2.19E2,9E2,1.8555E4,8.705E3,2.78E3,3.25E3,1.376E3,5.303E3,5.833E3,6.7E2,1.75E2,5E2,6.75E2,3.485E3,1.835E3,1.864E3,1.035E3,5.78E2,1.75E2,9.7E2,1.25E2,1.17E2,1.83E2,3.6E1,1.62E2,7.38E2,9.16E3,9.395E3,6.38E3,2.325E3,2E2,2.58E3,2.075E3,1.175E3,6.36E2,7.4E2,8.45E2,4.458E3,5.426E3,4.07E2,2.1E2,4.6E2,2.95E2,2.05E2,5E2,1.75E2,2.86E3,6.25E2,2.35E2,1.6E3,2.8E2,1.584E3,1.55E2,8.8E2,5.53E2,2.5E1,1E2,7.5E1,6.6E2,3.1E2,7.5E1,5E1,9.3E1,2.4E1,7.7E1,1.06E2,5.2E1,1.1E2,4.46E2,2.92E2],"tree_param":{"num_deleted":"0","num_feature":"37","num_nodes":"93","size_leaf_vector":"1"}},{"base_weights":[2.78556E-5,-4.392031E-3,9.8282255E-2,-8.472842E-3,1.4296568E-2,9.248352E-2,1.3513707E-1,-1.0861262E-2,-2.4407275E-3,6.6323876E-3,2.1842532E-2,6.604972E-2,1.2515998E-1,-1.1536049E-2,-7.809325E-3,-4.060162E-3,3.244512E-4,1.3353901E-2,5.5080033E-3,1.8228184E-2,3.0951772E-2,6.3053615E-2,8.353128E-2,9.589123E-2,1.321677E-1,-1.1789724E-2,-1.06726065E-2,-8.353646E-3,-7.3412955E-3,-4.4698385E-3,-1.960043E-4,-2.7317139E-5,8.941998E-3,1.0209826E-2,1.8386161E-2,3.9113024E-3,8.454476E-3,1.6871812E-2,3.628955E-2,1.8790537E-2,3.3406757E-2,5.867396E-2,2.2158597E-2,7.734779E-2,3.711654E-2,8.9712426E-2,3.7207987E-2,1.2470785E-1,1.4869556E-1,-3.576873E-3,-3.4626112E-3,-3.280528E-3,-3.0127813E-3,-1.8640063E-3,-2.5551266E-3,-2.604039E-3,-2.1410633E-3,-2.2626617E-3,-1.2043694E-3,-5.758609E-4,2.1417624E-4,-1.1297914E-3,2.0072059E-4,9.931356E-4,2.9310542E-3,1.2663892E-3,4.453635E-3,6.0893786E-3,4.461817E-3,2.1372994E-3,7.6291204E-4,2.0568497E-3,4.731591E-3,2.279109E-3,5.5672647E-3,2.0399518E-2,9.990472E-3,6.5609985E-3,4.628561E-3,1.119381E-2,8.292866E-3,1.935826E-2,1.3833533E-2,2.5150286E-2,1.7941717E-2,2.4149656E-2,2.867713E-2,3.5094514E-2,4.6440046E-2,3.6128674E-2,4.7438383E-2],"categories":[],"categories_nodes":[],"categories_segments":[],"categories_sizes":[],"default_left":[0,0,0,0,0,0,0,0,0,0,0,0,0,0,0,0,0,0,0,0,0,0,0,0,0,0,0,0,0,0,0,0,0,0,0,0,0,0,0,0,0,0,0,0,0,0,0,0,0,0,0,0,0,0,0,0,0,0,0,0,0,0,0,0,0,0,0,0,0,0,0,0,0,0,0,0,0,0,0,0,0,0,0,0,0,0,0,0,0,0,0],"id":2,"left_children":[1,3,5,7,9,11,-1,13,15,17,19,21,23,25,27,29,31,33,35,37,39,41,43,45,47,49,51,53,55,57,59,61,63,65,67,69,71,73,75,77,79,81,-1,83,-1,85,-1,87,89,-1,-1,-1,-1,-1,-1,-1,-1,-1,-1,-1,-1,-1,-1,-1,-1,-1,-1,-1,-1,-1,-1,-1,-1,-1,-1,-1,-1,-1,-1,-1,-1,-1,-1,-1,-1,-1,-1,-1,-1,-1,-1],"loss_changes":[2.5694647E1,4.3182244E0,5.1597443E0,6.6952014E-1,5.8675075E-1,2.1571865E0,0E0,6.8469286E-2,5.903513E-2,3.7986353E-2,1.6777587E-1,6.743145E-2,2.1704865E-1,5.8453083E-3,1.4751256E-3,1.3160646E-2,1.4763066E-2,1.12197995E-2,2.0272136E-2,8.9123726E-2,4.26929E-2,5.1949978E-2,4.0133834E-2,2.7118683E-2,9.254551E-2,5.569458E-4,9.1558695E-4,9.199083E-4,8.277893E-4,1.0484278E-2,1.2528617E-3,1.2187112E-2,8.5846987E-4,1.2318548E-2,1.5519783E-3,1.2295831E-2,1.7622434E-2,5.3158164E-2,2.1895617E-2,2.2094548E-3,2.6119709E-2,5.9601784E-2,0E0,1.5012741E-2,0E0,2.2699833E-3,0E0,1.2766743E-1,5.4277897E-2,0E0,0E0,0E0,0E0,0E0,0E0,0E0,0E0,0E0,0E0,0E0,0E0,0E0,0E0,0E0,0E0,0E0,0E0,0E0,0E0,0E0,0E0,0E0,0E0,0E0,0E0,0E0,0E0,0E0,0E0,0E0,0E0,0E0,0E0,0E0,0E0,0E0,0E0,0E0,0E0,0E0,0E0],"parents":[2147483647,0,0,1,1,2,2,3,3,4,4,5,5,7,7,8,8,9,9,10,10,11,11,12,12,13,13,14,14,15,15,16,16,17,17,18,18,19,19,20,20,21,21,22,22,23,23,24,24,25,25,26,26,27,27,28,28,29,29,30,30,31,31,32,32,33,33,34,34,35,35,36,36,37,37,38,38,39,39,40,40,41,41,43,43,45,45,47,47,48,48],"right_children":[2,4,6,8,10,12,-1,14,16,18,20,22,24,26,28,30,32,34,36,38,40,42,44,46,48,50,52,54,56,58,60,62,64,66,68,70,72,74,76,78,80,82,-1,84,-1,86,-1,88,90,-1,-1,-1,-1,-1,-1,-1,-1,-1,-1,-1,-1,-1,-1,-1,-1,-1,-1,-1,-1,-1,-1,-1,-1,-1,-1,-1,-1,-1,-1,-1,-1,-1,-1,-1,-1,-1,-1,-1,-1,-1,-1],"split_conditions":[1.1851728E-1,2.8697055E-2,6.028012E-2,1.0530417E-2,5.0192017E-2,2.0800357E-1,1.3513707E-1,5.6548114E-3,2.1405911E-2,1.8013972E-1,2.087742E-2,7.1428573E-1,1.5834745E-2,1.6585963E-3,3.923492E-3,1E0,1E0,6.375674E-3,8.032608E-1,8.704848E-2,1.4492754E-2,5.735294E-1,1.799076E-1,7.1428573E-1,5.735294E-1,4.675238E-4,2.9275895E-3,5.882353E-2,1.4492754E-2,1.4492754E-2,1.4459843E-2,1.4492754E-2,1.4492754E-2,9.552654E-1,1.7739973E-3,8.309274E-3,4.038515E-2,6.5928698E-3,1.6272578E-3,1.1662809E-2,8.695652E-2,2.8985508E-2,2.2158597E-2,1.3189855E-2,3.711654E-2,2.2205588E-1,3.7207987E-2,7.1428573E-1,1.9783588E-2,-3.576873E-3,-3.4626112E-3,-3.280528E-3,-3.0127813E-3,-1.8640063E-3,-2.5551266E-3,-2.604039E-3,-2.1410633E-3,-2.2626617E-3,-1.2043694E-3,-5.758609E-4,2.1417624E-4,-1.1297914E-3,2.0072059E-4,9.931356E-4,2.9310542E-3,1.2663892E-3,4.453635E-3,6.0893786E-3,4.461817E-3,2.1372994E-3,7.6291204E-4,2.0568497E-3,4.731591E-3,2.279109E-3,5.5672647E-3,2.0399518E-2,9.990472E-3,6.5609985E-3,4.628561E-3,1.119381E-2,8.292866E-3,1.935826E-2,1.3833533E-2,2.5150286E-2,1.7941717E-2,2.4149656E-2,2.867713E-2,3.5094514E-2,4.6440046E-2,3.6128674E-2,4.7438383E-2],"split_indices":[0,0,2,0,0,0,0,0,0,31,24,30,2,0,20,10,10,20,8,0,26,27,0,30,27,0,0,27,26,26,0,26,26,34,2,2,0,24,2,2,26,26,0,2,0,31,0,30,2,0,0,0,0,0,0,0,0,0,0,0,0,0,0,0,0,0,0,0,0,0,0,0,0,0,0,0,0,0,0,0,0,0,0,0,0,0,0,0,0,0,0],"split_type":[0,0,0,0,0,0,0,0,0,0,0,0,0,0,0,0,0,0,0,0,0,0,0,0,0,0,0,0,0,0,0,0,0,0,0,0,0,0,0,0,0,0,0,0,0,0,0,0,0,0,0,0,0,0,0,0,0,0,0,0,0,0,0,0,0,0,0,0,0,0,0,0,0,0,0,0,0,0,0,0,0,0,0,0,0,0,0,0,0,0,0],"sum_hessian":[5.9165E4,5.6619E4,2.546E3,4.6472E4,1.0147E4,2.506E3,4E1,3.329E4,1.3182E4,5.035E3,5.112E3,1.387E3,1.119E3,2.726E4,6.03E3,8.313E3,4.869E3,7.2E2,4.315E3,3.662E3,1.45E3,1.188E3,1.99E2,2.19E2,9E2,2.106E4,6.2E3,2.78E3,3.25E3,7.516E3,7.97E2,4.679E3,1.9E2,4.45E2,2.75E2,2.8E3,1.515E3,3.408E3,2.54E2,2.45E2,1.205E3,8.5E2,3.38E2,1.75E2,2.4E1,1.83E2,3.6E1,6.26E2,2.74E2,1.3665E4,7.395E3,4.365E3,1.835E3,2E2,2.58E3,4.25E2,2.825E3,9.68E2,6.548E3,2.75E2,5.22E2,7.34E2,3.945E3,2.5E1,1.65E2,1.95E2,2.5E2,1.75E2,1E2,8.35E2,1.965E3,1.245E3,2.7E2,5.25E2,2.883E3,2E1,2.34E2,1.25E2,1.2E2,7.15E2,4.9E2,5.77E2,2.73E2,1.25E2,5E1,7.7E1,1.06E2,5.02E2,1.24E2,7.2E1,2.02E2],"tree_param":{"num_deleted":"0","num_feature":"37","num_nodes":"91","size_leaf_vector":"1"}},{"base_weights":[2.9595361E-5,-3.0731584E-3,6.900403E-2,-5.6608403E-3,1.1468015E-2,6.48943E-2,9.558474E-2,-7.502958E-3,-8.950504E-4,8.341953E-3,1.8833313E-2,4.6332467E-2,8.783978E-2,-8.120392E-3,-5.542721E-3,-1.8246912E-3,2.0376586E-3,5.1654493E-3,1.1522027E-2,2.4029894E-2,1.4837298E-2,4.3442108E-2,5.9772864E-2,6.7533106E-2,9.270063E-2,-8.300394E-3,-7.674215E-3,-5.632728E-3,-2.299462E-3,6.9060724E-4,-2.323922E-3,-1.876725E-3,2.8218161E-3,1.4597096E-3,6.6856476E-3,1.8826911E-2,9.820022E-3,5.530607E-3,2.5564574E-2,1.5875055E-2,8.9131313E-4,3.0733822E-2,4.570083E-2,4.200304E-2,7.824087E-2,6.3085794E-2,2.6347276E-2,3.421121E-2,8.952731E-2,-2.5291177E-3,-2.4657967E-3,-2.365051E-3,-2.2254484E-3,-1.3358057E-3,-1.7462828E-3,-1.1303042E-3,-4.6357885E-4,-4.3110127E-4,5.042393E-4,-1.0943954E-3,-4.8627006E-4,-2.767875E-4,-1.296663E-3,1.261298E-3,1.4518031E-4,8.8631915E-4,-1.7484045E-4,2.7721203E-3,1.3512938E-3,7.639122E-3,5.1234397E-3,3.4250757E-3,7.710217E-4,2.8949806E-3,-3.928373E-3,1.0795117E-2,7.118676E-3,2.368515E-3,5.29454E-3,1.241007E-5,1.0024471E-3,6.337531E-3,1.0313745E-2,1.4151645E-2,7.4433503E-3,1.136085E-2,1.4201772E-2,1.4902244E-2,2.3960063E-2,1.6997641E-2,2.015439E-2,2.5734855E-2,3.2619487E-2],"categories":[],"categories_nodes":[],"categories_segments":[],"categories_sizes":[],"default_left":[0,0,0,0,0,0,0,0,0,0,0,0,0,0,0,0,0,0,0,0,0,0,0,0,0,0,0,0,0,0,0,0,0,0,0,0,0,0,0,0,0,0,0,0,0,0,0,0,0,0,0,0,0,0,0,0,0,0,0,0,0,0,0,0,0,0,0,0,0,0,0,0,0,0,0,0,0,0,0,0,0,0,0,0,0,0,0,0,0,0,0,0,0],"id":3,"left_children":[1,3,5,7,9,11,-1,13,15,17,19,21,23,25,27,29,31,33,35,37,39,41,43,45,47,49,51,53,55,57,59,61,63,65,67,69,71,73,75,77,79,81,83,85,87,89,-1,-1,91,-1,-1,-1,-1,-1,-1,-1,-1,-1,-1,-1,-1,-1,-1,-1,-1,-1,-1,-1,-1,-1,-1,-1,-1,-1,-1,-1,-1,-1,-1,-1,-1,-1,-1,-1,-1,-1,-1,-1,-1,-1,-1,-1,-1],"loss_changes":[1.2662368E1,2.1305587E0,2.5921288E0,4.2198038E-1,1.9679332E-1,1.0636873E0,0E0,4.1913033E-2,3.653975E-2,6.0620278E-2,5.255425E-2,5.132389E-2,1.0429287E-1,2.0534992E-3,2.4119914E-3,1.2779754E-2,9.907479E-3,1.6930051E-2,3.7126392E-2,3.1258464E-2,2.0869732E-2,3.149104E-2,7.6459765E-2,1.4312625E-2,5.0796032E-2,1.2862682E-4,3.4832954E-4,1.7690957E-3,2.4443446E-4,3.5543793E-3,7.897891E-3,1.2536267E-3,8.685973E-3,2.6760765E-3,1.1839531E-2,6.1343163E-3,2.8173283E-2,6.7245606E-3,1.8673778E-2,1.8866569E-2,2.1019619E-4,5.438462E-3,2.8673649E-2,9.865165E-4,1.5137196E-3,1.0367632E-3,0E0,0E0,4.7409058E-2,0E0,0E0,0E0,0E0,0E0,0E0,0E0,0E0,0E0,0E0,0E0,0E0,0E0,0E0,0E0,0E0,0E0,0E0,0E0,0E0,0E0,0E0,0E0,0E0,0E0,0E0,0E0,0E0,0E0,0E0,0E0,0E0,0E0,0E0,0E0,0E0,0E0,0E0,0E0,0E0,0E0,0E0,0E0,0E0],"parents":[2147483647,0,0,1,1,2,2,3,3,4,4,5,5,7,7,8,8,9,9,10,10,11,11,12,12,13,13,14,14,15,15,16,16,17,17,18,18,19,19,20,20,21,21,22,22,23,23,24,24,25,25,26,26,27,27,28,28,29,29,30,30,31,31,32,32,33,33,34,34,35,35,36,36,37,37,38,38,39,39,40,40,41,41,42,42,43,43,44,44,45,45,48,48],"right_children":[2,4,6,8,10,12,-1,14,16,18,20,22,24,26,28,30,32,34,36,38,40,42,44,46,48,50,52,54,56,58,60,62,64,66,68,70,72,74,76,78,80,82,84,86,88,90,-1,-1,92,-1,-1,-1,-1,-1,-1,-1,-1,-1,-1,-1,-1,-1,-1,-1,-1,-1,-1,-1,-1,-1,-1,-1,-1,-1,-1,-1,-1,-1,-1,-1,-1,-1,-1,-1,-1,-1,-1,-1,-1,-1,-1,-1,-1],"split_conditions":[1.1851728E-1,3.400679E-2,6.028012E-2,1.2934825E-2,6.7557186E-2,2.0800357E-1,9.558474E-2,3.7847164E-3,2.4734234E-2,4.6284854E-2,1.1662809E-2,1.799076E-1,1.5834745E-2,2.0482793E-2,3.403641E-2,1.8612774E-1,1.4492754E-2,7.274529E-1,1.8612774E-1,4.8404627E-2,1E0,1.4492754E-2,1.1811934E-2,7.1428573E-1,1.8013972E-1,1.8923583E-4,8.032608E-1,1.8013972E-1,2.2205588E-1,1.6908778E-2,1.6908778E-2,5.735294E-1,9.42029E-2,3.8822356E-1,8.309274E-3,2.1428572E-1,6.375674E-3,7.415818E-2,1.8013972E-1,1.4492754E-2,7.415818E-2,1.7739973E-3,1E0,5.735294E-1,2.2205588E-1,2.2205588E-1,2.6347276E-2,3.421121E-2,7.1428573E-1,-2.5291177E-3,-2.4657967E-3,-2.365051E-3,-2.2254484E-3,-1.3358057E-3,-1.7462828E-3,-1.1303042E-3,-4.6357885E-4,-4.3110127E-4,5.042393E-4,-1.0943954E-3,-4.8627006E-4,-2.767875E-4,-1.296663E-3,1.261298E-3,1.4518031E-4,8.8631915E-4,-1.7484045E-4,2.7721203E-3,1.3512938E-3,7.639122E-3,5.1234397E-3,3.4250757E-3,7.710217E-4,2.8949806E-3,-3.928373E-3,1.0795117E-2,7.118676E-3,2.368515E-3,5.29454E-3,1.241007E-5,1.0024471E-3,6.337531E-3,1.0313745E-2,1.4151645E-2,7.4433503E-3,1.136085E-2,1.4201772E-2,1.4902244E-2,2.3960063E-2,1.6997641E-2,2.015439E-2,2.5734855E-2,3.2619487E-2],"split_indices":[0,0,2,0,0,0,0,0,0,0,2,0,2,32,2,31,26,34,31,33,31,26,2,30,31,0,8,31,31,0,0,5,26,31,2,30,20,0,31,26,0,2,31,27,31,31,0,0,30,0,0,0,0,0,0,0,0,0,0,0,0,0,0,0,0,0,0,0,0,0,0,0,0,0,0,0,0,0,0,0,0,0,0,0,0,0,0,0,0,0,0,0,0],"split_type":[0,0,0,0,0,0,0,0,0,0,0,0,0,0,0,0,0,0,0,0,0,0,0,0,0,0,0,0,0,0,0,0,0,0,0,0,0,0,0,0,0,0,0,0,0,0,0,0,0,0,0,0,0,0,0,0,0,0,0,0,0,0,0,0,0,0,0,0,0,0,0,0,0,0,0,0,0,0,0,0,0,0,0,0,0,0,0,0,0,0,0,0,0],"sum_hessian":[5.9165E4,5.6619E4,2.546E3,4.8066E4,8.553E3,2.506E3,4E1,3.4666E4,1.34E4,6.006E3,2.547E3,1.387E3,1.119E3,2.636E4,8.306E3,1.0175E4,3.225E3,3.006E3,3E3,1.105E3,1.442E3,1.145E3,2.42E2,2.19E2,9E2,1.877E4,7.59E3,8.081E3,2.25E2,1.685E3,8.49E3,5.38E2,2.687E3,8.75E2,2.131E3,5.65E2,2.435E3,8.5E1,1.02E3,1.342E3,1E2,1.75E2,9.7E2,1.25E2,1.17E2,1.83E2,3.6E1,1.12E2,7.88E2,7.17E3,1.16E4,4.16E3,3.43E3,1.115E3,6.966E3,7.5E1,1.5E2,5.35E2,1.15E3,2.943E3,5.547E3,3.88E2,1.5E2,1.688E3,9.99E2,5.05E2,3.7E2,9.8E2,1.151E3,1.15E2,4.5E2,1.995E3,4.4E2,7E1,1.5E1,1.5E2,8.7E2,2.45E2,1.097E3,7.5E1,2.5E1,5E1,1.25E2,9.05E2,6.5E1,7.5E1,5E1,8E0,1.09E2,7.7E1,1.06E2,6.64E2,1.24E2],"tree_param":{"num_deleted":"0","num_feature":"37","num_nodes":"93","size_leaf_vector":"1"}},{"base_weights":[2.7236214E-5,-2.150656E-3,4.844193E-2,-3.96292E-3,8.033145E-3,4.5529217E-2,2.2536239E-1,-5.22301E-3,-5.371593E-4,5.842995E-3,1.319335E-2,3.2506693E-2,6.1627187E-2,8.030386E-2,5.169411E-2,-5.6648394E-3,-3.6940265E-3,-8.9564204E-4,3.6440261E-3,-6.563914E-5,6.8910895E-3,2.1870578E-2,1.1937254E-2,3.0610835E-2,4.3615036E-2,4.756181E-2,6.499318E-2,-5.77605E-3,-5.2019637E-3,-4.1344916E-3,-3.1825772E-3,-1.6600895E-3,3.5673295E-4,2.6034878E-3,5.6228214E-3,1.8326688E-3,-6.955245E-4,8.958328E-3,3.5058444E-3,5.5941753E-3,8.01332E-3,1.5488021E-2,9.261315E-3,2.770272E-2,3.797232E-2,4.8517223E-2,8.502493E-3,4.436197E-2,1.865672E-2,6.0370166E-2,7.52973E-2,-1.7507138E-3,-1.6881739E-3,-1.737171E-3,-1.5217931E-3,-1.1807769E-3,-1.8306791E-3,-1.0897315E-3,-6.996663E-4,-3.2869272E-4,-9.2277344E-4,-1.184021E-4,7.581468E-4,1.098821E-3,1.065729E-4,9.3123404E-4,2.100653E-3,8.312373E-4,1.9325792E-4,-3.2963106E-4,4.155287E-4,1.9514227E-3,3.6380272E-3,-1.6005222E-4,2.3736581E-3,1.2537177E-2,4.464406E-3,2.9988806E-3,1.9019055E-4,7.3472066E-3,1.0604191E-2,9.720005E-3,1.5556441E-2,1.3453281E-2,1.9526474E-2,1.2317595E-2,1.5353771E-2,2.345593E-2,1.54779265E-2,1.7127162E-2,2.4442093E-2],"categories":[],"categories_nodes":[],"categories_segments":[],"categories_sizes":[],"default_left":[0,0,0,0,0,0,0,0,0,0,0,0,0,0,0,0,0,0,0,0,0,0,0,0,0,0,0,0,0,0,0,0,0,0,0,0,0,0,0,0,0,0,0,0,0,0,0,0,0,0,0,0,0,0,0,0,0,0,0,0,0,0,0,0,0,0,0,0,0,0,0,0,0,0,0,0,0,0,0,0,0,0,0,0,0,0,0,0,0,0,0],"id":4,"left_children":[1,3,5,7,9,11,13,15,17,19,21,23,25,-1,-1,27,29,31,33,35,37,39,41,43,45,47,49,51,53,55,57,59,61,63,65,67,69,71,73,-1,-1,75,77,79,81,83,-1,85,-1,87,89,-1,-1,-1,-1,-1,-1,-1,-1,-1,-1,-1,-1,-1,-1,-1,-1,-1,-1,-1,-1,-1,-1,-1,-1,-1,-1,-1,-1,-1,-1,-1,-1,-1,-1,-1,-1,-1,-1,-1,-1],"loss_changes":[6.2386847E0,1.0449957E0,1.3022575E0,2.074914E-1,9.6597016E-2,5.235548E-1,4.591465E-2,2.3718476E-2,1.9379318E-2,3.720063E-2,2.7510703E-2,2.7895927E-2,4.9934387E-2,0E0,0E0,1.373291E-3,1.7622411E-3,1.1400053E-2,2.0876126E-3,1.0845937E-3,3.5672963E-2,4.5103133E-3,2.1026224E-2,2.4402142E-2,1.3599545E-2,7.538229E-3,3.8374424E-2,1.6224384E-4,3.733635E-4,1.6291887E-3,1.3881885E-3,5.9055947E-3,7.3627457E-3,1.5966524E-3,1.197706E-3,2.501905E-4,5.7288166E-4,2.4541408E-2,3.446268E-2,0E0,0E0,1.463294E-2,8.065373E-3,2.0153165E-2,2.4157286E-2,6.2108934E-3,0E0,2.0422637E-3,0E0,9.4013214E-2,2.6272655E-2,0E0,0E0,0E0,0E0,0E0,0E0,0E0,0E0,0E0,0E0,0E0,0E0,0E0,0E0,0E0,0E0,0E0,0E0,0E0,0E0,0E0,0E0,0E0,0E0,0E0,0E0,0E0,0E0,0E0,0E0,0E0,0E0,0E0,0E0,0E0,0E0,0E0,0E0,0E0,0E0],"parents":[2147483647,0,0,1,1,2,2,3,3,4,4,5,5,6,6,7,7,8,8,9,9,10,10,11,11,12,12,15,15,16,16,17,17,18,18,19,19,20,20,21,21,22,22,23,23,24,24,25,25,26,26,27,27,28,28,29,29,30,30,31,31,32,32,33,33,34,34,35,35,36,36,37,37,38,38,41,41,42,42,43,43,44,44,45,45,47,47,49,49,50,50],"right_children":[2,4,6,8,10,12,14,16,18,20,22,24,26,-1,-1,28,30,32,34,36,38,40,42,44,46,48,50,52,54,56,58,60,62,64,66,68,70,72,74,-1,-1,76,78,80,82,84,-1,86,-1,88,90,-1,-1,-1,-1,-1,-1,-1,-1,-1,-1,-1,-1,-1,-1,-1,-1,-1,-1,-1,-1,-1,-1,-1,-1,-1,-1,-1,-1,-1,-1,-1,-1,-1,-1,-1,-1,-1,-1,-1,-1],"split_conditions":[1.1851728E-1,3.400679E-2,6.028012E-2,1.3324428E-2,6.7557186E-2,2.0800357E-1,2.857143E-1,5.6548114E-3,9.620733E-1,1.4492754E-2,1.8013972E-1,7.1428573E-1,1.5834745E-2,8.030386E-2,5.169411E-2,1.8478321E-3,7.993231E-1,2.3253743E-2,5.735294E-1,1.7739973E-3,8.695652E-2,2.1691356E-2,1.1662809E-2,1.3189855E-2,1.5834745E-2,7.1428573E-1,5.735294E-1,6.2336505E-4,1.4492754E-2,1.1498859E-2,9.8736575E-3,5.735294E-1,6.4705884E-1,7.2463766E-2,1.955808E-2,4.3045584E-2,6.264819E-2,5.0192017E-2,5.735294E-1,5.5941753E-3,8.01332E-3,1.6272578E-3,1E0,5.735294E-1,1.799076E-1,1.799076E-1,8.502493E-3,5.735294E-1,1.865672E-2,1.1903513E-1,1.9783588E-2,-1.7507138E-3,-1.6881739E-3,-1.737171E-3,-1.5217931E-3,-1.1807769E-3,-1.8306791E-3,-1.0897315E-3,-6.996663E-4,-3.2869272E-4,-9.2277344E-4,-1.184021E-4,7.581468E-4,1.098821E-3,1.065729E-4,9.3123404E-4,2.100653E-3,8.312373E-4,1.9325792E-4,-3.2963106E-4,4.155287E-4,1.9514227E-3,3.6380272E-3,-1.6005222E-4,2.3736581E-3,1.2537177E-2,4.464406E-3,2.9988806E-3,1.9019055E-4,7.3472066E-3,1.0604191E-2,9.720005E-3,1.5556441E-2,1.3453281E-2,1.9526474E-2,1.2317595E-2,1.5353771E-2,2.345593E-2,1.54779265E-2,1.7127162E-2,2.4442093E-2],"split_indices":[0,0,2,0,0,0,3,0,8,26,31,30,2,0,0,0,8,0,27,2,26,24,2,2,2,30,27,0,26,0,0,5,27,26,0,0,0,0,27,0,0,2,31,27,0,0,0,27,0,33,2,0,0,0,0,0,0,0,0,0,0,0,0,0,0,0,0,0,0,0,0,0,0,0,0,0,0,0,0,0,0,0,0,0,0,0,0,0,0,0,0],"split_type":[0,0,0,0,0,0,0,0,0,0,0,0,0,0,0,0,0,0,0,0,0,0,0,0,0,0,0,0,0,0,0,0,0,0,0,0,0,0,0,0,0,0,0,0,0,0,0,0,0,0,0,0,0,0,0,0,0,0,0,0,0,0,0,0,0,0,0,0,0,0,0,0,0,0,0,0,0,0,0,0,0,0,0,0,0,0,0,0,0,0,0],"sum_hessian":[5.9165E4,5.6619E4,2.546E3,4.8066E4,8.553E3,2.506E3,4E1,3.514E4,1.2926E4,6.006E3,2.547E3,1.387E3,1.119E3,2E1,2E1,2.726E4,7.88E3,1.1906E4,1.02E3,9.05E2,5.101E3,3.2E2,2.227E3,1.188E3,1.99E2,2.19E2,9E2,2.197E4,5.29E3,4.23E3,3.65E3,7.393E3,4.513E3,6.7E2,3.5E2,2.25E2,6.8E2,3.166E3,1.935E3,1.95E2,1.25E2,9.55E2,1.272E3,8.55E2,3.33E2,1.49E2,5E1,1.83E2,3.6E1,6.26E2,2.74E2,1.5655E4,6.315E3,9.45E2,4.345E3,3.845E3,3.85E2,2.385E3,1.265E3,5.287E3,2.106E3,3.353E3,1.16E3,4.55E2,2.15E2,1.25E2,2.25E2,1.25E2,1E2,5.7E2,1.1E2,1.786E3,1.38E3,1.01E3,9.25E2,2E1,9.35E2,1.172E3,1E2,6.05E2,2.5E2,2.4E2,9.3E1,1.25E2,2.4E1,1.28E2,5.5E1,2.04E2,4.22E2,7.2E1,2.02E2],"tree_param":{"num_deleted":"0","num_feature":"37","num_nodes":"91","size_leaf_vector":"1"}},{"base_weights":[2.5460691E-5,-1.5048437E-3,3.4044232E-2,-3.0548817E-3,4.3961923E-3,3.1954832E-2,1.6097315E-1,-3.8642462E-3,-1.4128791E-3,1.7090611E-3,7.4138213E-3,2.2815717E-2,4.3252274E-2,5.7359904E-2,3.692437E-2,-4.018674E-3,-3.1790256E-3,-2.1571887E-3,-5.1145133E-4,9.4178325E-4,3.7606123E-3,1.9056348E-3,8.3347345E-3,1.512685E-2,2.4188943E-2,3.3503845E-2,4.558457E-2,-4.071361E-3,-3.8456179E-3,-3.5380872E-3,-2.8664256E-3,-5.878725E-4,-2.3930592E-3,-2.5859784E-4,-3.8386278E-3,1.7447582E-3,-1.43851E-3,2.671332E-3,6.630019E-3,4.704502E-4,4.3946304E-3,6.928071E-3,1.2331749E-2,5.6656315E-3,2.4309035E-3,2.7401615E-2,1.7568268E-2,2.6746271E-2,3.6955506E-2,4.357681E-2,5.7700135E-2,-1.2492824E-3,-1.2082148E-3,-1.1915667E-3,-1.0823442E-3,-1.1263727E-3,-9.758584E-4,-8.2927744E-4,-1.4670518E-3,-3.54491E-4,6.5352906E-5,-8.5282576E-4,-4.89068E-4,1.2697792E-4,-5.5743934E-4,-5.400451E-4,-1.3867312E-3,-2.0409311E-4,8.486495E-4,-1.7132134E-4,-1.3391408E-3,9.944788E-4,-2.2325054E-4,2.648334E-3,1.0258454E-3,-2.2421444E-4,7.2012766E-4,3.6284383E-3,1.0389643E-3,2.613754E-3,1.2431765E-3,4.3208767E-3,2.8095033E-3,7.7096117E-3,1.0754845E-2,3.449707E-3,7.725254E-3,9.352151E-3,7.2208843E-3,7.0743994E-3,1.2370452E-2,1.1524582E-2,1.5857782E-2,2.9963156E-2,7.886409E-3],"categories":[],"categories_nodes":[],"categories_segments":[],"categories_sizes":[],"default_left":[0,0,0,0,0,0,0,0,0,0,0,0,0,0,0,0,0,0,0,0,0,0,0,0,0,0,0,0,0,0,0,0,0,0,0,0,0,0,0,0,0,0,0,0,0,0,0,0,0,0,0,0,0,0,0,0,0,0,0,0,0,0,0,0,0,0,0,0,0,0,0,0,0,0,0,0,0,0,0,0,0,0,0,0,0,0,0,0,0,0,0,0,0,0,0],"id":5,"left_children":[1,3,5,7,9,11,13,15,17,19,21,23,25,-1,-1,27,29,31,33,35,37,39,41,43,45,47,49,51,53,55,57,59,61,63,65,67,69,71,73,75,77,79,81,-1,-1,83,85,87,89,91,93,-1,-1,-1,-1,-1,-1,-1,-1,-1,-1,-1,-1,-1,-1,-1,-1,-1,-1,-1,-1,-1,-1,-1,-1,-1,-1,-1,-1,-1,-1,-1,-1,-1,-1,-1,-1,-1,-1,-1,-1,-1,-1,-1,-1],"loss_changes":[3.0801785E0,5.1790696E-1,6.7033434E-1,5.958861E-2,9.550047E-2,2.5785732E-1,2.3425937E-2,3.165543E-3,9.933522E-3,9.806311E-3,2.8126687E-2,1.4289379E-2,2.3937225E-2,0E0,0E0,2.078116E-4,6.104484E-4,3.0005537E-3,5.6339563E-3,8.6741485E-3,5.283287E-3,2.8413786E-3,2.663809E-2,5.4701082E-3,2.4532199E-2,4.1430295E-3,1.9402623E-2,5.9902668E-5,1.5797466E-4,1.4641881E-4,5.9870444E-4,5.078451E-4,2.4138018E-3,6.7911968E-3,7.474278E-4,8.921959E-3,3.0022243E-3,2.7084583E-3,3.2579042E-3,1.1910888E-3,2.045182E-3,1.7441869E-2,7.459894E-3,0E0,0E0,1.0443628E-2,1.8923119E-2,1.7404184E-4,7.211894E-3,3.51969E-2,1.6298318E-1,0E0,0E0,0E0,0E0,0E0,0E0,0E0,0E0,0E0,0E0,0E0,0E0,0E0,0E0,0E0,0E0,0E0,0E0,0E0,0E0,0E0,0E0,0E0,0E0,0E0,0E0,0E0,0E0,0E0,0E0,0E0,0E0,0E0,0E0,0E0,0E0,0E0,0E0,0E0,0E0,0E0,0E0,0E0,0E0],"parents":[2147483647,0,0,1,1,2,2,3,3,4,4,5,5,6,6,7,7,8,8,9,9,10,10,11,11,12,12,15,15,16,16,17,17,18,18,19,19,20,20,21,21,22,22,23,23,24,24,25,25,26,26,27,27,28,28,29,29,30,30,31,31,32,32,33,33,34,34,35,35,36,36,37,37,38,38,39,39,40,40,41,41,42,42,45,45,46,46,47,47,48,48,49,49,50,50],"right_children":[2,4,6,8,10,12,14,16,18,20,22,24,26,-1,-1,28,30,32,34,36,38,40,42,44,46,48,50,52,54,56,58,60,62,64,66,68,70,72,74,76,78,80,82,-1,-1,84,86,88,90,92,94,-1,-1,-1,-1,-1,-1,-1,-1,-1,-1,-1,-1,-1,-1,-1,-1,-1,-1,-1,-1,-1,-1,-1,-1,-1,-1,-1,-1,-1,-1,-1,-1,-1,-1,-1,-1,-1,-1,-1,-1,-1,-1,-1,-1],"split_conditions":[1.1851728E-1,2.4734234E-2,6.028012E-2,8.070352E-3,4.6284854E-2,2.0800357E-1,2.857143E-1,2.4711972E-3,1.6908778E-2,6.4705884E-1,1.4492754E-2,1.4492754E-2,1.5834745E-2,5.7359904E-2,3.692437E-2,2.0482793E-2,3.4330555E-3,7.29927E-3,1E0,7.2463766E-2,6.375674E-3,7.221016E-2,2.087742E-2,1E0,8.695652E-2,2.2205588E-1,7.1428573E-1,1.4470975E-4,5.735294E-1,7.993231E-1,1E0,1.1855068E-2,8.759124E-2,6.4285713E-1,1.7298561E-3,1.4492754E-2,2.2205588E-1,1.9461477E-2,8.695652E-2,1.8517012E-2,8.582473E-3,8.695652E-2,8.695652E-2,5.6656315E-3,2.4309035E-3,1.799076E-1,5.652174E-1,8.695652E-2,1.4492754E-2,5.735294E-1,1.9783588E-2,-1.2492824E-3,-1.2082148E-3,-1.1915667E-3,-1.0823442E-3,-1.1263727E-3,-9.758584E-4,-8.2927744E-4,-1.4670518E-3,-3.54491E-4,6.5352906E-5,-8.5282576E-4,-4.89068E-4,1.2697792E-4,-5.5743934E-4,-5.400451E-4,-1.3867312E-3,-2.0409311E-4,8.486495E-4,-1.7132134E-4,-1.3391408E-3,9.944788E-4,-2.2325054E-4,2.648334E-3,1.0258454E-3,-2.2421444E-4,7.2012766E-4,3.6284383E-3,1.0389643E-3,2.613754E-3,1.2431765E-3,4.3208767E-3,2.8095033E-3,7.7096117E-3,1.0754845E-2,3.449707E-3,7.725254E-3,9.352151E-3,7.2208843E-3,7.0743994E-3,1.2370452E-2,1.1524582E-2,1.5857782E-2,2.9963156E-2,7.886409E-3],"split_indices":[0,0,2,0,0,0,3,0,0,27,26,26,2,0,0,32,20,4,31,26,20,0,24,12,26,31,30,0,27,8,31,0,4,30,2,26,31,2,26,24,2,26,26,0,0,0,26,26,26,27,2,0,0,0,0,0,0,0,0,0,0,0,0,0,0,0,0,0,0,0,0,0,0,0,0,0,0,0,0,0,0,0,0,0,0,0,0,0,0,0,0,0,0,0,0],"split_type":[0,0,0,0,0,0,0,0,0,0,0,0,0,0,0,0,0,0,0,0,0,0,0,0,0,0,0,0,0,0,0,0,0,0,0,0,0,0,0,0,0,0,0,0,0,0,0,0,0,0,0,0,0,0,0,0,0,0,0,0,0,0,0,0,0,0,0,0,0,0,0,0,0,0,0,0,0,0,0,0,0,0,0,0,0,0,0,0,0,0,0,0,0,0,0],"sum_hessian":[5.9165E4,5.6619E4,2.546E3,4.4841E4,1.1778E4,2.506E3,4E1,3.0035E4,1.4806E4,6.231E3,5.547E3,1.387E3,1.119E3,2E1,2E1,2.4507E4,5.528E3,8.109E3,6.697E3,4.536E3,1.695E3,7.95E2,4.752E3,2.12E2,1.175E3,2.19E2,9E2,1.877E4,5.737E3,2.568E3,2.96E3,1.06E3,7.049E3,6.225E3,4.72E2,3.392E3,1.144E3,1.23E3,4.65E2,5.05E2,2.9E2,3.517E3,1.235E3,1.37E2,7.5E1,7.89E2,3.86E2,7.7E1,1.42E2,7.76E2,1.24E2,6E3,1.277E4,3.737E3,2E3,1.453E3,1.115E3,2.82E3,1.4E2,6.1E2,4.5E2,4.433E3,2.616E3,4.365E3,1.86E3,1.32E2,3.4E2,1.048E3,2.344E3,8.9E2,2.54E2,1.035E3,1.95E2,2.75E2,1.9E2,3.1E2,1.95E2,3E1,2.6E2,2.142E3,1.375E3,7.25E2,5.1E2,6.6E2,1.29E2,2.23E2,1.63E2,2.5E1,5.2E1,3.6E1,1.06E2,5.02E2,2.74E2,5.2E1,7.2E1],"tree_param":{"num_deleted":"0","num_feature":"37","num_nodes":"95","size_leaf_vector":"1"}},{"base_weights":[2.1876864E-5,-1.0532738E-3,2.3922548E-2,-1.8817282E-3,4.4538965E-3,2.242382E-2,1.149808E-1,-2.541782E-3,-7.3432595E-5,3.795369E-3,9.056645E-3,1.599819E-2,3.0366989E-2,4.0971354E-2,2.6374549E-2,-2.7797136E-3,-1.8040837E-3,-6.8105507E-4,1.2351424E-3,2.6988995E-3,6.494371E-3,2.801379E-2,8.607245E-3,1.4857191E-2,2.270145E-2,2.2690492E-2,3.199091E-2,-2.8265705E-3,-2.500573E-3,-1.9285387E-3,-2.9421E-4,-9.348389E-4,2.0367727E-3,2.0397245E-3,-4.5312862E-4,1.6840757E-3,5.95017E-3,4.350642E-3,8.608417E-3,1.457638E-2,1.4678813E-3,7.1580852E-3,1.2360399E-2,1.3084468E-2,1.9355971E-2,2.6036479E-2,3.734226E-3,3.710785E-2,3.2778622E-3,3.6337137E-2,2.5554314E-2,-8.639653E-4,-8.155147E-4,-5.64535E-4,-7.74035E-4,-6.5949897E-4,-4.139352E-4,-2.3582001E-4,5.103948E-4,-1.2779608E-4,-5.6892313E-4,3.364406E-4,1.4387947E-3,3.8121548E-4,1.0463309E-3,-3.045831E-4,3.008355E-4,-4.916581E-4,8.6682616E-4,4.6075922E-3,1.5431879E-3,1.1911914E-3,3.2489188E-3,1.7670797E-3,2.999877E-3,1.831423E-3,3.4492682E-3,2.8743525E-3,4.014691E-3,3.4577565E-3,5.0386097E-3,7.6177805E-3,4.4110366E-3,7.1548033E-3,1.0805454E-2,5.0094384E-3,1.5196801E-2,7.413186E-3,1.1355187E-2,5.309725E-3,9.86104E-3],"categories":[],"categories_nodes":[],"categories_segments":[],"categories_sizes":[],"default_left":[0,0,0,0,0,0,0,0,0,0,0,0,0,0,0,0,0,0,0,0,0,0,0,0,0,0,0,0,0,0,0,0,0,0,0,0,0,0,0,0,0,0,0,0,0,0,0,0,0,0,0,0,0,0,0,0,0,0,0,0,0,0,0,0,0,0,0,0,0,0,0,0,0,0,0,0,0,0,0,0,0,0,0,0,0,0,0,0,0,0,0],"id":6,"left_children":[1,3,5,7,9,11,13,15,17,19,21,23,25,-1,-1,27,29,31,33,35,37,39,41,43,45,47,49,51,53,55,57,59,61,63,65,67,69,71,73,-1,-1,75,77,79,81,83,-1,85,-1,87,89,-1,-1,-1,-1,-1,-1,-1,-1,-1,-1,-1,-1,-1,-1,-1,-1,-1,-1,-1,-1,-1,-1,-1,-1,-1,-1,-1,-1,-1,-1,-1,-1,-1,-1,-1,-1,-1,-1,-1,-1],"loss_changes":[1.5204034E0,2.5833365E-1,3.450147E-1,5.874388E-2,2.2407413E-2,1.2747097E-1,1.1951983E-2,6.323591E-3,1.0466205E-2,1.9156262E-2,7.64779E-3,1.0278732E-2,1.3236165E-2,0E0,0E0,3.4947693E-4,1.6523004E-3,6.201984E-3,5.6706895E-3,1.5197225E-2,8.441813E-3,9.751791E-3,4.8391894E-3,9.229124E-3,6.515406E-3,3.3346936E-2,2.4864256E-2,1.2677908E-4,1.8843263E-4,1.2000147E-3,6.599324E-4,4.0221964E-3,1.934218E-3,3.14359E-3,1.1042745E-3,1.40793E-2,8.234378E-3,2.249198E-3,3.499411E-3,0E0,0E0,2.9283576E-3,5.8464706E-4,4.7574043E-3,9.007201E-3,2.4156943E-3,0E0,2.3763873E-2,0E0,8.707583E-3,2.0968527E-2,0E0,0E0,0E0,0E0,0E0,0E0,0E0,0E0,0E0,0E0,0E0,0E0,0E0,0E0,0E0,0E0,0E0,0E0,0E0,0E0,0E0,0E0,0E0,0E0,0E0,0E0,0E0,0E0,0E0,0E0,0E0,0E0,0E0,0E0,0E0,0E0,0E0,0E0,0E0,0E0],"parents":[2147483647,0,0,1,1,2,2,3,3,4,4,5,5,6,6,7,7,8,8,9,9,10,10,11,11,12,12,15,15,16,16,17,17,18,18,19,19,20,20,21,21,22,22,23,23,24,24,25,25,26,26,27,27,28,28,29,29,30,30,31,31,32,32,33,33,34,34,35,35,36,36,37,37,38,38,41,41,42,42,43,43,44,44,45,45,47,47,49,49,50,50],"right_children":[2,4,6,8,10,12,14,16,18,20,22,24,26,-1,-1,28,30,32,34,36,38,40,42,44,46,48,50,52,54,56,58,60,62,64,66,68,70,72,74,-1,-1,76,78,80,82,84,-1,86,-1,88,90,-1,-1,-1,-1,-1,-1,-1,-1,-1,-1,-1,-1,-1,-1,-1,-1,-1,-1,-1,-1,-1,-1,-1,-1,-1,-1,-1,-1,-1,-1,-1,-1,-1,-1,-1,-1,-1,-1,-1,-1],"split_conditions":[1.1851728E-1,3.7401903E-2,6.028012E-2,1.4259475E-2,8.704848E-2,2.0800357E-1,2.857143E-1,5.6548114E-3,8.0432665E-1,6.4705884E-1,1.6272578E-3,7.1428573E-1,1.4492754E-2,4.0971354E-2,2.6374549E-2,2.0927256E-3,3.403641E-2,1E0,7.1428573E-1,7.1428573E-1,5.452218E-2,2.8985508E-2,5.735294E-1,1.3189855E-2,1.5834745E-2,1.9783588E-2,8.695652E-2,5.735294E-1,7.29927E-3,5.735294E-1,1E0,9.42029E-2,2.0370679E-2,2.6493015E-2,6.4705884E-1,5.898213E-3,1.8070675E-1,1E0,1.8517012E-2,1.457638E-2,1.4678813E-3,7.1428573E-1,2.1691356E-2,5.735294E-1,9.673941E-1,1.799076E-1,3.734226E-3,1.5834745E-2,3.2778622E-3,1.6943815E-1,5.652174E-1,-8.639653E-4,-8.155147E-4,-5.64535E-4,-7.74035E-4,-6.5949897E-4,-4.139352E-4,-2.3582001E-4,5.103948E-4,-1.2779608E-4,-5.6892313E-4,3.364406E-4,1.4387947E-3,3.8121548E-4,1.0463309E-3,-3.045831E-4,3.008355E-4,-4.916581E-4,8.6682616E-4,4.6075922E-3,1.5431879E-3,1.1911914E-3,3.2489188E-3,1.7670797E-3,2.999877E-3,1.831423E-3,3.4492682E-3,2.8743525E-3,4.014691E-3,3.4577565E-3,5.0386097E-3,7.6177805E-3,4.4110366E-3,7.1548033E-3,1.0805454E-2,5.0094384E-3,1.5196801E-2,7.413186E-3,1.1355187E-2,5.309725E-3,9.86104E-3],"split_indices":[0,0,2,0,0,0,3,0,8,27,2,30,26,0,0,0,2,10,9,30,0,26,27,2,2,2,26,27,4,27,29,26,0,0,27,2,34,10,24,0,0,30,24,27,34,0,0,2,0,34,26,0,0,0,0,0,0,0,0,0,0,0,0,0,0,0,0,0,0,0,0,0,0,0,0,0,0,0,0,0,0,0,0,0,0,0,0,0,0,0,0],"split_type":[0,0,0,0,0,0,0,0,0,0,0,0,0,0,0,0,0,0,0,0,0,0,0,0,0,0,0,0,0,0,0,0,0,0,0,0,0,0,0,0,0,0,0,0,0,0,0,0,0,0,0,0,0,0,0,0,0,0,0,0,0,0,0,0,0,0,0,0,0,0,0,0,0,0,0,0,0,0,0,0,0,0,0,0,0,0,0,0,0,0,0],"sum_hessian":[5.9165E4,5.6619E4,2.546E3,4.9216E4,7.403E3,2.506E3,4E1,3.6055E4,1.3161E4,6.478E3,9.25E2,1.387E3,1.119E3,2E1,2E1,2.726E4,8.795E3,8.988E3,4.173E3,4.608E3,1.87E3,2E1,9.05E2,1.188E3,1.99E2,1.98E2,9.21E2,2.3334E4,3.926E3,8.125E3,6.7E2,8.221E3,7.67E2,2.826E3,1.347E3,3.513E3,1.095E3,9.3E2,9.4E2,1E1,1E1,6.55E2,2.5E2,8.55E2,3.33E2,1.49E2,5E1,8.8E1,1.1E2,5.47E2,3.74E2,1.5614E4,7.72E3,4.5E2,3.476E3,5.445E3,2.68E3,5.38E2,1.32E2,5.377E3,2.844E3,5.77E2,1.9E2,1.847E3,9.79E2,9.72E2,3.75E2,9.35E2,2.578E3,8.5E1,1.01E3,8.8E2,5E1,3.2E2,6.2E2,5.29E2,1.26E2,7E1,1.8E2,6.05E2,2.5E2,1.43E2,1.9E2,1.25E2,2.4E1,3.6E1,5.2E1,6.5E1,4.82E2,1.82E2,1.92E2],"tree_param":{"num_deleted":"0","num_feature":"37","num_nodes":"91","size_leaf_vector":"1"}},{"base_weights":[1.8856748E-5,-7.3653867E-4,1.6811345E-2,-1.4187059E-3,2.654449E-3,1.573642E-2,8.2129136E-2,-1.7793532E-3,-2.4529456E-4,1.5231533E-3,4.2560333E-3,1.1229152E-2,2.1308161E-2,2.9265255E-2,1.8838953E-2,-1.9459103E-3,-1.2629491E-3,-2.3382222E-3,-5.09788E-6,8.253833E-4,3.181445E-3,1.3317582E-3,5.1256255E-3,1.2474054E-2,7.9769E-3,2.0138023E-2,2.8153028E-2,-1.9984834E-3,-1.8081645E-3,-2.1427344E-3,-1.1280883E-3,-1.3410979E-3,-3.4034895E-3,-1.6618695E-3,2.8483284E-4,1.4171889E-3,-1.1158652E-3,2.5881908E-3,4.9577975E-3,-4.675972E-3,1.635778E-3,5.5972626E-3,-3.2990135E-3,6.839032E-3,1.397758E-2,4.3674307E-3,1.2858268E-2,1.4594897E-2,2.3921447E-2,4.493266E-2,2.1930034E-3,-6.062878E-4,-5.644915E-4,-6.5045105E-4,-5.226137E-4,1.6883388E-4,-6.658325E-4,-2.234128E-4,-5.204721E-4,-5.337921E-4,-1.572423E-5,-9.066051E-4,-1.3998655E-3,1.3404777E-3,-6.470909E-4,2.891457E-4,-2.1781315E-4,-1.4143865E-4,6.6421414E-4,-1.094708E-3,-1.4716035E-4,5.039602E-4,1.0929311E-3,9.943978E-4,2.1398782E-3,2.4774278E-4,1.6718616E-3,1.0601004E-2,1.644216E-3,-1.5788812E-3,-4.575278E-4,2.8399264E-3,5.934776E-4,6.7522298E-3,3.8546196E-3,9.981594E-4,3.024791E-3,4.261073E-3,9.062982E-4,7.1880477E-3,3.7238514E-3,3.3901825E-3,8.245683E-3,6.924897E-3,1.7801527E-2],"categories":[],"categories_nodes":[],"categories_segments":[],"categories_sizes":[],"default_left":[0,0,0,0,0,0,0,0,0,0,0,0,0,0,0,0,0,0,0,0,0,0,0,0,0,0,0,0,0,0,0,0,0,0,0,0,0,0,0,0,0,0,0,0,0,0,0,0,0,0,0,0,0,0,0,0,0,0,0,0,0,0,0,0,0,0,0,0,0,0,0,0,0,0,0,0,0,0,0,0,0,0,0,0,0,0,0,0,0,0,0,0,0,0,0],"id":7,"left_children":[1,3,5,7,9,11,13,15,17,19,21,23,25,-1,-1,27,29,31,33,35,37,39,41,43,45,47,49,51,53,55,57,59,61,63,65,67,69,71,73,-1,75,77,79,81,83,85,87,89,91,93,-1,-1,-1,-1,-1,-1,-1,-1,-1,-1,-1,-1,-1,-1,-1,-1,-1,-1,-1,-1,-1,-1,-1,-1,-1,-1,-1,-1,-1,-1,-1,-1,-1,-1,-1,-1,-1,-1,-1,-1,-1,-1,-1,-1,-1],"loss_changes":[7.5053126E-1,1.3097832E-1,1.7753708E-1,1.994779E-2,1.7175436E-2,6.271988E-2,6.0979724E-3,3.0987412E-3,5.5715707E-3,6.4297263E-3,9.974159E-3,5.520135E-3,8.403659E-3,0E0,0E0,1.9379705E-4,1.041214E-3,1.2074104E-3,4.7765835E-3,4.498148E-3,1.7217714E-3,4.6597957E-3,1.2037925E-2,8.3937645E-3,6.7624506E-3,1.9784003E-2,5.5979386E-2,4.799664E-5,1.7572194E-4,2.4364656E-4,1.7735297E-3,3.336519E-4,2.5131367E-4,4.5045144E-3,5.8094594E-3,4.516005E-3,1.447628E-3,1.178218E-3,1.4452878E-3,0E0,2.8207833E-3,9.73621E-3,5.5287266E-4,2.7015274E-3,7.3176473E-3,1.2981654E-3,2.1274984E-3,7.7133253E-3,2.5284588E-2,2.6644036E-2,0E0,0E0,0E0,0E0,0E0,0E0,0E0,0E0,0E0,0E0,0E0,0E0,0E0,0E0,0E0,0E0,0E0,0E0,0E0,0E0,0E0,0E0,0E0,0E0,0E0,0E0,0E0,0E0,0E0,0E0,0E0,0E0,0E0,0E0,0E0,0E0,0E0,0E0,0E0,0E0,0E0,0E0,0E0,0E0,0E0],"parents":[2147483647,0,0,1,1,2,2,3,3,4,4,5,5,6,6,7,7,8,8,9,9,10,10,11,11,12,12,15,15,16,16,17,17,18,18,19,19,20,20,21,21,22,22,23,23,24,24,25,25,26,26,27,27,28,28,29,29,30,30,31,31,32,32,33,33,34,34,35,35,36,36,37,37,38,38,40,40,41,41,42,42,43,43,44,44,45,45,46,46,47,47,48,48,49,49],"right_children":[2,4,6,8,10,12,14,16,18,20,22,24,26,-1,-1,28,30,32,34,36,38,40,42,44,46,48,50,52,54,56,58,60,62,64,66,68,70,72,74,-1,76,78,80,82,84,86,88,90,92,94,-1,-1,-1,-1,-1,-1,-1,-1,-1,-1,-1,-1,-1,-1,-1,-1,-1,-1,-1,-1,-1,-1,-1,-1,-1,-1,-1,-1,-1,-1,-1,-1,-1,-1,-1,-1,-1,-1,-1,-1,-1,-1,-1,-1,-1],"split_conditions":[1.1851728E-1,3.134636E-2,6.028012E-2,1.4259475E-2,5.6681693E-2,2.0800357E-1,2.857143E-1,5.6548114E-3,1.8013972E-1,5.735294E-1,1.8013972E-1,8.695652E-2,7.1428573E-1,2.9265255E-2,1.8838953E-2,2.1289172E-2,1.4492754E-2,1.8044192E-2,1.4492754E-2,7.2463766E-2,5.0192017E-2,4.8404627E-2,1E0,1.4492754E-2,5.652174E-1,1.269296E-1,1.9783588E-2,3.4096062E-3,1.4492754E-2,7.246377E-3,9.42029E-2,1.12118535E-2,2.8084822E-2,2.857143E-1,9.42029E-2,1.4492754E-2,4.4927537E-1,7.993231E-1,5.885238E-3,-4.675972E-3,9.066622E-2,1.6272578E-3,6.7557186E-2,1E0,3.9132033E-3,1.3189855E-2,1.5834745E-2,1.4492754E-2,1.4492754E-2,2.4298993E-1,2.1930034E-3,-6.062878E-4,-5.644915E-4,-6.5045105E-4,-5.226137E-4,1.6883388E-4,-6.658325E-4,-2.234128E-4,-5.204721E-4,-5.337921E-4,-1.572423E-5,-9.066051E-4,-1.3998655E-3,1.3404777E-3,-6.470909E-4,2.891457E-4,-2.1781315E-4,-1.4143865E-4,6.6421414E-4,-1.094708E-3,-1.4716035E-4,5.039602E-4,1.0929311E-3,9.943978E-4,2.1398782E-3,2.4774278E-4,1.6718616E-3,1.0601004E-2,1.644216E-3,-1.5788812E-3,-4.575278E-4,2.8399264E-3,5.934776E-4,6.7522298E-3,3.8546196E-3,9.981594E-4,3.024791E-3,4.261073E-3,9.062982E-4,7.1880477E-3,3.7238514E-3,3.3901825E-3,8.245683E-3,6.924897E-3,1.7801527E-2],"split_indices":[0,0,2,0,0,0,3,0,10,27,10,26,30,0,0,32,26,0,26,26,0,33,31,26,26,32,2,2,26,26,26,2,0,30,26,26,26,8,20,0,0,2,0,12,36,2,2,26,26,0,0,0,0,0,0,0,0,0,0,0,0,0,0,0,0,0,0,0,0,0,0,0,0,0,0,0,0,0,0,0,0,0,0,0,0,0,0,0,0,0,0,0,0,0,0],"split_type":[0,0,0,0,0,0,0,0,0,0,0,0,0,0,0,0,0,0,0,0,0,0,0,0,0,0,0,0,0,0,0,0,0,0,0,0,0,0,0,0,0,0,0,0,0,0,0,0,0,0,0,0,0,0,0,0,0,0,0,0,0,0,0,0,0,0,0,0,0,0,0,0,0,0,0,0,0,0,0,0,0,0,0,0,0,0,0,0,0,0,0,0,0,0,0],"sum_hessian":[5.9165E4,5.6619E4,2.546E3,4.7137E4,9.482E3,2.506E3,4E1,3.6055E4,1.1082E4,5.558E3,3.924E3,1.387E3,1.119E3,2E1,2E1,2.726E4,8.795E3,1.14E3,9.942E3,3.913E3,1.645E3,9E2,3.024E3,1.001E3,3.86E2,9.59E2,1.6E2,1.972E4,7.54E3,1.167E3,7.628E3,5.9E2,5.5E2,1.48E3,8.462E3,2.999E3,9.14E2,1.235E3,4.1E2,1.5E1,8.85E2,2.864E3,1.6E2,2.12E2,7.89E2,2.23E2,1.63E2,3.91E2,5.68E2,8.8E1,7.2E1,1.6525E4,3.195E3,1.165E3,6.375E3,3.2E1,1.135E3,4.676E3,2.952E3,4.4E2,1.5E2,4.25E2,1.25E2,1.1E2,1.37E3,5.062E3,3.4E3,8.9E2,2.109E3,1.8E2,7.34E2,6.65E2,5.7E2,2.35E2,1.75E2,7.35E2,1.5E2,1E1,2.854E3,7.5E1,8.5E1,1.37E2,7.5E1,9E1,6.99E2,1.9E2,3.3E1,1.43E2,2E1,7.2E1,3.19E2,1.26E2,4.42E2,3.6E1,5.2E1],"tree_param":{"num_deleted":"0","num_feature":"37","num_nodes":"95","size_leaf_vector":"1"}},{"base_weights":[1.533937E-5,-5.154749E-4,1.1815373E-2,-1.0880046E-3,1.5029259E-3,1.1044493E-2,5.866369E-2,-1.342528E-3,-5.802145E-4,1.1487445E-3,4.340653E-3,7.0288833E-3,1.4415157E-2,2.0903762E-2,1.34564E-2,6.572224E-5,-1.3489396E-3,-9.150125E-4,1.5672897E-4,-1.3929035E-3,1.4925278E-3,2.7834988E-4,5.1055746E-3,-6.98527E-4,7.3820483E-3,6.2202527E-3,1.5238231E-2,-1.3813351E-3,-1.139843E-3,-1.3774207E-3,-2.5429887E-5,1.4281804E-3,-7.558313E-5,-1.8274806E-3,-8.1024955E-5,1.6815114E-3,-2.322207E-3,5.406577E-3,-5.554375E-4,6.723999E-3,2.6963046E-3,-6.23452E-4,2.1239572E-4,1.2434313E-2,6.689265E-3,2.2941628E-3,5.180845E-3,1.6770141E-2,1.2002703E-2,-4.3368764E-4,-3.9317773E-4,-3.3338182E-4,-6.808771E-4,-5.2361214E-4,-1.9585821E-4,1.2392989E-4,-7.3478074E-4,3.1819218E-4,1.0912422E-3,-1.3748769E-4,1.505205E-4,-6.4858014E-4,-1.4816641E-4,-5.410983E-4,2.8235852E-3,3.1286385E-4,8.2378957E-4,-4.76263E-4,-9.3584904E-4,2.5449535E-3,1.2986598E-3,-1.1311416E-3,-1.4559596E-5,7.7098217E-3,1.923252E-3,8.9656794E-5,1.6947271E-3,5.040749E-3,7.307402E-4,1.3020213E-3,2.4920292E-3,1.6819794E-3,1.2439355E-3,3.330945E-3,5.5951406E-3,1.8660934E-3,5.1540346E-3],"categories":[],"categories_nodes":[],"categories_segments":[],"categories_sizes":[],"default_left":[0,0,0,0,0,0,0,0,0,0,0,0,0,0,0,0,0,0,0,0,0,0,0,0,0,0,0,0,0,0,0,0,0,0,0,0,0,0,0,0,0,0,0,0,0,0,0,0,0,0,0,0,0,0,0,0,0,0,0,0,0,0,0,0,0,0,0,0,0,0,0,0,0,0,0,0,0,0,0,0,0,0,0,0,0,0,0],"id":8,"left_children":[1,3,5,7,9,11,13,15,17,19,21,23,25,-1,-1,-1,27,29,31,33,35,37,39,41,43,45,47,49,51,53,55,57,59,61,63,65,67,69,71,73,75,-1,-1,77,79,-1,81,83,85,-1,-1,-1,-1,-1,-1,-1,-1,-1,-1,-1,-1,-1,-1,-1,-1,-1,-1,-1,-1,-1,-1,-1,-1,-1,-1,-1,-1,-1,-1,-1,-1,-1,-1,-1,-1,-1,-1],"loss_changes":[3.7059978E-1,6.54314E-2,9.1335535E-2,5.7000667E-3,1.257045E-2,3.3831596E-2,3.1112134E-3,2.9447302E-4,3.634187E-3,9.722837E-3,4.311571E-3,3.1326488E-3,9.091884E-3,0E0,0E0,0E0,1.96632E-4,4.1661216E-3,1.359417E-3,7.5582135E-4,7.068945E-3,9.479662E-4,4.536163E-3,1.00436315E-4,3.7529655E-3,1.4726259E-4,5.929947E-3,1.13312155E-4,1.243595E-4,1.7755097E-3,3.6840462E-3,5.734763E-4,8.601475E-4,4.4317218E-4,5.4297997E-3,6.345054E-3,2.6624533E-4,6.6063774E-5,3.110933E-4,3.9829835E-3,3.3325925E-3,0E0,0E0,5.6805424E-3,3.6345758E-3,0E0,1.0222662E-5,8.71183E-3,1.1898208E-2,0E0,0E0,0E0,0E0,0E0,0E0,0E0,0E0,0E0,0E0,0E0,0E0,0E0,0E0,0E0,0E0,0E0,0E0,0E0,0E0,0E0,0E0,0E0,0E0,0E0,0E0,0E0,0E0,0E0,0E0,0E0,0E0,0E0,0E0,0E0,0E0,0E0,0E0],"parents":[2147483647,0,0,1,1,2,2,3,3,4,4,5,5,6,6,7,7,8,8,9,9,10,10,11,11,12,12,16,16,17,17,18,18,19,19,20,20,21,21,22,22,23,23,24,24,25,25,26,26,27,27,28,28,29,29,30,30,31,31,32,32,33,33,34,34,35,35,36,36,37,37,38,38,39,39,40,40,43,43,44,44,46,46,47,47,48,48],"right_children":[2,4,6,8,10,12,14,16,18,20,22,24,26,-1,-1,-1,28,30,32,34,36,38,40,42,44,46,48,50,52,54,56,58,60,62,64,66,68,70,72,74,76,-1,-1,78,80,-1,82,84,86,-1,-1,-1,-1,-1,-1,-1,-1,-1,-1,-1,-1,-1,-1,-1,-1,-1,-1,-1,-1,-1,-1,-1,-1,-1,-1,-1,-1,-1,-1,-1,-1,-1,-1,-1,-1,-1,-1],"split_conditions":[1.1851728E-1,2.425558E-2,6.028012E-2,7.747537E-3,7.741971E-2,1.799076E-1,2.857143E-1,5.882353E-2,6.4705884E-1,1.8013972E-1,1.4492754E-2,5.882353E-2,1.1811934E-2,2.0903762E-2,1.34564E-2,6.572224E-5,4.3765426E-2,5.6037927E-1,7.29927E-3,6.264819E-2,1E0,8.582473E-3,8.695652E-2,1.3146324E-1,3.9132033E-3,2.8985508E-2,8.695652E-2,7.993231E-1,1E0,7.1428573E-1,2.9411766E-1,1.955808E-2,8.759124E-2,5.652174E-1,7.1428573E-1,4.3045584E-2,1.3755502E-1,8.704848E-2,9.730539E-2,1.6272578E-3,1E0,-6.23452E-4,2.1239572E-4,2.8985508E-2,3.529412E-1,2.2941628E-3,5.652174E-1,1.4492754E-2,5.652174E-1,-4.3368764E-4,-3.9317773E-4,-3.3338182E-4,-6.808771E-4,-5.2361214E-4,-1.9585821E-4,1.2392989E-4,-7.3478074E-4,3.1819218E-4,1.0912422E-3,-1.3748769E-4,1.505205E-4,-6.4858014E-4,-1.4816641E-4,-5.410983E-4,2.8235852E-3,3.1286385E-4,8.2378957E-4,-4.76263E-4,-9.3584904E-4,2.5449535E-3,1.2986598E-3,-1.1311416E-3,-1.4559596E-5,7.7098217E-3,1.923252E-3,8.9656794E-5,1.6947271E-3,5.040749E-3,7.307402E-4,1.3020213E-3,2.4920292E-3,1.6819794E-3,1.2439355E-3,3.330945E-3,5.5951406E-3,1.8660934E-3,5.1540346E-3],"split_indices":[0,0,2,0,0,0,3,27,27,10,26,27,2,0,0,0,32,31,4,0,31,2,26,0,36,26,26,8,31,30,27,0,4,26,30,0,33,0,10,2,26,0,0,26,27,0,26,26,26,0,0,0,0,0,0,0,0,0,0,0,0,0,0,0,0,0,0,0,0,0,0,0,0,0,0,0,0,0,0,0,0,0,0,0,0,0,0],"split_type":[0,0,0,0,0,0,0,0,0,0,0,0,0,0,0,0,0,0,0,0,0,0,0,0,0,0,0,0,0,0,0,0,0,0,0,0,0,0,0,0,0,0,0,0,0,0,0,0,0,0,0,0,0,0,0,0,0,0,0,0,0,0,0,0,0,0,0,0,0,0,0,0,0,0,0,0,0,0,0,0,0,0,0,0,0,0,0],"sum_hessian":[5.9165E4,5.6619E4,2.546E3,4.4108E4,1.2511E4,2.506E3,4E1,2.938E4,1.4728E4,1.1124E4,1.387E3,1.145E3,1.361E3,2E1,2E1,1.2E2,2.926E4,1.0127E4,4.601E3,1.325E3,9.799E3,2.2E2,1.167E3,5E1,1.095E3,1.25E2,1.236E3,2.533E4,3.93E3,6.663E3,3.464E3,7.1E2,3.891E3,9.95E2,3.3E2,9.337E3,4.62E2,3E1,1.9E2,6.97E2,4.7E2,2.5E1,2.5E1,1.3E2,9.65E2,5E1,7.5E1,8.36E2,4E2,1.326E4,1.207E4,3.835E3,9.5E1,4.418E3,2.245E3,2.934E3,5.3E2,6.1E2,1E2,2.34E3,1.551E3,7.95E2,2E2,2.8E2,5E1,5.837E3,3.5E3,2.42E2,2.2E2,6E0,2.4E1,2.5E1,1.65E2,1E1,6.87E2,2.6E2,2.1E2,9E1,4E1,3.95E2,5.7E2,5E1,2.5E1,2.1E2,6.26E2,1.9E2,2.1E2],"tree_param":{"num_deleted":"0","num_feature":"37","num_nodes":"87","size_leaf_vector":"1"}},{"base_weights":[1.2061231E-5,-4.1155188E-4,7.3218346E-3,-8.2035485E-4,7.7592634E-4,6.876619E-3,4.190263E-2,-8.6313556E-4,6.562431E-4,2.76008E-3,5.0402404E-4,4.48233E-3,1.0106145E-2,1.4931258E-2,9.611712E-3,-8.838637E-4,1.0185956E-3,9.944683E-4,-2.7545362E-3,3.8703713E-3,1.169621E-3,8.183066E-5,1.6320231E-3,1.4541382E-3,5.054926E-3,6.20763E-3,1.103784E-2,-5.63282E-4,-9.482461E-4,4.4288337E-3,5.7117693E-4,3.3697704E-4,3.7574954E-3,-1.3200683E-3,-2.1922833E-3,9.0196036E-4,4.4037066E-3,1.5160512E-3,-1.7448419E-3,7.2647342E-3,1.620631E-5,1.9054827E-3,1.3916425E-3,4.818543E-3,-8.2892046E-4,6.4268904E-3,2.455145E-3,5.4706996E-3,3.6048226E-3,1.6842728E-2,1.0328345E-2,-2.3340224E-4,1.7498013E-4,-3.1116547E-4,-2.2584382E-4,1.5850564E-3,1.021142E-3,8.107245E-4,7.522612E-5,4.269321E-4,-1.7483278E-4,8.605532E-4,1.3933454E-3,-7.263247E-4,-4.8455008E-4,-4.6770956E-4,8.0308324E-4,2.0263458E-3,1.0684328E-3,6.042461E-4,-7.406731E-5,-3.3768173E-4,-6.0789555E-4,1.1280974E-3,3.999154E-3,-1.5875507E-4,2.9619673E-4,4.5507023E-4,-8.985901E-4,9.1247977E-4,1.5315334E-3,-1.0805905E-4,-1.0557725E-3,3.962403E-3,1.7006593E-3,1.3477335E-4,1.6274308E-3,2.775819E-3,1.5003347E-3,2.1852073E-3,5.8001857E-3,1.1624923E-3,3.4687675E-3],"categories":[],"categories_nodes":[],"categories_segments":[],"categories_sizes":[],"default_left":[0,0,0,0,0,0,0,0,0,0,0,0,0,0,0,0,0,0,0,0,0,0,0,0,0,0,0,0,0,0,0,0,0,0,0,0,0,0,0,0,0,0,0,0,0,0,0,0,0,0,0,0,0,0,0,0,0,0,0,0,0,0,0,0,0,0,0,0,0,0,0,0,0,0,0,0,0,0,0,0,0,0,0,0,0,0,0,0,0,0,0,0,0],"id":9,"left_children":[1,3,5,7,9,11,13,15,17,19,21,23,25,-1,-1,27,29,31,33,35,37,39,41,43,45,47,49,51,53,55,57,59,61,-1,63,65,67,69,71,73,75,-1,77,79,81,83,85,87,-1,89,91,-1,-1,-1,-1,-1,-1,-1,-1,-1,-1,-1,-1,-1,-1,-1,-1,-1,-1,-1,-1,-1,-1,-1,-1,-1,-1,-1,-1,-1,-1,-1,-1,-1,-1,-1,-1,-1,-1,-1,-1,-1,-1],"loss_changes":[1.8321143E-1,2.714961E-2,4.9609974E-2,2.6286896E-3,7.725808E-3,2.4706185E-2,1.5873536E-3,1.5779808E-3,1.3547724E-3,3.0433703E-3,5.999459E-3,3.1830817E-3,4.8785806E-3,0E0,0E0,8.2491525E-4,6.7035016E-4,1.9371168E-3,8.8434725E-5,1.6045179E-3,7.2051195E-4,4.321433E-3,3.8836207E-3,2.2622477E-3,5.502075E-3,1.0685744E-3,4.3482035E-3,1.6477327E-3,5.782973E-4,2.6696012E-5,2.6633558E-4,8.629415E-4,1.4832383E-4,0E0,6.7850924E-6,6.8561593E-4,1.680702E-3,5.5898516E-4,1.0965989E-5,1.7142021E-3,4.812803E-3,0E0,1.7992137E-3,4.5069028E-5,2.2067138E-4,5.127076E-3,3.190392E-3,3.7463335E-4,0E0,2.6690885E-3,7.7687055E-3,0E0,0E0,0E0,0E0,0E0,0E0,0E0,0E0,0E0,0E0,0E0,0E0,0E0,0E0,0E0,0E0,0E0,0E0,0E0,0E0,0E0,0E0,0E0,0E0,0E0,0E0,0E0,0E0,0E0,0E0,0E0,0E0,0E0,0E0,0E0,0E0,0E0,0E0,0E0,0E0,0E0,0E0],"parents":[2147483647,0,0,1,1,2,2,3,3,4,4,5,5,6,6,7,7,8,8,9,9,10,10,11,11,12,12,15,15,16,16,17,17,18,18,19,19,20,20,21,21,22,22,23,23,24,24,25,25,26,26,27,27,28,28,29,29,30,30,31,31,32,32,34,34,35,35,36,36,37,37,38,38,39,39,40,40,42,42,43,43,44,44,45,45,46,46,47,47,49,49,50,50],"right_children":[2,4,6,8,10,12,14,16,18,20,22,24,26,-1,-1,28,30,32,34,36,38,40,42,44,46,48,50,52,54,56,58,60,62,-1,64,66,68,70,72,74,76,-1,78,80,82,84,86,88,-1,90,92,-1,-1,-1,-1,-1,-1,-1,-1,-1,-1,-1,-1,-1,-1,-1,-1,-1,-1,-1,-1,-1,-1,-1,-1,-1,-1,-1,-1,-1,-1,-1,-1,-1,-1,-1,-1,-1,-1,-1,-1,-1,-1],"split_conditions":[9.066622E-2,2.1405911E-2,6.028012E-2,8.928365E-1,7.29927E-3,1.799076E-1,2.857143E-1,9.843832E-1,1E0,9.761663E-1,6.4705884E-1,1.4492754E-2,1.54673E-2,1.4931258E-2,9.611712E-3,7.29927E-3,7.246377E-3,1E0,1.4994156E-2,6.619376E-2,9.88394E-1,2.2222222E-1,9.730539E-2,1E0,8.695652E-2,7.1428573E-1,1.8013972E-1,1.09756775E-2,6.4705884E-1,2.857143E-1,1.8013972E-1,2.6297405E-1,7.2463766E-2,-1.3200683E-3,5.714286E-1,2.8985508E-2,2.8985508E-2,1E0,2.8985508E-2,7.1428573E-1,8.759124E-2,1.9054827E-3,7.1299404E-1,9.6042745E-2,1E0,3.9132033E-3,5.652174E-1,7.29927E-3,3.6048226E-3,1.9783588E-2,2.2205588E-1,-2.3340224E-4,1.7498013E-4,-3.1116547E-4,-2.2584382E-4,1.5850564E-3,1.021142E-3,8.107245E-4,7.522612E-5,4.269321E-4,-1.7483278E-4,8.605532E-4,1.3933454E-3,-7.263247E-4,-4.8455008E-4,-4.6770956E-4,8.0308324E-4,2.0263458E-3,1.0684328E-3,6.042461E-4,-7.406731E-5,-3.3768173E-4,-6.0789555E-4,1.1280974E-3,3.999154E-3,-1.5875507E-4,2.9619673E-4,4.5507023E-4,-8.985901E-4,9.1247977E-4,1.5315334E-3,-1.0805905E-4,-1.0557725E-3,3.962403E-3,1.7006593E-3,1.3477335E-4,1.6274308E-3,2.775819E-3,1.5003347E-3,2.1852073E-3,5.8001857E-3,1.1624923E-3,3.4687675E-3],"split_indices":[0,0,2,32,4,0,3,34,31,8,27,26,2,0,0,4,26,29,0,33,8,35,31,12,26,30,31,0,27,30,31,31,26,0,3,26,26,29,26,30,4,0,32,0,10,36,26,4,0,2,31,0,0,0,0,0,0,0,0,0,0,0,0,0,0,0,0,0,0,0,0,0,0,0,0,0,0,0,0,0,0,0,0,0,0,0,0,0,0,0,0,0,0],"split_type":[0,0,0,0,0,0,0,0,0,0,0,0,0,0,0,0,0,0,0,0,0,0,0,0,0,0,0,0,0,0,0,0,0,0,0,0,0,0,0,0,0,0,0,0,0,0,0,0,0,0,0,0,0,0,0,0,0,0,0,0,0,0,0,0,0,0,0,0,0,0,0,0,0,0,0,0,0,0,0,0,0,0,0,0,0,0,0,0,0,0,0,0,0],"sum_hessian":[5.9165E4,5.5925E4,3.24E3,4.1603E4,1.4322E4,3.2E3,4E1,4.0432E4,1.171E3,1.725E3,1.2597E4,1.839E3,1.361E3,2E1,2E1,3.9992E4,4.4E2,1.066E3,1.05E2,1.015E3,7.1E2,9.167E3,3.43E3,2.93E2,1.546E3,2.64E2,1.097E3,6.69E3,3.3302E4,5E1,3.9E2,8.62E2,2.04E2,2.5E1,8E1,1.55E2,8.6E2,6.35E2,7.5E1,8.2E1,9.085E3,1.65E2,3.265E3,1.18E2,1.75E2,1.011E3,5.35E2,2.36E2,2.8E1,1.17E2,9.8E2,5.635E3,1.055E3,2.2881E4,1.0421E4,2.5E1,2.5E1,5E1,3.4E2,3.95E2,4.67E2,1.04E2,1E2,5.5E1,2.5E1,6.5E1,9E1,2.25E2,6.35E2,4.95E2,1.4E2,2.5E1,5E1,5.3E1,2.9E1,5.818E3,3.267E3,3.175E3,9E1,1.8E1,1E2,1.5E2,2.5E1,1E2,9.11E2,3.2E2,2.15E2,2.4E1,2.12E2,2.5E1,9.2E1,1.58E2,8.22E2],"tree_param":{"num_deleted":"0","num_feature":"37","num_nodes":"93","size_leaf_vector":"1"}}]},"name":"gbtree"},"learner_model_param":{"base_score":"2.4493448E-2","boost_from_average":"1","num_class":"0","num_feature":"37","num_target":"1"},"objective":{"name":"reg:squarederror","reg_loss_param":{"scale_pos_weight":"1"}}},"version":[2,0,3]}