{"learner":{"attributes":{"best_iteration":"9","best_score":"0.0023588862495239"},"feature_names":[],"feature_types":[],"gradient_booster":{"model":{"gbtree_model_param":{"num_parallel_tree":"1","num_trees":"10"},"iteration_indptr":[0,1,2,3,4,5,6,7,8,9,10],"tree_info":[0,0,0,0,0,0,0,0,0,0],"trees":[{"base_weights":[-4.1333595E-10,-7.883261E-3,1.9379134E-1,-1.7316116E-2,2.9074501E-2,1.8076599E-1,2.703035E-1,-2.1577466E-2,-4.8799943E-3,2.0408493E-2,5.6661494E-2,1.3587426E-1,2.5069308E-1,-2.2941802E-2,-1.5265033E-2,-8.38653E-3,-3.7091345E-4,1.15620205E-2,3.0206209E-2,4.6544068E-2,7.079379E-2,1.2839004E-1,1.7289461E-1,1.9728948E-1,2.6521775E-1,-2.3439556E-2,-2.1315273E-2,-1.3301675E-2,-1.55986305E-2,-8.962325E-3,-2.4214939E-3,-1.0439806E-3,5.5943117E-3,2.4137735E-2,9.371965E-3,2.1449551E-2,3.4833547E-2,4.0440165E-2,6.1237734E-2,1.2009006E-1,6.8411395E-2,3.11951E-2,1.3427155E-1,3.86815E-2,2.0649059E-1,5.5710148E-2,7.414468E-2,9.5588826E-2,2.5639397E-1,-7.0758616E-3,-6.845611E-3,-6.5238136E-3,-5.9247306E-3,-3.3394203E-3,-4.2070644E-3,-5.143326E-3,-4.5871837E-3,-3.1467308E-3,-2.260352E-3,-1.3751304E-3,-1.0870681E-4,-4.5402357E-4,2.0636378E-3,-5.1314597E-5,2.675268E-3,1.2553533E-2,5.8925184E-3,7.6586346E-4,3.2055601E-3,1.0915995E-2,5.6302752E-3,1.4680811E-2,9.63486E-3,1.8080361E-2,1.1503231E-2,2.214669E-2,1.6016714E-2,4.2464253E-2,2.8204134E-2,2.1252692E-2,1.3866217E-2,4.0913634E-2,2.8757155E-2,5.705808E-2,7.414468E-2,6.784322E-2,7.9319715E-2],"categories":[],"categories_nodes":[],"categories_segments":[],"categories_sizes":[],"default_left":[0,0,0,0,0,0,0,0,0,0,0,0,0,0,0,0,0,0,0,0,0,0,0,0,0,0,0,0,0,0,0,0,0,0,0,0,0,0,0,0,0,0,0,0,0,0,0,0,0,0,0,0,0,0,0,0,0,0,0,0,0,0,0,0,0,0,0,0,0,0,0,0,0,0,0,0,0,0,0,0,0,0,0,0,0,0,0],"id":0,"left_children":[1,3,5,7,9,11,-1,13,15,17,19,21,23,25,27,29,31,33,35,37,39,41,43,45,47,49,51,53,55,57,59,61,63,65,67,69,71,73,75,77,79,-1,81,-1,83,-1,-1,-1,85,-1,-1,-1,-1,-1,-1,-1,-1,-1,-1,-1,-1,-1,-1,-1,-1,-1,-1,-1,-1,-1,-1,-1,-1,-1,-1,-1,-1,-1,-1,-1,-1,-1,-1,-1,-1,-1,-1],"loss_changes":[8.914785E1,1.9548517E1,2.0849228E1,2.3672714E0,2.7247086E0,7.000763E0,0E0,2.8618813E-1,1.8027687E-1,7.518182E-1,3.863325E-1,3.5655594E-1,6.263809E-1,2.1647453E-2,3.6672354E-3,2.2008091E-2,2.003666E-2,1.2541813E-1,1.6607356E-1,1.4021826E-1,1.2508297E-1,1.4982414E-1,3.08599E-1,6.446791E-2,2.4114227E-1,1.367569E-3,3.9026737E-3,1.2006313E-3,2.1426678E-3,1.267156E-2,2.5184092E-3,1.6687294E-2,9.696348E-3,5.299613E-2,3.478107E-2,5.644381E-2,1.0158968E-1,4.452741E-2,4.1988015E-2,1.5228689E-2,5.525446E-2,0E0,6.107521E-2,0E0,3.7145615E-2,0E0,0E0,0E0,8.380127E-2,0E0,0E0,0E0,0E0,0E0,0E0,0E0,0E0,0E0,0E0,0E0,0E0,0E0,0E0,0E0,0E0,0E0,0E0,0E0,0E0,0E0,0E0,0E0,0E0,0E0,0E0,0E0,0E0,0E0,0E0,0E0,0E0,0E0,0E0,0E0,0E0,0E0,0E0],"parents":[2147483647,0,0,1,1,2,2,3,3,4,4,5,5,7,7,8,8,9,9,10,10,11,11,12,12,13,13,14,14,15,15,16,16,17,17,18,18,19,19,20,20,21,21,22,22,23,23,24,24,25,25,26,26,27,27,28,28,29,29,30,30,31,31,32,32,33,33,34,34,35,35,36,36,37,37,38,38,39,39,40,40,42,42,44,44,48,48],"right_children":[2,4,6,8,10,12,-1,14,16,18,20,22,24,26,28,30,32,34,36,38,40,42,44,46,48,50,52,54,56,58,60,62,64,66,68,70,72,74,76,78,80,-1,82,-1,84,-1,-1,-1,86,-1,-1,-1,-1,-1,-1,-1,-1,-1,-1,-1,-1,-1,-1,-1,-1,-1,-1,-1,-1,-1,-1,-1,-1,-1,-1,-1,-1,-1,-1,-1,-1,-1,-1,-1,-1,-1,-1],"split_conditions":[1.2137808E-1,2.7728613E-2,6.012741E-2,1.077531E-2,6.7145325E-2,2.1710914E-1,2.703035E-1,4.9757888E-3,1.8790005E-2,4.022931E-2,8.642511E-2,1.8070908E-1,1.5835939E-2,1.4359659E-3,1.8013972E-1,1E0,9.7190285E-1,1.7405931E-3,3.816766E-2,9.6372837E-1,1.6678199E-3,1.4492754E-2,1.3200591E-2,7.1428573E-1,1.8013972E-1,6.9015415E-4,3.2281405E-3,1.2514615E-3,1.4492754E-2,1.12118535E-2,1.4415317E-2,9.8806256E-1,1.9313185E-2,1.8013972E-1,1.4492754E-2,1.8013972E-1,1.8612774E-1,1.8013972E-1,1.1508912E-2,2.8985508E-2,1.1661616E-2,3.11951E-2,1E0,3.86815E-2,7.1428573E-1,5.5710148E-2,7.414468E-2,9.5588826E-2,1.4492754E-2,-7.0758616E-3,-6.845611E-3,-6.5238136E-3,-5.9247306E-3,-3.3394203E-3,-4.2070644E-3,-5.143326E-3,-4.5871837E-3,-3.1467308E-3,-2.260352E-3,-1.3751304E-3,-1.0870681E-4,-4.5402357E-4,2.0636378E-3,-5.1314597E-5,2.675268E-3,1.2553533E-2,5.8925184E-3,7.6586346E-4,3.2055601E-3,1.0915995E-2,5.6302752E-3,1.4680811E-2,9.63486E-3,1.8080361E-2,1.1503231E-2,2.214669E-2,1.6016714E-2,4.2464253E-2,2.8204134E-2,2.1252692E-2,1.3866217E-2,4.0913634E-2,2.8757155E-2,5.705808E-2,7.414468E-2,6.784322E-2,7.9319715E-2],"split_indices":[0,0,2,0,0,0,0,0,0,0,0,0,2,0,16,10,8,2,21,19,2,11,2,15,16,0,0,2,11,2,0,19,0,16,11,16,16,16,2,11,2,0,16,0,15,0,0,0,11,0,0,0,0,0,0,0,0,0,0,0,0,0,0,0,0,0,0,0,0,0,0,0,0,0,0,0,0,0,0,0,0,0,0,0,0,0,0],"split_type":[0,0,0,0,0,0,0,0,0,0,0,0,0,0,0,0,0,0,0,0,0,0,0,0,0,0,0,0,0,0,0,0,0,0,0,0,0,0,0,0,0,0,0,0,0,0,0,0,0,0,0,0,0,0,0,0,0,0,0,0,0,0,0,0,0,0,0,0,0,0,0,0,0,0,0,0,0,0,0,0,0,0,0,0,0,0,0],"sum_hessian":[5.8352E4,5.6072E4,2.28E3,4.4671E4,1.1401E4,2.24E3,4E1,3.327E4,1.1401E4,8.677E3,2.724E3,1.366E3,8.74E2,2.7355E4,5.915E3,6.413E3,4.988E3,4.561E3,4.116E3,1.59E3,1.134E3,1.14E3,2.26E2,1.9E2,6.84E2,2.0935E4,6.42E3,8.65E2,5.05E3,5.848E3,5.65E2,4.483E3,5.05E2,6.75E2,3.886E3,1.425E3,2.691E3,1.126E3,4.64E2,5E1,1.084E3,2.25E2,9.15E2,1E2,1.26E2,1.58E2,3.2E1,9.2E1,5.92E2,1.6905E4,4.03E3,5.025E3,1.395E3,2.2E2,6.45E2,8.3E2,4.22E3,2.823E3,3.025E3,2.75E2,2.9E2,4.233E3,2.5E2,1.85E2,3.2E2,1.35E2,5.4E2,6.28E2,3.258E3,2.15E2,1.21E3,4.32E2,2.259E3,1.05E2,1.021E3,1.75E2,2.89E2,2.5E1,2.5E1,9.75E2,1.09E2,8.65E2,5E1,9.4E1,3.2E1,1.3E2,4.62E2],"tree_param":{"num_deleted":"0","num_feature":"22","num_nodes":"87","size_leaf_vector":"1"}},{"base_weights":[1.8921886E-5,-5.514885E-3,1.3605449E-1,-1.2122317E-2,2.037292E-2,1.2682328E-1,1.9119024E-1,-1.5143468E-2,-3.509613E-3,9.379465E-3,3.1326234E-2,9.531004E-2,1.7591101E-1,-1.6060224E-2,-1.07533485E-2,-5.9612067E-3,-2.5879097E-4,1.9152394E-2,7.937831E-3,2.4673682E-2,4.5489497E-2,8.9961424E-2,1.21774614E-1,1.387825E-1,1.8600681E-1,-1.644121E-2,-1.50065385E-2,-9.407861E-3,-1.0979985E-2,-8.271014E-3,-5.08922E-3,2.7732045E-4,-6.199525E-3,8.989017E-3,1.5024027E-2,1.2229863E-2,5.910381E-3,1.8341472E-2,3.0022996E-2,5.0210528E-2,3.348974E-2,8.0726296E-2,9.9039E-2,9.063981E-2,1.455765E-1,3.9102215E-2,5.2575324E-2,1.744958E-1,2.0907226E-1,-4.9865195E-3,-4.863711E-3,-4.642824E-3,-4.260231E-3,-2.458702E-3,-3.0754507E-3,-3.2627617E-3,-4.0446804E-3,-3.3251292E-3,-1.9589458E-3,-2.4332618E-3,-1.3368253E-3,-1.040264E-3,3.0504528E-4,-1.5326294E-3,-2.7931258E-3,3.3461056E-3,6.0593775E-3,2.9053618E-3,6.408186E-3,1.9215201E-3,-6.4146507E-4,7.7653076E-3,4.533929E-3,1.2013752E-2,8.348561E-3,2.5634607E-2,1.4622262E-2,1.37677E-2,9.529424E-3,2.202421E-2,2.6181528E-2,3.202458E-2,2.5123162E-2,2.3454776E-2,3.0395934E-2,4.0120836E-2,5.2575324E-2,4.7645617E-2,5.4041717E-2,4.8434097E-2,6.389073E-2],"categories":[],"categories_nodes":[],"categories_segments":[],"categories_sizes":[],"default_left":[0,0,0,0,0,0,0,0,0,0,0,0,0,0,0,0,0,0,0,0,0,0,0,0,0,0,0,0,0,0,0,0,0,0,0,0,0,0,0,0,0,0,0,0,0,0,0,0,0,0,0,0,0,0,0,0,0,0,0,0,0,0,0,0,0,0,0,0,0,0,0,0,0,0,0,0,0,0,0,0,0,0,0,0,0,0,0,0,0,0,0],"id":1,"left_children":[1,3,5,7,9,11,-1,13,15,17,19,21,23,25,27,29,31,33,35,37,39,41,43,45,47,49,51,53,55,57,59,61,63,-1,65,67,69,71,73,75,77,79,81,83,85,-1,-1,87,89,-1,-1,-1,-1,-1,-1,-1,-1,-1,-1,-1,-1,-1,-1,-1,-1,-1,-1,-1,-1,-1,-1,-1,-1,-1,-1,-1,-1,-1,-1,-1,-1,-1,-1,-1,-1,-1,-1,-1,-1,-1,-1],"loss_changes":[4.3928574E1,9.591642E0,1.0473621E1,1.1623249E0,1.372675E0,3.4498672E0,0E0,1.3292742E-1,9.246287E-2,8.004254E-2,5.369792E-1,1.825428E-1,3.0217552E-1,1.0734558E-2,1.6397238E-3,1.3279319E-2,1.5891163E-2,3.217566E-2,4.3106437E-2,1.3114738E-1,1.0165048E-1,8.765793E-2,1.5502691E-1,3.5958767E-2,1.4538956E-1,5.598068E-4,2.5330782E-3,7.658079E-4,1.1262298E-3,8.797087E-3,9.154469E-3,1.2678697E-2,1.3538431E-3,0E0,1.0407865E-2,3.6769107E-2,1.3439387E-2,4.3027163E-2,4.5206547E-2,6.35221E-2,9.624541E-3,2.0921946E-2,5.8392525E-2,5.515933E-3,2.118516E-2,0E0,0E0,1.235199E-2,7.003784E-3,0E0,0E0,0E0,0E0,0E0,0E0,0E0,0E0,0E0,0E0,0E0,0E0,0E0,0E0,0E0,0E0,0E0,0E0,0E0,0E0,0E0,0E0,0E0,0E0,0E0,0E0,0E0,0E0,0E0,0E0,0E0,0E0,0E0,0E0,0E0,0E0,0E0,0E0,0E0,0E0,0E0,0E0],"parents":[2147483647,0,0,1,1,2,2,3,3,4,4,5,5,7,7,8,8,9,9,10,10,11,11,12,12,13,13,14,14,15,15,16,16,17,17,18,18,19,19,20,20,21,21,22,22,23,23,24,24,25,25,26,26,27,27,28,28,29,29,30,30,31,31,32,32,34,34,35,35,36,36,37,37,38,38,39,39,40,40,41,41,42,42,43,43,44,44,47,47,48,48],"right_children":[2,4,6,8,10,12,-1,14,16,18,20,22,24,26,28,30,32,34,36,38,40,42,44,46,48,50,52,54,56,58,60,62,64,-1,66,68,70,72,74,76,78,80,82,84,86,-1,-1,88,90,-1,-1,-1,-1,-1,-1,-1,-1,-1,-1,-1,-1,-1,-1,-1,-1,-1,-1,-1,-1,-1,-1,-1,-1,-1,-1,-1,-1,-1,-1,-1,-1,-1,-1,-1,-1,-1,-1,-1,-1,-1,-1],"split_conditions":[1.2137808E-1,2.7728613E-2,6.012741E-2,1.0530417E-2,4.9234707E-2,2.1710914E-1,1.9119024E-1,4.9757888E-3,1.8790005E-2,1.8013972E-1,7.386876E-2,1.8070908E-1,1.5835939E-2,1.1910725E-3,1.8013972E-1,1.33355595E-2,1E0,1.7405931E-3,8.309274E-3,1.9981628E-2,1.1661616E-2,3.529412E-1,1.3200591E-2,7.1428573E-1,5.735294E-1,3.1168252E-4,2.4489341E-3,2.7498747E-3,1E0,9.286345E-3,1.4492754E-2,1.4492754E-2,6.3861515E-3,8.989017E-3,3.7401903E-2,7.1428573E-1,1E0,5.5543426E-2,1.8612774E-1,1.6678199E-3,1.8013972E-1,1E0,8.695652E-2,2.8985508E-2,7.1428573E-1,3.9102215E-2,5.2575324E-2,1.4492754E-2,1.9981628E-2,-4.9865195E-3,-4.863711E-3,-4.642824E-3,-4.260231E-3,-2.458702E-3,-3.0754507E-3,-3.2627617E-3,-4.0446804E-3,-3.3251292E-3,-1.9589458E-3,-2.4332618E-3,-1.3368253E-3,-1.040264E-3,3.0504528E-4,-1.5326294E-3,-2.7931258E-3,3.3461056E-3,6.0593775E-3,2.9053618E-3,6.408186E-3,1.9215201E-3,-6.4146507E-4,7.7653076E-3,4.533929E-3,1.2013752E-2,8.348561E-3,2.5634607E-2,1.4622262E-2,1.37677E-2,9.529424E-3,2.202421E-2,2.6181528E-2,3.202458E-2,2.5123162E-2,2.3454776E-2,3.0395934E-2,4.0120836E-2,5.2575324E-2,4.7645617E-2,5.4041717E-2,4.8434097E-2,6.389073E-2],"split_indices":[0,0,2,0,0,0,0,0,0,16,0,0,2,0,16,0,16,2,2,2,2,12,2,15,12,0,0,2,16,2,11,11,2,0,0,15,16,18,16,2,16,13,11,11,15,0,0,11,2,0,0,0,0,0,0,0,0,0,0,0,0,0,0,0,0,0,0,0,0,0,0,0,0,0,0,0,0,0,0,0,0,0,0,0,0,0,0,0,0,0,0],"split_type":[0,0,0,0,0,0,0,0,0,0,0,0,0,0,0,0,0,0,0,0,0,0,0,0,0,0,0,0,0,0,0,0,0,0,0,0,0,0,0,0,0,0,0,0,0,0,0,0,0,0,0,0,0,0,0,0,0,0,0,0,0,0,0,0,0,0,0,0,0,0,0,0,0,0,0,0,0,0,0,0,0,0,0,0,0,0,0,0,0,0,0],"sum_hessian":[5.8352E4,5.6072E4,2.28E3,4.4671E4,1.1401E4,2.24E3,4E1,3.307E4,1.1601E4,5.691E3,5.71E3,1.366E3,8.74E2,2.7355E4,5.715E3,6.613E3,4.988E3,7.3E2,4.961E3,3.887E3,1.823E3,1.14E3,2.26E2,1.9E2,6.84E2,2.008E4,7.275E3,8.3E2,4.885E3,1.81E3,4.803E3,4.576E3,4.12E2,2E2,5.3E2,1.59E3,3.371E3,1.782E3,2.105E3,1.306E3,5.17E2,5.7E2,5.7E2,1E2,1.26E2,1.58E2,3.2E1,4.62E2,2.22E2,1.1185E4,8.895E3,4.585E3,2.69E3,3.45E2,4.85E2,4.695E3,1.9E2,6.9E2,1.12E3,8.3E2,3.973E3,7.54E2,3.822E3,3.07E2,1.05E2,3.05E2,2.25E2,1.245E3,3.45E2,3.176E3,1.95E2,5.32E2,1.25E3,3.75E2,1.73E3,5E1,1.256E3,6E1,4.57E2,2.75E2,2.95E2,3.75E2,1.95E2,5E1,5E1,9.4E1,3.2E1,1.3E2,3.32E2,2E1,2.02E2],"tree_param":{"num_deleted":"0","num_feature":"22","num_nodes":"91","size_leaf_vector":"1"}},{"base_weights":[2.7439444E-5,-3.8590017E-3,9.556641E-2,-8.081857E-3,1.609089E-2,8.90251E-2,1.3523214E-1,-1.0601384E-2,-1.7727002E-3,1.2477339E-2,3.187749E-2,6.69013E-2,1.2348706E-1,-1.1235216E-2,-7.4433675E-3,-3.8659235E-3,1.3809758E-3,7.614057E-3,1.705109E-2,2.2330381E-2,3.5289846E-2,7.686061E-2,5.8383904E-2,9.7627744E-2,1.305172E-1,-1.1450643E-2,-1.0247543E-2,-8.573005E-3,-7.2175898E-3,-4.8762844E-3,-2.158326E-3,5.923382E-4,6.649959E-3,1.6149325E-2,6.3993265E-3,1.3697879E-2,2.2161158E-2,1.6157486E-2,2.9575363E-2,2.1507768E-2,3.7433665E-2,7.0173964E-2,1.0263345E-1,2.390902E-2,5.493464E-2,2.744533E-2,3.7280682E-2,4.825941E-2,1.2553771E-1,-3.4648178E-3,-3.3020966E-3,-3.1599093E-3,-2.8902458E-3,-2.245536E-3,-2.6406164E-3,-2.0313319E-3,-2.38632E-3,-1.5659318E-3,-3.8368796E-4,-8.4155763E-4,2.5576586E-4,2.943024E-4,-1.7016289E-3,1.6351949E-3,3.028279E-3,6.319891E-3,3.5236415E-3,3.8605656E-3,1.6585229E-3,1.9151921E-3,4.641025E-3,7.1467776E-3,2.2215124E-3,2.2897236E-3,5.7993503E-3,5.1842798E-3,9.316608E-3,8.886203E-3,5.280768E-3,1.271886E-2,9.06407E-3,1.724649E-2,2.3523595E-2,2.8211283E-2,3.7280682E-2,1.515194E-2,1.893649E-2,3.1778008E-2,3.8935404E-2],"categories":[],"categories_nodes":[],"categories_segments":[],"categories_sizes":[],"default_left":[0,0,0,0,0,0,0,0,0,0,0,0,0,0,0,0,0,0,0,0,0,0,0,0,0,0,0,0,0,0,0,0,0,0,0,0,0,0,0,0,0,0,0,0,0,0,0,0,0,0,0,0,0,0,0,0,0,0,0,0,0,0,0,0,0,0,0,0,0,0,0,0,0,0,0,0,0,0,0,0,0,0,0,0,0,0,0,0,0],"id":2,"left_children":[1,3,5,7,9,11,-1,13,15,17,19,21,23,25,27,29,31,33,35,37,39,41,43,45,47,49,51,53,55,57,59,61,63,65,67,69,71,73,75,77,79,81,83,-1,85,-1,-1,-1,87,-1,-1,-1,-1,-1,-1,-1,-1,-1,-1,-1,-1,-1,-1,-1,-1,-1,-1,-1,-1,-1,-1,-1,-1,-1,-1,-1,-1,-1,-1,-1,-1,-1,-1,-1,-1,-1,-1,-1,-1],"loss_changes":[2.1667221E1,4.7240286E0,5.259821E0,7.3562026E-1,5.584221E-1,1.7003441E0,0E0,6.611323E-2,8.719593E-2,1.7721713E-1,5.86344E-2,1.1147165E-1,1.4632893E-1,5.7423115E-3,1.3487935E-3,1.3686545E-2,2.1894589E-2,3.9979547E-2,7.008755E-2,2.1123126E-2,3.8846135E-2,1.0085106E-1,5.009556E-2,1.9891381E-2,8.3319664E-2,8.6307526E-4,7.637739E-4,1.6236305E-4,1.4646798E-3,6.1554536E-3,5.7537574E-3,1.1169107E-2,2.7787015E-3,1.0167971E-2,1.9006118E-2,3.208515E-2,3.9687157E-2,6.9681555E-3,3.4845918E-3,5.276516E-3,4.028201E-2,4.784918E-2,1.193285E-2,0E0,2.0050526E-2,0E0,0E0,0E0,3.5642624E-2,0E0,0E0,0E0,0E0,0E0,0E0,0E0,0E0,0E0,0E0,0E0,0E0,0E0,0E0,0E0,0E0,0E0,0E0,0E0,0E0,0E0,0E0,0E0,0E0,0E0,0E0,0E0,0E0,0E0,0E0,0E0,0E0,0E0,0E0,0E0,0E0,0E0,0E0,0E0,0E0],"parents":[2147483647,0,0,1,1,2,2,3,3,4,4,5,5,7,7,8,8,9,9,10,10,11,11,12,12,13,13,14,14,15,15,16,16,17,17,18,18,19,19,20,20,21,21,22,22,23,23,24,24,25,25,26,26,27,27,28,28,29,29,30,30,31,31,32,32,33,33,34,34,35,35,36,36,37,37,38,38,39,39,40,40,41,41,42,42,44,44,48,48],"right_children":[2,4,6,8,10,12,-1,14,16,18,20,22,24,26,28,30,32,34,36,38,40,42,44,46,48,50,52,54,56,58,60,62,64,66,68,70,72,74,76,78,80,82,84,-1,86,-1,-1,-1,88,-1,-1,-1,-1,-1,-1,-1,-1,-1,-1,-1,-1,-1,-1,-1,-1,-1,-1,-1,-1,-1,-1,-1,-1,-1,-1,-1,-1,-1,-1,-1,-1,-1,-1,-1,-1,-1,-1,-1,-1],"split_conditions":[1.2137808E-1,3.3027217E-2,6.012741E-2,1.0530417E-2,7.386876E-2,2.1710914E-1,1.3523214E-1,5.6993375E-3,2.1561753E-2,4.6852563E-2,1.8013972E-1,1.8451759E-1,1.5835939E-2,1.8367006E-3,2.173913E-2,1.6686147E-2,9.477435E-1,1.8013972E-1,1.036197E-1,6.1980367E-1,1.4492754E-2,1.3200591E-2,1.8013972E-1,7.1428573E-1,1.8013972E-1,9.01653E-4,3.2281405E-3,1.2514615E-3,8.695652E-2,2.4939872E-1,1E0,4.3420345E-1,2.8585741E-2,6.049615E-2,7.29927E-3,1.4492754E-2,1E0,8.409862E-2,1.4492754E-2,8.544296E-3,4.4927537E-1,2.8985508E-2,7.1428573E-1,2.390902E-2,1E0,2.744533E-2,3.7280682E-2,4.825941E-2,2.2205588E-1,-3.4648178E-3,-3.3020966E-3,-3.1599093E-3,-2.8902458E-3,-2.245536E-3,-2.6406164E-3,-2.0313319E-3,-2.38632E-3,-1.5659318E-3,-3.8368796E-4,-8.4155763E-4,2.5576586E-4,2.943024E-4,-1.7016289E-3,1.6351949E-3,3.028279E-3,6.319891E-3,3.5236415E-3,3.8605656E-3,1.6585229E-3,1.9151921E-3,4.641025E-3,7.1467776E-3,2.2215124E-3,2.2897236E-3,5.7993503E-3,5.1842798E-3,9.316608E-3,8.886203E-3,5.280768E-3,1.271886E-2,9.06407E-3,1.724649E-2,2.3523595E-2,2.8211283E-2,3.7280682E-2,1.515194E-2,1.893649E-2,3.1778008E-2,3.8935404E-2],"split_indices":[0,0,2,0,0,0,0,0,0,0,10,19,2,0,11,0,8,16,21,19,11,2,16,15,16,0,0,2,11,2,10,2,0,17,4,11,16,0,11,2,11,11,15,0,13,0,0,0,16,0,0,0,0,0,0,0,0,0,0,0,0,0,0,0,0,0,0,0,0,0,0,0,0,0,0,0,0,0,0,0,0,0,0,0,0,0,0,0,0],"split_type":[0,0,0,0,0,0,0,0,0,0,0,0,0,0,0,0,0,0,0,0,0,0,0,0,0,0,0,0,0,0,0,0,0,0,0,0,0,0,0,0,0,0,0,0,0,0,0,0,0,0,0,0,0,0,0,0,0,0,0,0,0,0,0,0,0,0,0,0,0,0,0,0,0,0,0,0,0,0,0,0,0,0,0,0,0,0,0,0,0],"sum_hessian":[5.8352E4,5.6072E4,2.28E3,4.6277E4,9.795E3,2.24E3,4E1,3.307E4,1.3207E4,7.972E3,1.823E3,1.366E3,8.74E2,2.754E4,5.53E3,7.938E3,5.269E3,3.865E3,4.107E3,4.82E2,1.341E3,6.26E2,7.4E2,1.9E2,6.84E2,2.26E4,4.94E3,9.15E2,4.615E3,4.986E3,2.952E3,4.584E3,6.85E2,4.8E2,3.385E3,2.482E3,1.625E3,2.62E2,2.2E2,1.82E2,1.159E3,5E2,1.26E2,1E2,6.4E2,1.58E2,3.2E1,9.2E1,5.92E2,1.8465E4,4.135E3,3.36E3,1.58E3,1.65E2,7.5E2,2.88E3,1.735E3,4.551E3,4.35E2,2.43E3,5.22E2,4.317E3,2.67E2,5.1E2,1.75E2,2.25E2,2.55E2,4E2,2.985E3,4.85E2,1.997E3,1.46E3,1.65E2,7.2E1,1.9E2,2.5E1,1.95E2,5.7E1,1.25E2,6.84E2,4.75E2,2E2,3E2,9.4E1,3.2E1,4.2E2,2.2E2,1.1E2,4.82E2],"tree_param":{"num_deleted":"0","num_feature":"22","num_nodes":"89","size_leaf_vector":"1"}},{"base_weights":[2.8660772E-5,-2.7000809E-3,6.710832E-2,-5.7867924E-3,1.0737023E-2,6.247284E-2,9.565199E-2,-7.3033855E-3,-1.1171214E-3,8.288326E-3,2.2346338E-2,4.6951067E-2,8.665088E-2,-7.865116E-3,-5.053687E-3,-2.3588857E-3,6.655716E-4,4.9862624E-3,1.1939638E-2,2.5351228E-2,1.4721362E-2,5.39719E-2,4.0947E-2,6.86783E-2,9.153572E-2,-8.000679E-3,-7.075928E-3,-5.5736033E-3,-4.1266726E-3,3.5038658E-5,-2.8649606E-3,-2.4936692E-4,3.5487632E-3,8.124919E-3,3.170626E-3,2.0120338E-2,1.0432514E-2,5.3740544E-3,2.6511539E-2,1.5511094E-2,-8.193719E-4,4.8911877E-2,7.239852E-2,1.6807333E-2,3.8507424E-2,6.421171E-2,2.6435392E-2,7.289862E-2,9.5769815E-2,-2.4428798E-3,-2.3355028E-3,-2.325226E-3,-2.0775096E-3,-1.4376336E-3,-1.827393E-3,-9.0946635E-4,-1.3802337E-3,-1.2850878E-4,7.813831E-4,-6.638381E-4,-1.2977313E-3,-1.624827E-4,2.0062353E-3,8.7484415E-4,2.2591304E-3,6.888467E-5,2.8344071E-3,3.2723742E-3,7.7680906E-4,7.0168953E-3,4.879182E-3,1.1702005E-3,3.6557422E-3,4.3411079E-4,5.782085E-3,4.5760376E-3,8.532869E-3,2.5496706E-3,4.8850058E-3,-1.0844278E-4,-6.8563374E-4,1.3413717E-2,1.9836986E-2,1.9963693E-2,2.6435392E-2,1.19229965E-2,7.0291604E-3,1.6575756E-2,2.0725027E-2,3.7490174E-2,1.8717317E-2,3.393726E-2,2.762313E-2],"categories":[],"categories_nodes":[],"categories_segments":[],"categories_sizes":[],"default_left":[0,0,0,0,0,0,0,0,0,0,0,0,0,0,0,0,0,0,0,0,0,0,0,0,0,0,0,0,0,0,0,0,0,0,0,0,0,0,0,0,0,0,0,0,0,0,0,0,0,0,0,0,0,0,0,0,0,0,0,0,0,0,0,0,0,0,0,0,0,0,0,0,0,0,0,0,0,0,0,0,0,0,0,0,0,0,0,0,0,0,0,0,0],"id":3,"left_children":[1,3,5,7,9,11,-1,13,15,17,19,21,23,25,27,29,31,33,35,37,39,41,43,45,47,49,51,53,55,57,59,61,63,65,67,69,71,73,75,77,79,81,83,-1,85,87,-1,89,91,-1,-1,-1,-1,-1,-1,-1,-1,-1,-1,-1,-1,-1,-1,-1,-1,-1,-1,-1,-1,-1,-1,-1,-1,-1,-1,-1,-1,-1,-1,-1,-1,-1,-1,-1,-1,-1,-1,-1,-1,-1,-1,-1,-1],"loss_changes":[1.0681293E1,2.325772E0,2.6417732E0,3.2292354E-1,2.975949E-1,8.369465E-1,0E0,4.3457508E-2,2.4750564E-2,1.0425651E-1,4.141867E-2,5.54142E-2,7.053232E-2,2.8897524E-3,3.292948E-3,7.983919E-3,1.21116815E-2,2.5874645E-2,5.043894E-2,3.0153334E-2,6.370127E-3,5.491972E-2,2.5098562E-2,1.0926187E-2,4.707241E-2,6.5755844E-4,3.5834312E-4,1.7530024E-3,1.2715943E-3,1.3716604E-3,5.173072E-3,7.0705456E-3,2.7639084E-3,1.7390944E-2,1.2928754E-2,7.663369E-3,3.970316E-2,3.9567305E-3,2.6419163E-2,2.5313199E-3,1.6627906E-5,3.2821655E-2,6.37269E-3,0E0,1.1012852E-2,3.122747E-3,0E0,6.38752E-2,2.5150776E-2,0E0,0E0,0E0,0E0,0E0,0E0,0E0,0E0,0E0,0E0,0E0,0E0,0E0,0E0,0E0,0E0,0E0,0E0,0E0,0E0,0E0,0E0,0E0,0E0,0E0,0E0,0E0,0E0,0E0,0E0,0E0,0E0,0E0,0E0,0E0,0E0,0E0,0E0,0E0,0E0,0E0,0E0,0E0,0E0],"parents":[2147483647,0,0,1,1,2,2,3,3,4,4,5,5,7,7,8,8,9,9,10,10,11,11,12,12,13,13,14,14,15,15,16,16,17,17,18,18,19,19,20,20,21,21,22,22,23,23,24,24,25,25,26,26,27,27,28,28,29,29,30,30,31,31,32,32,33,33,34,34,35,35,36,36,37,37,38,38,39,39,40,40,41,41,42,42,44,44,45,45,47,47,48,48],"right_children":[2,4,6,8,10,12,-1,14,16,18,20,22,24,26,28,30,32,34,36,38,40,42,44,46,48,50,52,54,56,58,60,62,64,66,68,70,72,74,76,78,80,82,84,-1,86,88,-1,90,92,-1,-1,-1,-1,-1,-1,-1,-1,-1,-1,-1,-1,-1,-1,-1,-1,-1,-1,-1,-1,-1,-1,-1,-1,-1,-1,-1,-1,-1,-1,-1,-1,-1,-1,-1,-1,-1,-1,-1,-1,-1,-1,-1,-1],"split_conditions":[1.2137808E-1,3.1001281E-2,6.012741E-2,1.2834641E-2,7.386876E-2,2.1710914E-1,9.565199E-2,5.6993375E-3,2.1561753E-2,4.6852563E-2,1.1661616E-2,1.8451759E-1,1.5835939E-2,1.9925418E-3,8.787669E-3,1.8612774E-1,6.4705884E-1,8.309274E-3,1.8612774E-1,4.8392482E-2,1E0,7.1428573E-1,1.8013972E-1,7.1428573E-1,1.4492754E-2,4.675238E-4,1.4492754E-2,2.302583E-2,7.29927E-3,9.500824E-1,5.735294E-1,1E0,9.751004E-1,4.836821E-2,7.29927E-3,9.660277E-1,3.816766E-2,7.1428573E-1,1.4492754E-2,1.4492754E-2,8.642511E-2,1.3200591E-2,1.8070908E-1,1.6807333E-2,1E0,1.8013972E-1,2.6435392E-2,1.9981628E-2,1.8013972E-1,-2.4428798E-3,-2.3355028E-3,-2.325226E-3,-2.0775096E-3,-1.4376336E-3,-1.827393E-3,-9.0946635E-4,-1.3802337E-3,-1.2850878E-4,7.813831E-4,-6.638381E-4,-1.2977313E-3,-1.624827E-4,2.0062353E-3,8.7484415E-4,2.2591304E-3,6.888467E-5,2.8344071E-3,3.2723742E-3,7.7680906E-4,7.0168953E-3,4.879182E-3,1.1702005E-3,3.6557422E-3,4.3411079E-4,5.782085E-3,4.5760376E-3,8.532869E-3,2.5496706E-3,4.8850058E-3,-1.0844278E-4,-6.8563374E-4,1.3413717E-2,1.9836986E-2,1.9963693E-2,2.6435392E-2,1.19229965E-2,7.0291604E-3,1.6575756E-2,2.0725027E-2,3.7490174E-2,1.8717317E-2,3.393726E-2,2.762313E-2],"split_indices":[0,0,2,0,0,0,0,0,0,0,2,19,2,0,2,16,12,2,16,18,16,15,16,15,11,0,11,17,4,8,5,10,8,18,4,19,21,15,11,11,0,2,0,0,16,16,0,2,16,0,0,0,0,0,0,0,0,0,0,0,0,0,0,0,0,0,0,0,0,0,0,0,0,0,0,0,0,0,0,0,0,0,0,0,0,0,0,0,0,0,0,0,0],"split_type":[0,0,0,0,0,0,0,0,0,0,0,0,0,0,0,0,0,0,0,0,0,0,0,0,0,0,0,0,0,0,0,0,0,0,0,0,0,0,0,0,0,0,0,0,0,0,0,0,0,0,0,0,0,0,0,0,0,0,0,0,0,0,0,0,0,0,0,0,0,0,0,0,0,0,0,0,0,0,0,0,0,0,0,0,0,0,0,0,0,0,0,0,0],"sum_hessian":[5.8352E4,5.6072E4,2.28E3,4.5598E4,1.0474E4,2.24E3,4E1,3.4419E4,1.1179E4,8.651E3,1.823E3,1.366E3,8.74E2,2.754E4,6.879E3,6.589E3,4.59E3,4.544E3,4.107E3,1.306E3,5.17E2,6.26E2,7.4E2,1.9E2,6.84E2,2.3495E4,4.045E3,4.404E3,2.475E3,1.15E3,5.439E3,3.485E3,1.105E3,1.664E3,2.88E3,6.37E2,3.47E3,7.2E1,1.234E3,4.92E2,2.5E1,4.94E2,1.32E2,1E2,6.4E2,1.58E2,3.2E1,1.3E2,5.54E2,1.4135E4,9.36E3,7.3E2,3.315E3,1.759E3,2.645E3,7.5E2,1.725E3,9.75E2,1.75E2,3.762E3,1.677E3,3.345E3,1.4E2,9.55E2,1.5E2,2.39E2,1.425E3,2E2,2.68E3,3.42E2,2.95E2,7.35E2,2.735E3,5.7E1,1.5E1,1.82E2,1.052E3,5E1,4.42E2,2E1,5E0,4E2,9.4E1,1E2,3.2E1,5.9E2,5E1,6E1,9.8E1,2E1,1.1E2,9.2E1,4.62E2],"tree_param":{"num_deleted":"0","num_feature":"22","num_nodes":"93","size_leaf_vector":"1"}},{"base_weights":[2.7450888E-5,-1.8893686E-3,4.7147922E-2,-4.3201246E-3,6.550287E-3,4.386348E-2,2.2552097E-1,-5.4135732E-3,-2.0430456E-3,3.1135376E-3,1.1004087E-2,3.2950174E-2,6.0863048E-2,8.03503E-2,5.1740553E-2,-5.570366E-3,-4.3785735E-3,-2.9101158E-3,-6.7425583E-4,-1.1529006E-3,3.956771E-3,8.805352E-3,1.6351568E-2,2.3478838E-2,3.5206456E-2,4.9278535E-2,6.491756E-2,-5.663693E-3,-5.286753E-3,-1.1862491E-3,-4.4628466E-3,-4.645348E-3,-2.5799568E-3,-3.5487063E-4,-3.9771413E-3,-1.5245087E-4,-3.8765697E-3,5.469701E-3,1.5363393E-3,1.9330615E-3,1.0064962E-2,3.9481696E-2,1.5574953E-2,2.898461E-2,1.909375E-2,3.309659E-2,4.535315E-2,1.1684549E-2,5.267534E-2,5.990077E-2,7.414259E-2,-1.7364032E-3,-1.6734953E-3,-1.638082E-3,-1.517774E-3,-5.4540993E-5,-3.88389E-4,-1.439539E-3,-1.2469974E-3,-2.2419078E-4,-1.4283191E-3,-9.459304E-4,-5.4858107E-4,6.846953E-4,-2.176538E-4,-6.764966E-4,-1.3855094E-3,6.741809E-4,-1.9964688E-4,-1.625633E-3,-1.7116254E-4,1.1975232E-3,2.4544664E-3,-2.3146799E-4,1.4516225E-3,9.244672E-4,2.2177034E-4,3.8954157E-3,1.8081948E-3,1.669004E-2,6.5434207E-3,7.689615E-3,4.3171016E-3,9.311393E-3,6.2049115E-3,4.2035314E-3,6.441256E-3,1.0720188E-2,7.730475E-3,1.0043883E-2,1.590158E-2,1.1210078E-2,1.6944239E-2,1.9278873E-2,1.4118208E-2,1.5579059E-2,2.2822557E-2],"categories":[],"categories_nodes":[],"categories_segments":[],"categories_sizes":[],"default_left":[0,0,0,0,0,0,0,0,0,0,0,0,0,0,0,0,0,0,0,0,0,0,0,0,0,0,0,0,0,0,0,0,0,0,0,0,0,0,0,0,0,0,0,0,0,0,0,0,0,0,0,0,0,0,0,0,0,0,0,0,0,0,0,0,0,0,0,0,0,0,0,0,0,0,0,0,0,0,0,0,0,0,0,0,0,0,0,0,0,0,0,0,0,0,0,0,0],"id":4,"left_children":[1,3,5,7,9,11,13,15,17,19,21,23,25,-1,-1,27,29,31,33,35,37,39,41,43,45,47,49,51,53,55,57,59,61,63,65,67,69,71,73,75,77,79,81,83,85,87,89,-1,91,93,95,-1,-1,-1,-1,-1,-1,-1,-1,-1,-1,-1,-1,-1,-1,-1,-1,-1,-1,-1,-1,-1,-1,-1,-1,-1,-1,-1,-1,-1,-1,-1,-1,-1,-1,-1,-1,-1,-1,-1,-1,-1,-1,-1,-1,-1,-1],"loss_changes":[5.2706165E0,1.1503515E0,1.3264465E0,1.08385384E-1,1.9189507E-1,4.1374826E-1,4.584527E-2,4.748404E-3,1.6762115E-2,2.5472E-2,6.406468E-2,2.8386235E-2,3.7899256E-2,0E0,0E0,6.4605474E-4,1.0369122E-3,4.9419105E-3,5.778347E-3,3.1848103E-3,2.163735E-2,3.3498168E-2,2.7946591E-2,5.868688E-3,2.2090793E-2,6.0539246E-3,2.540946E-2,1.7148256E-4,2.2257864E-4,1.0759759E-5,3.6787987E-4,6.193612E-4,3.1236522E-3,4.8859874E-3,5.229544E-4,1.0553595E-3,1.5978622E-3,1.454445E-2,1.73429E-2,8.2175666E-4,3.8495183E-2,1.3342299E-2,1.79784E-2,1.3353974E-3,1.5232936E-3,1.6783237E-2,1.5215784E-2,0E0,7.851154E-3,2.066791E-2,5.6222677E-3,0E0,0E0,0E0,0E0,0E0,0E0,0E0,0E0,0E0,0E0,0E0,0E0,0E0,0E0,0E0,0E0,0E0,0E0,0E0,0E0,0E0,0E0,0E0,0E0,0E0,0E0,0E0,0E0,0E0,0E0,0E0,0E0,0E0,0E0,0E0,0E0,0E0,0E0,0E0,0E0,0E0,0E0,0E0,0E0,0E0,0E0],"parents":[2147483647,0,0,1,1,2,2,3,3,4,4,5,5,6,6,7,7,8,8,9,9,10,10,11,11,12,12,15,15,16,16,17,17,18,18,19,19,20,20,21,21,22,22,23,23,24,24,25,25,26,26,27,27,28,28,29,29,30,30,31,31,32,32,33,33,34,34,35,35,36,36,37,37,38,38,39,39,40,40,41,41,42,42,43,43,44,44,45,45,46,46,48,48,49,49,50,50],"right_children":[2,4,6,8,10,12,14,16,18,20,22,24,26,-1,-1,28,30,32,34,36,38,40,42,44,46,48,50,52,54,56,58,60,62,64,66,68,70,72,74,76,78,80,82,84,86,88,90,-1,92,94,96,-1,-1,-1,-1,-1,-1,-1,-1,-1,-1,-1,-1,-1,-1,-1,-1,-1,-1,-1,-1,-1,-1,-1,-1,-1,-1,-1,-1,-1,-1,-1,-1,-1,-1,-1,-1,-1,-1,-1,-1,-1,-1,-1,-1,-1,-1],"split_conditions":[1.2137808E-1,2.5157232E-2,6.012741E-2,7.7698003E-3,5.0192017E-2,2.1710914E-1,3.846154E-1,2.9275895E-3,1.6686147E-2,1.4492754E-2,7.741971E-2,1.4492754E-2,1.1901148E-1,8.03503E-2,5.1740553E-2,1.686078E-2,5.882353E-2,1.4492754E-2,1E0,8.431634E-2,9.42029E-2,1.4492754E-2,1.6678199E-3,1.8451759E-1,1.8070908E-1,1.8013972E-1,5.735294E-1,1.8923583E-4,8.032608E-1,5.6993375E-3,7.993231E-1,7.246377E-3,1.208883E-2,7.29927E-3,1.7405931E-3,2.2794526E-2,8.032608E-1,3.7401903E-2,1E0,9.6322805E-1,8.695652E-2,2.8985508E-2,1.8013972E-1,7.993231E-1,1.7859273E-3,8.695652E-2,1.3200591E-2,1.1684549E-2,1.4492754E-2,5.7971016E-2,1.9981628E-2,-1.7364032E-3,-1.6734953E-3,-1.638082E-3,-1.517774E-3,-5.4540993E-5,-3.88389E-4,-1.439539E-3,-1.2469974E-3,-2.2419078E-4,-1.4283191E-3,-9.459304E-4,-5.4858107E-4,6.846953E-4,-2.176538E-4,-6.764966E-4,-1.3855094E-3,6.741809E-4,-1.9964688E-4,-1.625633E-3,-1.7116254E-4,1.1975232E-3,2.4544664E-3,-2.3146799E-4,1.4516225E-3,9.244672E-4,2.2177034E-4,3.8954157E-3,1.8081948E-3,1.669004E-2,6.5434207E-3,7.689615E-3,4.3171016E-3,9.311393E-3,6.2049115E-3,4.2035314E-3,6.441256E-3,1.0720188E-2,7.730475E-3,1.0043883E-2,1.590158E-2,1.1210078E-2,1.6944239E-2,1.9278873E-2,1.4118208E-2,1.5579059E-2,2.2822557E-2],"split_indices":[0,0,2,0,0,0,3,0,0,11,0,11,18,0,0,17,12,11,16,21,11,11,2,19,0,16,12,0,8,0,8,11,0,4,2,17,8,0,11,19,11,11,16,8,2,11,2,0,11,11,2,0,0,0,0,0,0,0,0,0,0,0,0,0,0,0,0,0,0,0,0,0,0,0,0,0,0,0,0,0,0,0,0,0,0,0,0,0,0,0,0,0,0,0,0,0,0],"split_type":[0,0,0,0,0,0,0,0,0,0,0,0,0,0,0,0,0,0,0,0,0,0,0,0,0,0,0,0,0,0,0,0,0,0,0,0,0,0,0,0,0,0,0,0,0,0,0,0,0,0,0,0,0,0,0,0,0,0,0,0,0,0,0,0,0,0,0,0,0,0,0,0,0,0,0,0,0,0,0,0,0,0,0,0,0,0,0,0,0,0,0,0,0,0,0,0,0],"sum_hessian":[5.8352E4,5.6072E4,2.28E3,4.3534E4,1.2538E4,2.24E3,4E1,2.941E4,1.4124E4,7.078E3,5.46E3,1.366E3,8.74E2,2E1,2E1,2.5537E4,3.873E3,8.646E3,5.478E3,1.168E3,5.91E3,3.871E3,1.589E3,2.65E2,1.101E3,2.3E2,6.44E2,1.92E4,6.337E3,1E2,3.773E3,1.38E3,7.266E3,4.996E3,4.82E2,8.55E2,3.13E2,3.636E3,2.274E3,6E2,3.271E3,5E1,1.539E3,1.15E2,1.5E2,9.15E2,1.86E2,6E1,1.7E2,4.22E2,2.22E2,7.79E3,1.141E4,3.582E3,2.755E3,1E1,9E1,1.793E3,1.98E3,4E1,1.34E3,4.12E3,3.146E3,6.15E2,4.381E3,1.32E2,3.5E2,1.5E2,7.05E2,2.13E2,1E2,2.355E3,1.281E3,1.339E3,9.35E2,3.05E2,2.95E2,1.897E3,1.374E3,2.5E1,2.5E1,1.6E2,1.379E3,9E1,2.5E1,5E1,1E2,6.7E2,2.45E2,7.5E1,1.11E2,3.6E1,1.34E2,3.12E2,1.1E2,2E1,2.02E2],"tree_param":{"num_deleted":"0","num_feature":"22","num_nodes":"97","size_leaf_vector":"1"}},{"base_weights":[2.51361E-5,-1.3220018E-3,3.314133E-2,-2.7255788E-3,5.8911825E-3,3.0785732E-2,1.6108643E-1,-3.5620455E-3,-3.0604968E-4,4.607785E-3,1.1032097E-2,2.3116734E-2,4.2731717E-2,5.7393078E-2,3.695754E-2,-3.8857923E-3,-2.5443244E-3,-8.961004E-4,1.0634006E-3,3.2254811E-3,7.602777E-3,1.2850961E-2,6.4215055E-3,2.7107764E-2,1.970851E-2,3.1220183E-2,4.538291E-2,-3.9625913E-3,-3.6636433E-3,-2.8267263E-3,-1.9024507E-3,-1.3363729E-3,3.8471824E-4,1.2125897E-3,-8.314905E-3,1.9109524E-3,7.943972E-3,1.55785205E-2,6.981416E-3,1.8848167E-4,1.35890255E-2,6.9979187E-3,-1.4265481E-3,2.3819672E-2,3.9141584E-2,1.7967364E-2,8.544478E-3,5.2690372E-2,7.538448E-3,3.631682E-2,4.9229022E-2,-1.2170637E-3,-1.1715922E-3,-1.1393443E-3,-1.0051215E-3,-7.7473384E-4,-1.1059841E-3,-7.2839693E-4,-3.7643765E-4,-6.389683E-4,1.9166802E-5,-1.3816208E-4,3.0808992E-4,1.6663082E-4,9.403167E-4,-1.4500221E-3,-2.7407685E-3,-5.886175E-4,9.278625E-4,4.0781368E-3,1.506514E-3,5.1656766E-3,3.8496512E-3,1.6771759E-3,2.541152E-3,-7.512379E-4,2.9812218E-3,8.427823E-3,3.8860044E-3,1.7592512E-3,2.8228546E-3,6.560797E-3,9.5404405E-3,1.0849666E-2,1.4119184E-2,4.459755E-3,7.0541105E-3,7.6485416E-3,2.1270446E-2,8.2366485E-3,1.18709635E-2,1.6541643E-2,1.2495739E-2],"categories":[],"categories_nodes":[],"categories_segments":[],"categories_sizes":[],"default_left":[0,0,0,0,0,0,0,0,0,0,0,0,0,0,0,0,0,0,0,0,0,0,0,0,0,0,0,0,0,0,0,0,0,0,0,0,0,0,0,0,0,0,0,0,0,0,0,0,0,0,0,0,0,0,0,0,0,0,0,0,0,0,0,0,0,0,0,0,0,0,0,0,0,0,0,0,0,0,0,0,0,0,0,0,0,0,0,0,0,0,0,0,0],"id":5,"left_children":[1,3,5,7,9,11,13,15,17,19,21,23,25,-1,-1,27,29,31,33,35,37,39,41,43,45,47,49,51,53,55,57,59,61,63,65,67,69,71,73,75,77,79,-1,81,83,85,-1,87,-1,89,91,-1,-1,-1,-1,-1,-1,-1,-1,-1,-1,-1,-1,-1,-1,-1,-1,-1,-1,-1,-1,-1,-1,-1,-1,-1,-1,-1,-1,-1,-1,-1,-1,-1,-1,-1,-1,-1,-1,-1,-1,-1,-1],"loss_changes":[2.6032922E0,5.677136E-1,6.825044E-1,9.499872E-2,6.0213804E-2,2.0431876E-1,2.3390293E-2,1.1482835E-2,9.745977E-3,3.0242935E-2,1.5213609E-2,1.8060088E-2,2.5287628E-2,0E0,0E0,4.3693185E-4,1.5210696E-3,4.753707E-3,5.0917603E-3,3.102259E-2,1.1329263E-2,1.2212306E-2,3.3704285E-3,2.3876995E-2,1.0807216E-2,2.0519063E-2,2.2934318E-2,9.030104E-5,2.7352571E-4,1.218453E-3,8.737454E-4,6.970305E-3,1.1714343E-3,4.5144507E-3,1.1876412E-4,1.7927364E-2,1.7927893E-2,5.2689016E-4,4.3909475E-3,1.9411364E-3,1.1022449E-2,1.292754E-3,0E0,7.0103407E-3,1.4336854E-3,1.0332927E-2,0E0,1.6021557E-2,0E0,5.111277E-3,1.986742E-2,0E0,0E0,0E0,0E0,0E0,0E0,0E0,0E0,0E0,0E0,0E0,0E0,0E0,0E0,0E0,0E0,0E0,0E0,0E0,0E0,0E0,0E0,0E0,0E0,0E0,0E0,0E0,0E0,0E0,0E0,0E0,0E0,0E0,0E0,0E0,0E0,0E0,0E0,0E0,0E0,0E0,0E0],"parents":[2147483647,0,0,1,1,2,2,3,3,4,4,5,5,6,6,7,7,8,8,9,9,10,10,11,11,12,12,15,15,16,16,17,17,18,18,19,19,20,20,21,21,22,22,23,23,24,24,25,25,26,26,27,27,28,28,29,29,30,30,31,31,32,32,33,33,34,34,35,35,36,36,37,37,38,38,39,39,40,40,41,41,43,43,44,44,45,45,47,47,49,49,50,50],"right_children":[2,4,6,8,10,12,14,16,18,20,22,24,26,-1,-1,28,30,32,34,36,38,40,42,44,46,48,50,52,54,56,58,60,62,64,66,68,70,72,74,76,78,80,-1,82,84,86,-1,88,-1,90,92,-1,-1,-1,-1,-1,-1,-1,-1,-1,-1,-1,-1,-1,-1,-1,-1,-1,-1,-1,-1,-1,-1,-1,-1,-1,-1,-1,-1,-1,-1,-1,-1,-1,-1,-1,-1,-1,-1,-1,-1,-1,-1],"split_conditions":[1.2137808E-1,3.4040187E-2,6.012741E-2,1.33355595E-2,7.386876E-2,2.1710914E-1,3.846154E-1,3.6956642E-3,2.4489341E-2,5.735294E-1,1.1661616E-2,1.8451759E-1,1.4492754E-2,5.7393078E-2,3.695754E-2,2.0590678E-2,5.735294E-1,6.4705884E-1,8.147514E-1,1E0,9.730539E-2,4.8392482E-2,1E0,7.1428573E-1,5.735294E-1,1.7366296E-1,1.9981628E-2,1.781043E-4,5.735294E-1,7.2463766E-2,9.172372E-3,5.6037927E-1,1.6686147E-2,6.4705884E-1,5.882353E-2,3.2378135E-3,5.840949E-3,6.7145325E-2,5.0192017E-2,7.1428573E-1,1.6678199E-3,6.4705884E-1,-1.4265481E-3,1.3200591E-2,1.8070908E-1,1E0,8.544478E-3,2.6308233E-1,7.538448E-3,1.8013972E-1,8.695652E-2,-1.2170637E-3,-1.1715922E-3,-1.1393443E-3,-1.0051215E-3,-7.7473384E-4,-1.1059841E-3,-7.2839693E-4,-3.7643765E-4,-6.389683E-4,1.9166802E-5,-1.3816208E-4,3.0808992E-4,1.6663082E-4,9.403167E-4,-1.4500221E-3,-2.7407685E-3,-5.886175E-4,9.278625E-4,4.0781368E-3,1.506514E-3,5.1656766E-3,3.8496512E-3,1.6771759E-3,2.541152E-3,-7.512379E-4,2.9812218E-3,8.427823E-3,3.8860044E-3,1.7592512E-3,2.8228546E-3,6.560797E-3,9.5404405E-3,1.0849666E-2,1.4119184E-2,4.459755E-3,7.0541105E-3,7.6485416E-3,2.1270446E-2,8.2366485E-3,1.18709635E-2,1.6541643E-2,1.2495739E-2],"split_indices":[0,0,2,0,0,0,3,0,0,12,2,19,11,0,0,17,12,12,17,15,16,18,16,15,12,19,2,0,12,11,0,16,0,12,12,2,2,0,0,15,2,12,0,2,0,13,0,0,0,16,11,0,0,0,0,0,0,0,0,0,0,0,0,0,0,0,0,0,0,0,0,0,0,0,0,0,0,0,0,0,0,0,0,0,0,0,0,0,0,0,0,0,0],"split_type":[0,0,0,0,0,0,0,0,0,0,0,0,0,0,0,0,0,0,0,0,0,0,0,0,0,0,0,0,0,0,0,0,0,0,0,0,0,0,0,0,0,0,0,0,0,0,0,0,0,0,0,0,0,0,0,0,0,0,0,0,0,0,0,0,0,0,0,0,0,0,0,0,0,0,0,0,0,0,0,0,0,0,0,0,0,0,0,0,0,0,0,0,0],"sum_hessian":[5.8352E4,5.6072E4,2.28E3,4.6939E4,9.133E3,2.24E3,4E1,3.488E4,1.2059E4,7.31E3,1.823E3,1.366E3,8.74E2,2E1,2E1,2.646E4,8.42E3,8.428E3,3.631E3,5.003E3,2.307E3,1.306E3,5.17E2,6.26E2,7.4E2,1.66E2,7.08E2,1.965E4,6.81E3,5.845E3,2.575E3,6.272E3,2.156E3,3.575E3,5.6E1,3.914E3,1.089E3,1.65E2,2.142E3,7.2E1,1.234E3,4.92E2,2.5E1,4.94E2,1.32E2,6.2E2,1.2E2,3.5E1,1.31E2,2.14E2,4.94E2,7.4E3,1.225E4,4.76E3,2.05E3,4.555E3,1.29E3,1.42E3,1.155E3,4.003E3,2.269E3,9.31E2,1.225E3,2.665E3,9.1E2,1.2E1,4.4E1,9.15E2,2.999E3,3.7E2,7.19E2,1E2,6.5E1,1.11E3,1.032E3,5.7E1,1.5E1,5E1,1.184E3,3.37E2,1.55E2,4E2,9.4E1,1E2,3.2E1,4E2,2.2E2,1.5E1,2E1,6E1,1.54E2,2.74E2,2.2E2],"tree_param":{"num_deleted":"0","num_feature":"22","num_nodes":"93","size_leaf_vector":"1"}},{"base_weights":[2.2168973E-5,-9.24941E-4,2.3304623E-2,-1.8447939E-3,4.6149124E-3,2.161549E-2,1.1506172E-1,-2.4656402E-3,-3.8921553E-5,4.7049805E-4,5.370939E-3,1.622643E-2,3.0010039E-2,4.0995058E-2,2.6398238E-2,-2.7061643E-3,-1.6620094E-3,-6.234964E-4,1.2749551E-3,-2.26887E-3,1.1348658E-3,7.1821194E-3,2.851587E-3,1.6763294E-2,6.133511E-4,2.2072433E-2,3.183736E-2,-2.7720777E-3,-2.5165842E-3,-1.7987271E-3,-2.3260682E-4,-9.092088E-4,2.260109E-3,1.9466092E-3,-4.1595512E-4,-7.7753803E-3,-7.866664E-4,4.2442703E-3,5.235929E-4,6.065412E-3,1.2877795E-2,1.7626207E-4,5.515451E-3,1.1014178E-2,1.8201035E-2,3.7686568E-2,5.2940454E-3,2.55153E-2,3.4518987E-2,-8.3084055E-4,-1.4138521E-3,-7.605012E-4,-2.6564964E-4,-6.614676E-4,-4.118211E-4,-2.144174E-4,5.7127065E-4,-7.0709654E-4,-1.8126704E-4,4.4985476E-4,1.3649898E-3,4.5029027E-4,1.5610997E-3,-4.423485E-5,-9.4830245E-4,-2.0427094E-3,-4.166448E-3,-9.7372284E-4,-3.4128152E-5,5.9077877E-4,2.49866E-3,6.2791316E-4,5.2447624E-5,1.4305564E-3,2.7430379E-3,9.444499E-3,3.6222811E-3,-9.742446E-4,2.7488987E-4,1.5484927E-4,2.092388E-3,1.973891E-3,3.8163129E-3,6.1322153E-3,4.51549E-3,5.4973885E-3,1.5193178E-2,7.1244515E-3,1.0362491E-2,1.1597198E-2,8.763983E-3],"categories":[],"categories_nodes":[],"categories_segments":[],"categories_sizes":[],"default_left":[0,0,0,0,0,0,0,0,0,0,0,0,0,0,0,0,0,0,0,0,0,0,0,0,0,0,0,0,0,0,0,0,0,0,0,0,0,0,0,0,0,0,0,0,0,0,0,0,0,0,0,0,0,0,0,0,0,0,0,0,0,0,0,0,0,0,0,0,0,0,0,0,0,0,0,0,0,0,0,0,0,0,0,0,0,0,0,0,0,0,0],"id":6,"left_children":[1,3,5,7,9,11,13,15,17,19,21,23,25,-1,-1,27,29,31,33,35,37,39,41,43,-1,45,47,49,51,53,55,57,59,61,63,65,67,69,71,73,75,77,79,81,83,85,-1,87,89,-1,-1,-1,-1,-1,-1,-1,-1,-1,-1,-1,-1,-1,-1,-1,-1,-1,-1,-1,-1,-1,-1,-1,-1,-1,-1,-1,-1,-1,-1,-1,-1,-1,-1,-1,-1,-1,-1,-1,-1,-1,-1],"loss_changes":[1.2867662E0,2.857481E-1,3.510449E-1,5.39158E-2,2.5016785E-2,1.0089302E-1,1.1933863E-2,6.9126636E-3,9.450995E-3,2.2465703E-3,3.0793488E-2,1.0373771E-2,1.1988759E-2,0E0,0E0,3.3716857E-4,1.611054E-3,7.0182327E-3,4.304004E-3,1.9608699E-3,1.8851674E-3,2.4905562E-2,2.013909E-2,1.06855035E-2,0E0,1.0875009E-2,1.1139154E-2,9.037554E-5,2.1154806E-4,1.2991372E-3,7.4414216E-4,3.4201588E-3,1.3307636E-3,3.9286045E-3,7.9408695E-4,2.066961E-4,3.156836E-4,1.4982738E-3,4.5450148E-4,1.3073757E-2,9.23188E-3,3.5780251E-3,1.0325883E-2,1.9296966E-3,7.112801E-3,8.103635E-3,0E0,2.609089E-3,9.739399E-3,0E0,0E0,0E0,0E0,0E0,0E0,0E0,0E0,0E0,0E0,0E0,0E0,0E0,0E0,0E0,0E0,0E0,0E0,0E0,0E0,0E0,0E0,0E0,0E0,0E0,0E0,0E0,0E0,0E0,0E0,0E0,0E0,0E0,0E0,0E0,0E0,0E0,0E0,0E0,0E0,0E0,0E0],"parents":[2147483647,0,0,1,1,2,2,3,3,4,4,5,5,6,6,7,7,8,8,9,9,10,10,11,11,12,12,15,15,16,16,17,17,18,18,19,19,20,20,21,21,22,22,23,23,25,25,26,26,27,27,28,28,29,29,30,30,31,31,32,32,33,33,34,34,35,35,36,36,37,37,38,38,39,39,40,40,41,41,42,42,43,43,44,44,45,45,47,47,48,48],"right_children":[2,4,6,8,10,12,14,16,18,20,22,24,26,-1,-1,28,30,32,34,36,38,40,42,44,-1,46,48,50,52,54,56,58,60,62,64,66,68,70,72,74,76,78,80,82,84,86,-1,88,90,-1,-1,-1,-1,-1,-1,-1,-1,-1,-1,-1,-1,-1,-1,-1,-1,-1,-1,-1,-1,-1,-1,-1,-1,-1,-1,-1,-1,-1,-1,-1,-1,-1,-1,-1,-1,-1,-1,-1,-1,-1,-1],"split_conditions":[1.2137808E-1,3.7401903E-2,6.012741E-2,1.4248344E-2,1.4492754E-2,2.1710914E-1,3.846154E-1,5.6993375E-3,8.0432665E-1,1.8013972E-1,8.695652E-2,1E0,1.4492754E-2,4.0995058E-2,2.6398238E-2,6.571144E-2,3.4022093E-2,1E0,7.1428573E-1,4.9234707E-2,1.8451759E-1,8.409862E-2,5.652174E-1,1.4492754E-2,6.133511E-4,1.7366296E-1,1.9981628E-2,4.76429E-3,1E0,7.993231E-1,1E0,1.4492754E-2,2.0170312E-2,3.2492902E-2,1E0,4.6852563E-2,6.1980367E-1,7.386876E-2,1.7405931E-3,1.3257642E-1,1.6678199E-3,2.302583E-2,5.840949E-3,8.2286306E-2,1.5835939E-2,2.6308233E-1,5.2940454E-3,3.5714287E-1,8.695652E-2,-8.3084055E-4,-1.4138521E-3,-7.605012E-4,-2.6564964E-4,-6.614676E-4,-4.118211E-4,-2.144174E-4,5.7127065E-4,-7.0709654E-4,-1.8126704E-4,4.4985476E-4,1.3649898E-3,4.5029027E-4,1.5610997E-3,-4.423485E-5,-9.4830245E-4,-2.0427094E-3,-4.166448E-3,-9.7372284E-4,-3.4128152E-5,5.9077877E-4,2.49866E-3,6.2791316E-4,5.2447624E-5,1.4305564E-3,2.7430379E-3,9.444499E-3,3.6222811E-3,-9.742446E-4,2.7488987E-4,1.5484927E-4,2.092388E-3,1.973891E-3,3.8163129E-3,6.1322153E-3,4.51549E-3,5.4973885E-3,1.5193178E-2,7.1244515E-3,1.0362491E-2,1.1597198E-2,8.763983E-3],"split_indices":[0,0,2,0,11,0,3,0,8,10,11,16,11,0,0,18,2,10,9,0,19,0,11,11,0,19,2,0,10,8,14,11,0,0,16,0,19,0,2,17,2,17,2,17,2,0,0,15,11,0,0,0,0,0,0,0,0,0,0,0,0,0,0,0,0,0,0,0,0,0,0,0,0,0,0,0,0,0,0,0,0,0,0,0,0,0,0,0,0,0,0],"split_type":[0,0,0,0,0,0,0,0,0,0,0,0,0,0,0,0,0,0,0,0,0,0,0,0,0,0,0,0,0,0,0,0,0,0,0,0,0,0,0,0,0,0,0,0,0,0,0,0,0,0,0,0,0,0,0,0,0,0,0,0,0,0,0,0,0,0,0,0,0,0,0,0,0,0,0,0,0,0,0,0,0,0,0,0,0,0,0,0,0,0,0],"sum_hessian":[5.8352E4,5.6072E4,2.28E3,4.8088E4,7.984E3,2.24E3,4E1,3.5785E4,1.2303E4,1.232E3,6.752E3,1.366E3,8.74E2,2E1,2E1,2.754E4,8.245E3,8.515E3,3.788E3,2.4E2,9.92E2,3.927E3,2.825E3,1.316E3,5E1,1.66E2,7.08E2,2.0425E4,7.115E3,7.525E3,7.2E2,7.748E3,7.67E2,2.711E3,1.077E3,5E1,1.9E2,1.62E2,8.3E2,3.285E3,6.42E2,1.41E3,1.415E3,2.65E2,1.051E3,3.5E1,1.31E2,2.14E2,4.94E2,2.04E4,2.5E1,7.035E3,8E1,3.85E3,3.675E3,5.88E2,1.32E2,1.347E3,6.401E3,5.77E2,1.9E2,2.386E3,3.25E2,9.82E2,9.5E1,4.5E1,5E0,4E1,1.5E2,1.05E2,5.7E1,1.5E2,6.8E2,2.313E3,9.72E2,2.5E1,6.17E2,2.5E2,1.16E3,3.2E2,1.095E3,7.5E1,1.9E2,6.11E2,4.4E2,1.5E1,2E1,1.82E2,3.2E1,2.74E2,2.2E2],"tree_param":{"num_deleted":"0","num_feature":"22","num_nodes":"91","size_leaf_vector":"1"}},{"base_weights":[1.8287403E-5,-6.472215E-4,1.6378244E-2,-1.4227683E-3,2.6279641E-3,1.5166939E-2,8.218694E-2,-1.8692792E-3,-5.981983E-4,1.5056531E-3,4.4312538E-3,1.13709755E-2,2.1079985E-2,2.9282184E-2,1.8855883E-2,-1.9113614E-3,-1.3841001E-3,8.288248E-4,-8.458568E-4,-1.7115205E-3,1.9232609E-3,1.3074983E-3,5.4754564E-3,1.0307107E-2,1.6504535E-2,1.9086475E-2,2.4651753E-2,-1.9704194E-3,-1.782079E-3,4.244449E-4,-1.4646327E-3,1.5467281E-3,-3.3221405E-4,-1.0149761E-3,1.3093873E-3,-9.067675E-4,-6.9613243E-3,-3.312194E-4,2.3568822E-3,5.156029E-4,5.929592E-3,5.2114762E-3,1.5861878E-2,8.387184E-3,1.4416977E-2,2.1500735E-2,2.9285906E-3,1.7348496E-2,7.965542E-3,1.6076608E-2,8.727739E-3,-6.3021696E-4,-5.791738E-4,-5.829241E-4,-5.0583854E-4,7.821472E-5,1.7395552E-4,-6.314885E-4,-4.1009503E-4,2.624284E-4,9.673627E-4,6.506739E-4,-1.8891087E-4,1.5456337E-5,-3.6566192E-4,1.13538495E-4,6.86954E-4,-1.7173E-4,-1.0418188E-3,-1.6188701E-3,-3.7999842E-3,4.4522822E-4,-2.2791955E-4,9.776606E-4,2.6833973E-4,-6.1162704E-5,1.1609594E-3,1.236825E-5,2.1292774E-3,1.186755E-3,2.371923E-3,5.997409E-3,2.1454983E-3,3.0276603E-3,1.0378318E-3,3.9396193E-3,4.9310233E-3,5.8055418E-3,8.227869E-3,4.2654355E-3,6.57514E-3,3.7038643E-3,6.1447164E-3],"categories":[],"categories_nodes":[],"categories_segments":[],"categories_sizes":[],"default_left":[0,0,0,0,0,0,0,0,0,0,0,0,0,0,0,0,0,0,0,0,0,0,0,0,0,0,0,0,0,0,0,0,0,0,0,0,0,0,0,0,0,0,0,0,0,0,0,0,0,0,0,0,0,0,0,0,0,0,0,0,0,0,0,0,0,0,0,0,0,0,0,0,0,0,0,0,0,0,0,0,0,0,0,0,0,0,0,0,0,0,0,0,0],"id":7,"left_children":[1,3,5,7,9,11,13,15,17,19,21,23,25,-1,-1,27,29,31,33,35,37,39,41,43,45,47,49,51,53,55,57,59,61,63,65,67,69,71,73,75,77,79,81,83,85,87,-1,89,-1,91,-1,-1,-1,-1,-1,-1,-1,-1,-1,-1,-1,-1,-1,-1,-1,-1,-1,-1,-1,-1,-1,-1,-1,-1,-1,-1,-1,-1,-1,-1,-1,-1,-1,-1,-1,-1,-1,-1,-1,-1,-1,-1,-1],"loss_changes":[6.3534045E-1,1.4243254E-1,1.8058199E-1,1.6691402E-2,2.17214E-2,5.0061166E-2,6.0887337E-3,5.978644E-4,5.6298845E-3,8.896026E-3,1.34250745E-2,7.295683E-3,5.7598054E-3,0E0,0E0,2.0310283E-4,3.4303777E-4,1.964272E-3,4.9485983E-3,3.2087571E-3,5.728485E-3,3.7779445E-3,8.378543E-3,8.8349655E-3,7.6392293E-3,6.8829954E-3,1.1336997E-2,9.2327595E-5,1.2797303E-4,2.4187302E-6,1.3787206E-4,1.6387254E-3,6.7176134E-4,2.7369605E-3,9.009151E-4,5.6507636E-4,8.3350716E-4,7.370061E-4,6.4790435E-3,2.1317499E-3,1.0382263E-3,1.0157421E-2,2.5906507E-3,6.484952E-3,7.184297E-4,1.1628084E-3,0E0,6.295711E-3,0E0,1.5221331E-3,0E0,0E0,0E0,0E0,0E0,0E0,0E0,0E0,0E0,0E0,0E0,0E0,0E0,0E0,0E0,0E0,0E0,0E0,0E0,0E0,0E0,0E0,0E0,0E0,0E0,0E0,0E0,0E0,0E0,0E0,0E0,0E0,0E0,0E0,0E0,0E0,0E0,0E0,0E0,0E0,0E0,0E0,0E0],"parents":[2147483647,0,0,1,1,2,2,3,3,4,4,5,5,6,6,7,7,8,8,9,9,10,10,11,11,12,12,15,15,16,16,17,17,18,18,19,19,20,20,21,21,22,22,23,23,24,24,25,25,26,26,27,27,28,28,29,29,30,30,31,31,32,32,33,33,34,34,35,35,36,36,37,37,38,38,39,39,40,40,41,41,42,42,43,43,44,44,45,45,47,47,49,49],"right_children":[2,4,6,8,10,12,14,16,18,20,22,24,26,-1,-1,28,30,32,34,36,38,40,42,44,46,48,50,52,54,56,58,60,62,64,66,68,70,72,74,76,78,80,82,84,86,88,-1,90,-1,92,-1,-1,-1,-1,-1,-1,-1,-1,-1,-1,-1,-1,-1,-1,-1,-1,-1,-1,-1,-1,-1,-1,-1,-1,-1,-1,-1,-1,-1,-1,-1,-1,-1,-1,-1,-1,-1,-1,-1,-1,-1,-1,-1],"split_conditions":[1.2137808E-1,3.0400177E-2,6.012741E-2,7.7698003E-3,5.6559246E-2,2.1710914E-1,3.846154E-1,4.8404932E-2,7.29927E-3,1.8612774E-1,1.8612774E-1,7.1428573E-1,5.735294E-1,2.9282184E-2,1.8855883E-2,5.735294E-1,5.882353E-2,9.42029E-2,1E0,2.87792E-1,1.4492754E-2,8.905215E-2,9.712811E-1,5.735294E-1,1.5835939E-2,7.1428573E-1,1.9981628E-2,1.4492754E-2,2.6715646E-4,5.109489E-2,1.4492754E-2,1.9313185E-2,7.2089803E-1,1.8612774E-1,7.620943E-1,9.810497E-1,4.6852563E-2,1.7405931E-3,9.42029E-2,7.1428573E-1,1.4492754E-2,6.4705884E-1,2.8985508E-2,2.8985508E-2,1.03329234E-1,1.8070908E-1,2.9285906E-3,1E0,7.965542E-3,8.695652E-2,8.727739E-3,-6.3021696E-4,-5.791738E-4,-5.829241E-4,-5.0583854E-4,7.821472E-5,1.7395552E-4,-6.314885E-4,-4.1009503E-4,2.624284E-4,9.673627E-4,6.506739E-4,-1.8891087E-4,1.5456337E-5,-3.6566192E-4,1.13538495E-4,6.86954E-4,-1.7173E-4,-1.0418188E-3,-1.6188701E-3,-3.7999842E-3,4.4522822E-4,-2.2791955E-4,9.776606E-4,2.6833973E-4,-6.1162704E-5,1.1609594E-3,1.236825E-5,2.1292774E-3,1.186755E-3,2.371923E-3,5.997409E-3,2.1454983E-3,3.0276603E-3,1.0378318E-3,3.9396193E-3,4.9310233E-3,5.8055418E-3,8.227869E-3,4.2654355E-3,6.57514E-3,3.7038643E-3,6.1447164E-3],"split_indices":[0,0,2,0,0,0,3,17,4,10,10,15,12,0,0,12,12,11,10,2,11,0,8,12,2,15,2,11,0,4,11,0,19,16,19,19,0,2,11,15,11,12,11,11,17,0,0,13,0,11,0,0,0,0,0,0,0,0,0,0,0,0,0,0,0,0,0,0,0,0,0,0,0,0,0,0,0,0,0,0,0,0,0,0,0,0,0,0,0,0,0,0,0],"split_type":[0,0,0,0,0,0,0,0,0,0,0,0,0,0,0,0,0,0,0,0,0,0,0,0,0,0,0,0,0,0,0,0,0,0,0,0,0,0,0,0,0,0,0,0,0,0,0,0,0,0,0,0,0,0,0,0,0,0,0,0,0,0,0,0,0,0,0,0,0,0,0,0,0,0,0,0,0,0,0,0,0,0,0,0,0,0,0,0,0,0,0,0,0],"sum_hessian":[5.8352E4,5.6072E4,2.28E3,4.5337E4,1.0735E4,2.24E3,4E1,2.941E4,1.5927E4,6.618E3,4.117E3,1.366E3,8.74E2,2E1,2E1,2.706E4,2.35E3,2.355E3,1.3572E4,7.6E2,5.858E3,1.032E3,3.085E3,1.134E3,2.32E2,5.65E2,3.09E2,1.8565E4,8.495E3,1E2,2.25E3,1.455E3,9E2,1.2585E4,9.87E2,6.6E2,1E2,9.45E2,4.913E3,8.82E2,1.5E2,3.01E3,7.5E1,7.75E2,3.59E2,1.32E2,1E2,4.61E2,1.04E2,1.07E2,2.02E2,4.335E3,1.423E4,3.165E3,5.33E3,5E1,5E1,2.95E2,1.955E3,1.04E3,4.15E2,9.5E1,8.05E2,2.02E3,1.0565E4,5.07E2,4.8E2,5.85E2,7.5E1,8E1,2E1,1.8E2,7.65E2,3.038E3,1.875E3,7.27E2,1.55E2,2.5E1,1.25E2,2.055E3,9.55E2,5E1,2.5E1,5.75E2,2E2,2.24E2,1.35E2,1E2,3.2E1,2.76E2,1.85E2,6E1,4.7E1],"tree_param":{"num_deleted":"0","num_feature":"22","num_nodes":"93","size_leaf_vector":"1"}},{"base_weights":[1.4930334E-5,-4.5289777E-4,1.1515373E-2,-9.049933E-4,2.4711231E-3,1.06468825E-2,5.8704946E-2,-1.1954374E-3,1.4689892E-4,1.0277769E-4,2.965592E-3,7.328057E-3,1.4076612E-2,2.0915838E-2,1.3468491E-2,-1.3023034E-3,-7.1533176E-4,3.439738E-4,-2.6236535E-3,-1.5617918E-3,1.9944138E-3,2.4205495E-3,5.409405E-3,6.443426E-3,1.014424E-2,6.535517E-3,1.4823439E-2,-1.3150777E-3,7.627368E-4,-1.7655852E-3,-5.3066795E-4,-1.7399361E-3,5.228794E-4,-1.7899985E-3,-3.3328207E-3,-3.5772852E-3,-4.8131353E-4,3.2615138E-4,3.256722E-3,1.8028752E-3,4.1972264E-3,4.39979E-3,1.0724706E-2,7.637025E-3,2.4267682E-3,9.245901E-3,1.1685526E-2,1.1368619E-3,9.153348E-3,1.1748671E-2,1.5983608E-2,-3.8839824E-4,-8.4295694E-4,3.3277733E-4,-6.335266E-4,-4.4182036E-4,-7.1966136E-4,-2.7966683E-4,-8.3977E-5,-2.7870703E-5,-8.779851E-4,7.364763E-5,5.597182E-4,-3.2511953E-4,-6.8172754E-4,-9.240993E-4,-1.2866884E-3,-1.5281969E-3,-4.2734615E-4,-2.7448896E-4,5.0113327E-4,2.2574556E-4,-1.0766962E-3,6.2292337E-4,2.226783E-3,4.0235167E-4,1.3329412E-3,1.4045568E-3,-5.940255E-4,8.173227E-4,2.1605087E-3,6.570458E-3,9.212102E-4,6.438624E-3,2.1206331E-3,9.259667E-4,1.2770909E-4,2.0552392E-3,3.2869845E-3,3.7147636E-3,2.5819594E-3,3.3113172E-3,2.0750763E-3,-6.496755E-4,3.7651483E-3,3.387625E-3,5.2579967E-3],"categories":[],"categories_nodes":[],"categories_segments":[],"categories_sizes":[],"default_left":[0,0,0,0,0,0,0,0,0,0,0,0,0,0,0,0,0,0,0,0,0,0,0,0,0,0,0,0,0,0,0,0,0,0,0,0,0,0,0,0,0,0,0,0,0,0,0,0,0,0,0,0,0,0,0,0,0,0,0,0,0,0,0,0,0,0,0,0,0,0,0,0,0,0,0,0,0,0,0,0,0,0,0,0,0,0,0,0,0,0,0,0,0,0,0,0,0],"id":8,"left_children":[1,3,5,7,9,11,13,15,17,19,21,23,25,-1,-1,27,29,31,33,35,37,39,41,43,45,47,49,51,53,55,57,59,61,63,65,67,69,71,73,75,77,79,81,83,85,87,89,-1,91,93,95,-1,-1,-1,-1,-1,-1,-1,-1,-1,-1,-1,-1,-1,-1,-1,-1,-1,-1,-1,-1,-1,-1,-1,-1,-1,-1,-1,-1,-1,-1,-1,-1,-1,-1,-1,-1,-1,-1,-1,-1,-1,-1,-1,-1,-1,-1],"loss_changes":[3.139578E-1,7.41272E-2,9.285879E-2,1.4837552E-2,8.793291E-3,2.5405377E-2,3.1064749E-3,1.9516535E-3,5.7388823E-3,4.090205E-3,8.261185E-3,2.7771965E-3,6.1038285E-3,0E0,0E0,8.221157E-4,1.3432871E-3,3.659051E-3,4.0669227E-4,1.5030667E-3,1.2793012E-3,5.568363E-3,6.0275905E-3,4.1572824E-3,2.671834E-4,6.913529E-4,3.3830553E-3,9.404868E-4,1.9358823E-4,1.8860167E-4,5.933937E-4,1.516423E-3,3.3657253E-3,1.0759046E-4,7.756101E-5,7.7964715E-4,4.2236055E-4,4.4168867E-4,1.6858841E-3,4.5921737E-3,3.931025E-3,4.4540092E-3,1.5331285E-2,5.1197074E-3,2.6406255E-4,6.4606965E-4,9.945687E-5,0E0,1.385808E-4,3.1287596E-3,5.043298E-3,0E0,0E0,0E0,0E0,0E0,0E0,0E0,0E0,0E0,0E0,0E0,0E0,0E0,0E0,0E0,0E0,0E0,0E0,0E0,0E0,0E0,0E0,0E0,0E0,0E0,0E0,0E0,0E0,0E0,0E0,0E0,0E0,0E0,0E0,0E0,0E0,0E0,0E0,0E0,0E0,0E0,0E0,0E0,0E0,0E0,0E0],"parents":[2147483647,0,0,1,1,2,2,3,3,4,4,5,5,6,6,7,7,8,8,9,9,10,10,11,11,12,12,15,15,16,16,17,17,18,18,19,19,20,20,21,21,22,22,23,23,24,24,25,25,26,26,27,27,28,28,29,29,30,30,31,31,32,32,33,33,34,34,35,35,36,36,37,37,38,38,39,39,40,40,41,41,42,42,43,43,44,44,45,45,46,46,48,48,49,49,50,50],"right_children":[2,4,6,8,10,12,14,16,18,20,22,24,26,-1,-1,28,30,32,34,36,38,40,42,44,46,48,50,52,54,56,58,60,62,64,66,68,70,72,74,76,78,80,82,84,86,88,90,-1,92,94,96,-1,-1,-1,-1,-1,-1,-1,-1,-1,-1,-1,-1,-1,-1,-1,-1,-1,-1,-1,-1,-1,-1,-1,-1,-1,-1,-1,-1,-1,-1,-1,-1,-1,-1,-1,-1,-1,-1,-1,-1,-1,-1,-1,-1,-1,-1],"split_conditions":[1.2137808E-1,3.8214505E-2,6.012741E-2,1.6686147E-2,1.8013972E-1,1.8070908E-1,3.846154E-1,6.304391E-2,1E0,6.773529E-2,7.741971E-2,5.735294E-1,1.3200591E-2,2.0915838E-2,1.3468491E-2,1.33355595E-2,1.4492754E-2,1.8013972E-1,6.3861515E-3,7.369119E-1,6.1980367E-1,1.7092559E-1,7.1428573E-1,5.7971016E-2,8.695652E-2,2.8985508E-2,2.2205588E-1,1.077531E-2,1E0,3.3544894E-2,2.2205588E-1,7.3583215E-1,1E0,6.6417225E-2,3.533144E-2,3.5714287E-1,7.1428573E-1,1E0,1E0,7.1428573E-1,1E0,5.735294E-1,8.544296E-3,5.882353E-2,1E0,1.3200591E-2,1.3200591E-2,1.1368619E-3,8.695652E-2,2.1710914E-1,1.4492754E-2,-3.8839824E-4,-8.4295694E-4,3.3277733E-4,-6.335266E-4,-4.4182036E-4,-7.1966136E-4,-2.7966683E-4,-8.3977E-5,-2.7870703E-5,-8.779851E-4,7.364763E-5,5.597182E-4,-3.2511953E-4,-6.8172754E-4,-9.240993E-4,-1.2866884E-3,-1.5281969E-3,-4.2734615E-4,-2.7448896E-4,5.0113327E-4,2.2574556E-4,-1.0766962E-3,6.2292337E-4,2.226783E-3,4.0235167E-4,1.3329412E-3,1.4045568E-3,-5.940255E-4,8.173227E-4,2.1605087E-3,6.570458E-3,9.212102E-4,6.438624E-3,2.1206331E-3,9.259667E-4,1.2770909E-4,2.0552392E-3,3.2869845E-3,3.7147636E-3,2.5819594E-3,3.3113172E-3,2.0750763E-3,-6.496755E-4,3.7651483E-3,3.387625E-3,5.2579967E-3],"split_indices":[0,0,2,0,10,0,3,17,16,0,0,12,2,0,0,0,11,10,2,19,19,18,15,11,11,11,16,0,13,2,16,19,13,18,0,15,15,16,13,15,16,12,2,5,13,2,2,0,11,0,11,0,0,0,0,0,0,0,0,0,0,0,0,0,0,0,0,0,0,0,0,0,0,0,0,0,0,0,0,0,0,0,0,0,0,0,0,0,0,0,0,0,0,0,0,0,0],"split_type":[0,0,0,0,0,0,0,0,0,0,0,0,0,0,0,0,0,0,0,0,0,0,0,0,0,0,0,0,0,0,0,0,0,0,0,0,0,0,0,0,0,0,0,0,0,0,0,0,0,0,0,0,0,0,0,0,0,0,0,0,0,0,0,0,0,0,0,0,0,0,0,0,0,0,0,0,0,0,0,0,0,0,0,0,0,0,0,0,0,0,0,0,0,0,0,0,0],"sum_hessian":[5.8352E4,5.6072E4,2.28E3,4.8564E4,7.508E3,2.24E3,4E1,3.8056E4,1.0508E4,1.297E3,6.211E3,1.14E3,1.1E3,2E1,2E1,3.1126E4,6.93E3,9.811E3,6.97E2,6.9E2,6.07E2,5.08E3,1.131E3,8.7E2,2.7E2,1E2,1E3,3.0935E4,1.91E2,1.035E3,5.895E3,7.75E2,9.036E3,3.22E2,3.75E2,2.4E2,4.5E2,2.62E2,3.45E2,3.771E3,1.309E3,9.52E2,1.79E2,6.7E2,2E2,1.75E2,9.5E1,5E1,5E1,2.77E2,7.23E2,3.052E4,4.15E2,1.71E2,2E1,7.1E2,3.25E2,2.265E3,3.63E3,3.25E2,4.5E2,7.49E3,1.546E3,1.32E2,1.9E2,3E2,7.5E1,1.4E2,1E2,3.75E2,7.5E1,2.37E2,2.5E1,2.7E2,7.5E1,3.211E3,5.6E2,1.214E3,9.5E1,5.97E2,3.55E2,7.2E1,1.07E2,2.5E1,6.45E2,1.5E2,5E1,7.5E1,1E2,7.5E1,2E1,2.5E1,2.5E1,1.5E1,2.62E2,1.81E2,5.42E2],"tree_param":{"num_deleted":"0","num_feature":"22","num_nodes":"97","size_leaf_vector":"1"}},{"base_weights":[1.1833607E-5,-3.3458363E-4,7.741653E-3,-7.842014E-4,1.020238E-3,7.169363E-3,4.1932084E-2,1.5346052E-3,-8.1182324E-4,5.0157524E-4,2.3508524E-3,4.9823993E-3,9.870237E-3,1.4939874E-2,9.620346E-3,4.3367655E-3,1.069462E-3,-9.4482873E-4,-5.3479086E-4,1.0679823E-3,-9.234654E-4,1.5788919E-3,3.5242296E-3,2.1322242E-3,5.642764E-3,7.5291162E-3,1.1513682E-2,1.7179527E-3,1.6061673E-3,3.3557694E-3,8.556761E-4,-8.9785585E-4,-1.0504804E-3,-1.5463043E-3,-3.6614423E-4,-6.1927416E-4,1.8267586E-3,-2.2129663E-3,-6.020982E-4,3.2496986E-3,1.1039086E-3,9.23618E-5,3.9615817E-3,5.1663835E-3,5.583163E-4,1.0030984E-2,4.943743E-3,6.570398E-3,3.9629526E-3,9.544535E-3,1.519725E-2,6.089534E-4,2.3030017E-4,1.1900999E-3,7.031385E-4,3.839697E-4,-7.073981E-5,-2.9265482E-4,-2.384197E-4,-3.0988464E-4,-8.651871E-4,-3.97182E-4,-9.1649644E-4,-1.0843904E-5,-2.6781618E-4,1.7128083E-3,-2.3292094E-4,3.4178287E-4,1.1181211E-3,-2.987525E-4,-7.338351E-4,-5.960092E-4,-5.7704652E-5,1.4911703E-3,4.9315195E-4,6.864069E-5,6.7031354E-4,1.535839E-3,-5.829451E-4,1.7836029E-3,9.314752E-4,8.158132E-4,1.6550915E-3,-3.6558366E-4,5.405749E-4,5.1871934E-3,7.918008E-4,1.2179042E-3,2.3596743E-3,3.1798144E-3,1.7650307E-3,8.665686E-3,2.553901E-3,2.442722E-3,4.7556595E-3],"categories":[],"categories_nodes":[],"categories_segments":[],"categories_sizes":[],"default_left":[0,0,0,0,0,0,0,0,0,0,0,0,0,0,0,0,0,0,0,0,0,0,0,0,0,0,0,0,0,0,0,0,0,0,0,0,0,0,0,0,0,0,0,0,0,0,0,0,0,0,0,0,0,0,0,0,0,0,0,0,0,0,0,0,0,0,0,0,0,0,0,0,0,0,0,0,0,0,0,0,0,0,0,0,0,0,0,0,0,0,0,0,0,0,0],"id":9,"left_children":[1,3,5,7,9,11,13,15,17,19,21,23,25,-1,-1,27,29,31,33,35,37,39,41,43,45,47,49,-1,51,53,55,57,59,61,63,65,67,69,71,73,75,77,79,81,83,85,87,89,-1,91,93,-1,-1,-1,-1,-1,-1,-1,-1,-1,-1,-1,-1,-1,-1,-1,-1,-1,-1,-1,-1,-1,-1,-1,-1,-1,-1,-1,-1,-1,-1,-1,-1,-1,-1,-1,-1,-1,-1,-1,-1,-1,-1,-1,-1],"loss_changes":[1.5625691E-1,3.4022536E-2,4.8675135E-2,2.6871748E-3,9.603502E-3,1.4499053E-2,1.5849248E-3,6.3924445E-4,1.526501E-3,8.084624E-3,3.529776E-3,2.5533475E-3,4.1494146E-3,0E0,0E0,2.5644037E-4,2.048602E-4,1.3800524E-4,2.2929942E-3,9.1766855E-3,1.1793026E-3,1.8661469E-3,2.3230799E-3,1.2291913E-3,3.343016E-3,2.4021268E-3,4.533455E-3,0E0,7.3230913E-6,1.2969947E-5,1.8088304E-4,1.5449524E-4,2.7381163E-4,6.4040767E-4,2.0026562E-3,2.216005E-3,6.454747E-3,1.5874743E-4,1.2942848E-3,1.4315988E-3,1.8158092E-3,1.8109079E-3,2.3148414E-3,6.049173E-5,3.800696E-4,8.057153E-3,2.4375021E-3,1.0253713E-3,0E0,8.193344E-3,9.013079E-4,0E0,0E0,0E0,0E0,0E0,0E0,0E0,0E0,0E0,0E0,0E0,0E0,0E0,0E0,0E0,0E0,0E0,0E0,0E0,0E0,0E0,0E0,0E0,0E0,0E0,0E0,0E0,0E0,0E0,0E0,0E0,0E0,0E0,0E0,0E0,0E0,0E0,0E0,0E0,0E0,0E0,0E0,0E0,0E0],"parents":[2147483647,0,0,1,1,2,2,3,3,4,4,5,5,6,6,7,7,8,8,9,9,10,10,11,11,12,12,15,15,16,16,17,17,18,18,19,19,20,20,21,21,22,22,23,23,24,24,25,25,26,26,28,28,29,29,30,30,31,31,32,32,33,33,34,34,35,35,36,36,37,37,38,38,39,39,40,40,41,41,42,42,43,43,44,44,45,45,46,46,47,47,49,49,50,50],"right_children":[2,4,6,8,10,12,14,16,18,20,22,24,26,-1,-1,28,30,32,34,36,38,40,42,44,46,48,50,-1,52,54,56,58,60,62,64,66,68,70,72,74,76,78,80,82,84,86,88,90,-1,92,94,-1,-1,-1,-1,-1,-1,-1,-1,-1,-1,-1,-1,-1,-1,-1,-1,-1,-1,-1,-1,-1,-1,-1,-1,-1,-1,-1,-1,-1,-1,-1,-1,-1,-1,-1,-1,-1,-1,-1,-1,-1,-1,-1,-1],"split_conditions":[1.09979406E-1,2.3209216E-2,6.012741E-2,5.882353E-2,6.4705884E-1,1.8070908E-1,3.846154E-1,2.857143E-1,6.52307E-3,7.2463766E-2,5.0192017E-2,1.4492754E-2,1.1901148E-1,1.4939874E-2,9.620346E-3,6.485171E-3,6.660651E-2,5.735294E-1,1.4492754E-2,1.4492754E-2,4.4927537E-1,6.6322766E-2,3.5931922E-2,1.8451759E-1,3.9132033E-3,7.1428573E-1,5.735294E-1,1.7179527E-3,1.4415317E-2,1.8533979E-2,1.7209329E-2,5.6770747E-4,4.9757888E-3,1.8533979E-2,9.42029E-2,2.857143E-1,5.6993376E-2,1.7405931E-3,2.7320215E-2,8.695652E-2,8.032608E-1,8.695652E-2,5.5277858E-2,1.2137808E-1,1.1661616E-2,2.8985508E-2,3.5714287E-1,1.8013972E-1,3.9629526E-3,1.9981628E-2,1.9981628E-2,6.089534E-4,2.3030017E-4,1.1900999E-3,7.031385E-4,3.839697E-4,-7.073981E-5,-2.9265482E-4,-2.384197E-4,-3.0988464E-4,-8.651871E-4,-3.97182E-4,-9.1649644E-4,-1.0843904E-5,-2.6781618E-4,1.7128083E-3,-2.3292094E-4,3.4178287E-4,1.1181211E-3,-2.987525E-4,-7.338351E-4,-5.960092E-4,-5.7704652E-5,1.4911703E-3,4.9315195E-4,6.864069E-5,6.7031354E-4,1.535839E-3,-5.829451E-4,1.7836029E-3,9.314752E-4,8.158132E-4,1.6550915E-3,-3.6558366E-4,5.405749E-4,5.1871934E-3,7.918008E-4,1.2179042E-3,2.3596743E-3,3.1798144E-3,1.7650307E-3,8.665686E-3,2.553901E-3,2.442722E-3,4.7556595E-3],"split_indices":[0,0,2,12,12,0,3,15,0,11,0,11,18,0,0,2,8,5,11,11,11,18,21,19,21,15,12,0,0,0,0,0,0,0,11,15,0,2,21,11,8,11,21,0,2,11,15,10,0,2,2,0,0,0,0,0,0,0,0,0,0,0,0,0,0,0,0,0,0,0,0,0,0,0,0,0,0,0,0,0,0,0,0,0,0,0,0,0,0,0,0,0,0,0,0],"split_type":[0,0,0,0,0,0,0,0,0,0,0,0,0,0,0,0,0,0,0,0,0,0,0,0,0,0,0,0,0,0,0,0,0,0,0,0,0,0,0,0,0,0,0,0,0,0,0,0,0,0,0,0,0,0,0,0,0,0,0,0,0,0,0,0,0,0,0,0,0,0,0,0,0,0,0,0,0,0,0,0,0,0,0,0,0,0,0,0,0,0,0,0,0,0,0],"sum_hessian":[5.8352E4,5.585E4,2.502E3,4.1934E4,1.3916E4,2.462E3,4E1,4.93E2,4.1441E4,1.0014E4,3.902E3,1.362E3,1.1E3,2E1,2E1,6.9E1,4.24E2,2.7997E4,1.3444E4,7.166E3,2.848E3,2.355E3,1.547E3,2.57E2,1.105E3,4.56E2,6.44E2,4.5E1,2.4E1,3.5E1,3.89E2,1.9387E4,8.61E3,1.92E3,1.1524E4,2.223E3,4.943E3,5.67E2,2.281E3,5.2E2,1.835E3,1.75E2,1.372E3,8.7E1,1.7E2,1.5E2,9.55E2,3.92E2,6.4E1,4.22E2,2.22E2,1.5E1,9E0,2E1,1.5E1,2.8E2,1.09E2,1.1054E4,8.333E3,8.53E3,8E1,1.675E3,2.45E2,7.085E3,4.439E3,5.3E1,2.17E3,3.631E3,1.312E3,9.2E1,4.75E2,5.2E2,1.761E3,2.5E2,2.7E2,1.035E3,8E2,5E1,1.25E2,4.12E2,9.6E2,1.2E1,7.5E1,7E1,1E2,7.5E1,7.5E1,7.35E2,2.2E2,5.5E1,3.37E2,2E1,4.02E2,2E1,2.02E2],"tree_param":{"num_deleted":"0","num_feature":"22","num_nodes":"95","size_leaf_vector":"1"}}]},"name":"gbtree"},"learner_model_param":{"base_score":"2.3844201E-2","boost_from_average":"1","num_class":"0","num_feature":"22","num_target":"1"},"objective":{"name":"reg:squarederror","reg_loss_param":{"scale_pos_weight":"1"}}},"version":[2,0,3]}